<?xml version="1.0" encoding="ISO-8859-1"?>
<smile version="1.0" id="B" numsamples="10000" discsamples="10000">
	<nodes>
		<cpt id="NODE000">
			<state id="STATE00" />
			<state id="STATE01" />
			<state id="STATE02" />
			<state id="STATE03" />
			<probabilities>0.259259 0.111111 0.296296 0.333333</probabilities>
		</cpt>
		<cpt id="NODE001">
			<state id="STATE00" />
			<state id="STATE01" />
			<state id="STATE02" />
			<state id="STATE03" />
			<probabilities>0.15 0.15 0.3 0.4</probabilities>
		</cpt>
		<cpt id="NODE002">
			<state id="STATE00" />
			<state id="STATE01" />
			<state id="STATE02" />
			<state id="STATE03" />
			<parents>NODE001</parents>
			<probabilities>0.133333 0.2 0.333333 0.333333 0.1 0.15 0.3 0.45 0.294118 0.205882 0.205882 0.294118 0.210526 0.263158 0.263158 0.263158</probabilities>
		</cpt>
		<cpt id="NODE003">
			<state id="STATE00" />
			<state id="STATE01" />
			<state id="STATE02" />
			<state id="STATE03" />
			<parents>NODE000 NODE001</parents>
			<probabilities>0.368421 0.105263 0.263158 0.263158 0.136364 0.363636 0.227273 0.272727 0.242424 0.272727 0.30303 0.181818 0.321429 0.357143 0.25 0.07142900000000001 0.136364 0.181818 0.454545 0.227273 0.25 0.25 0.214286 0.285714 0.416667 0.125 0.208333 0.25 0.230769 0.307692 0.269231 0.192308 0.32 0.32 0.2 0.16 0.259259 0.074074 0.333333 0.333333 0.263158 0.473684 0.105263 0.157895 0.185185 0.333333 0.333333 0.148148 0.304348 0.304348 0.217391 0.173913 0.193548 0.225806 0.258065 0.322581 0.263158 0.157895 0.421053 0.157895 0.2 0.333333 0.266667 0.2</probabilities>
		</cpt>
		<cpt id="NODE004">
			<state id="STATE00" />
			<state id="STATE01" />
			<state id="STATE02" />
			<state id="STATE03" />
			<probabilities>0.428571 0.238095 0.238095 0.095238</probabilities>
		</cpt>
		<cpt id="NODE005">
			<state id="STATE00" />
			<state id="STATE01" />
			<state id="STATE02" />
			<state id="STATE03" />
			<parents>NODE000 NODE001</parents>
			<probabilities>0.228571 0.228571 0.257143 0.285714 0.214286 0.321429 0.214286 0.25 0.15625 0.28125 0.28125 0.28125 0.12 0.28 0.28 0.32 0.32 0.16 0.12 0.4 0.225806 0.193548 0.322581 0.258065 0.346154 0.346154 0.192308 0.115385 0.409091 0.136364 0.318182 0.136364 0.333333 0.277778 0.277778 0.111111 0.07692300000000001 0.269231 0.384615 0.269231 0.257143 0.285714 0.285714 0.171429 0.4 0.2 0.1 0.3 0.173913 0.130435 0.26087 0.434783 0.555556 0.111111 0.222222 0.111111 0.333333 0.185185 0.259259 0.222222 0.111111 0.111111 0.277778 0.5</probabilities>
		</cpt>
		<cpt id="NODE006">
			<state id="STATE00" />
			<state id="STATE01" />
			<state id="STATE02" />
			<state id="STATE03" />
			<parents>NODE001</parents>
			<probabilities>0.07692300000000001 0.269231 0.269231 0.384615 0.173913 0.130435 0.347826 0.347826 0.15 0.15 0.3 0.4 0.409091 0.136364 0.363636 0.090909</probabilities>
		</cpt>
		<cpt id="NODE007">
			<state id="STATE00" />
			<state id="STATE01" />
			<state id="STATE02" />
			<state id="STATE03" />
			<parents>NODE005</parents>
			<probabilities>0.166667 0.291667 0.291667 0.25 0.230769 0.192308 0.384615 0.192308 0.222222 0.388889 0.166667 0.222222 0.2 0.266667 0.333333 0.2</probabilities>
		</cpt>
		<cpt id="NODE008">
			<state id="STATE00" />
			<state id="STATE01" />
			<state id="STATE02" />
			<state id="STATE03" />
			<probabilities>0.25 0.125 0.125 0.5</probabilities>
		</cpt>
		<cpt id="NODE009">
			<state id="STATE00" />
			<state id="STATE01" />
			<state id="STATE02" />
			<state id="STATE03" />
			<parents>NODE000 NODE001 NODE005</parents>
			<probabilities>0.32 0.36 0.24 0.08 0.318182 0.181818 0.090909 0.409091 0.125 0.25 0.1875 0.4375 0.185185 0.296296 0.333333 0.185185 0.176471 0.235294 0.235294 0.352941 0.291667 0.375 0.25 0.083333 0.5 0.142857 0.142857 0.214286 0.2 0.4 0.2 0.2 0.294118 0.117647 0.176471 0.411765 0.222222 0.37037 0.111111 0.296296 0.277778 0.222222 0.388889 0.111111 0.166667 0.166667 0.111111 0.555556 0.266667 0.333333 0.266667 0.133333 0.227273 0.090909 0.272727 0.409091 0.16129 0.290323 0.225806 0.322581 0.25 0.416667 0.208333 0.125 0.227273 0.363636 0.227273 0.181818 0.192308 0.269231 0.307692 0.230769 0.258065 0.225806 0.322581 0.193548 0.08695700000000001 0.304348 0.391304 0.217391 0.375 0.333333 0.208333 0.083333 0.296296 0.148148 0.296296 0.259259 0.4 0.24 0.24 0.12 0.37037 0.37037 0.148148 0.111111 0.103448 0.344828 0.310345 0.241379 0.25 0.291667 0.166667 0.291667 0.233333 0.2 0.266667 0.3 0.36 0.36 0.12 0.16 0.16 0.4 0.32 0.12 0.269231 0.269231 0.07692300000000001 0.384615 0.3 0.166667 0.3 0.233333 0.117647 0.176471 0.529412 0.176471 0.111111 0.277778 0.5 0.111111 0.25 0.166667 0.375 0.208333 0.142857 0.5 0.142857 0.214286 0.36 0.16 0.16 0.32 0.291667 0.125 0.291667 0.291667 0.181818 0.454545 0.181818 0.181818 0.181818 0.181818 0.363636 0.272727 0.208333 0.291667 0.083333 0.416667 0.111111 0.296296 0.37037 0.222222 0.148148 0.111111 0.37037 0.37037 0.3125 0.3125 0.125 0.25 0.375 0.125 0.3125 0.1875 0.15 0.25 0.2 0.4 0.133333 0.266667 0.133333 0.466667 0.217391 0.130435 0.304348 0.347826 0.321429 0.214286 0.107143 0.357143 0.555556 0.111111 0.222222 0.111111 0.157895 0.157895 0.315789 0.368421 0.178571 0.25 0.357143 0.214286 0.434783 0.217391 0.26087 0.08695700000000001 0.4 0.266667 0.133333 0.2 0.321429 0.107143 0.357143 0.214286 0.333333 0.1 0.233333 0.333333 0.222222 0.333333 0.074074 0.37037 0.157895 0.157895 0.263158 0.421053 0.181818 0.242424 0.30303 0.272727 0.117647 0.176471 0.117647 0.588235 0.153846 0.307692 0.153846 0.384615 0.37037 0.148148 0.148148 0.333333 0.230769 0.384615 0.153846 0.230769 0.142857 0.238095 0.428571 0.190476 0.193548 0.290323 0.193548 0.322581</probabilities>
		</cpt>
		<cpt id="NODE010">
			<state id="STATE00" />
			<state id="STATE01" />
			<state id="STATE02" />
			<state id="STATE03" />
			<parents>NODE002 NODE003 NODE004 NODE005</parents>
			<probabilities>0.25 0.222222 0.25 0.277778 0.3 0.3 0.133333 0.266667 0.074074 0.296296 0.259259 0.37037 0.375 0.25 0.083333 0.291667 0.137931 0.310345 0.275862 0.275862 0.45 0.2 0.25 0.1 0.208333 0.375 0.166667 0.25 0.391304 0.08695700000000001 0.173913 0.347826 0.32 0.12 0.16 0.4 0.142857 0.357143 0.142857 0.357143 0.310345 0.275862 0.068966 0.344828 0.235294 0.235294 0.117647 0.411765 0.238095 0.285714 0.238095 0.238095 0.275862 0.310345 0.344828 0.068966 0.212121 0.272727 0.272727 0.242424 0.375 0.083333 0.125 0.416667 0.222222 0.37037 0.185185 0.222222 0.210526 0.263158 0.263158 0.263158 0.25 0.125 0.1875 0.4375 0.233333 0.166667 0.3 0.3 0.333333 0.166667 0.388889 0.111111 0.136364 0.318182 0.090909 0.454545 0.272727 0.090909 0.409091 0.227273 0.142857 0.285714 0.428571 0.142857 0.064516 0.290323 0.322581 0.322581 0.347826 0.130435 0.08695700000000001 0.434783 0.28 0.4 0.12 0.2 0.296296 0.259259 0.259259 0.185185 0.25 0.222222 0.277778 0.25 0.333333 0.142857 0.142857 0.380952 0.181818 0.409091 0.181818 0.227273 0.384615 0.230769 0.115385 0.269231 0.206897 0.310345 0.206897 0.275862 0.296296 0.074074 0.296296 0.333333 0.375 0.1875 0.3125 0.125 0.1875 0.3125 0.1875 0.3125 0.172414 0.241379 0.310345 0.275862 0.15 0.25 0.35 0.25 0.210526 0.315789 0.263158 0.210526 0.5 0.111111 0.277778 0.111111 0.307692 0.115385 0.307692 0.269231 0.322581 0.225806 0.193548 0.258065 0.4 0.133333 0.333333 0.133333 0.416667 0.333333 0.083333 0.166667 0.25 0.25 0.3 0.2 0.263158 0.473684 0.105263 0.157895 0.321429 0.142857 0.214286 0.321429 0.294118 0.235294 0.205882 0.264706 0.173913 0.173913 0.217391 0.434783 0.157895 0.157895 0.421053 0.263158 0.210526 0.263158 0.157895 0.368421 0.357143 0.285714 0.285714 0.07142900000000001 0.473684 0.157895 0.263158 0.105263 0.454545 0.136364 0.090909 0.318182 0.416667 0.375 0.083333 0.125 0.32 0.16 0.4 0.12 0.47619 0.190476 0.190476 0.142857 0.266667 0.166667 0.333333 0.233333 0.117647 0.588235 0.176471 0.117647 0.3 0.15 0.3 0.25 0.238095 0.190476 0.333333 0.238095 0.384615 0.307692 0.192308 0.115385 0.16 0.24 0.28 0.32 0.333333 0.333333 0.166667 0.166667 0.333333 0.111111 0.37037 0.185185 0.222222 0.111111 0.222222 0.444444 0.230769 0.461538 0.153846 0.153846 0.193548 0.258065 0.322581 0.225806 0.2 0.2 0.4 0.2 0.269231 0.192308 0.230769 0.307692 0.263158 0.421053 0.105263 0.210526 0.32 0.28 0.16 0.24 0.142857 0.333333 0.380952 0.142857 0.322581 0.096774 0.290323 0.290323 0.296296 0.148148 0.296296 0.259259 0.212121 0.242424 0.30303 0.242424 0.222222 0.111111 0.555556 0.111111 0.346154 0.346154 0.230769 0.07692300000000001 0.3125 0.15625 0.3125 0.21875 0.259259 0.259259 0.296296 0.185185 0.142857 0.285714 0.333333 0.238095 0.115385 0.384615 0.384615 0.115385 0.21875 0.28125 0.3125 0.1875 0.264706 0.205882 0.294118 0.235294 0.321429 0.107143 0.285714 0.285714 0.388889 0.277778 0.166667 0.166667 0.333333 0.277778 0.222222 0.166667 0.333333 0.208333 0.166667 0.291667 0.136364 0.363636 0.227273 0.272727 0.346154 0.230769 0.07692300000000001 0.346154 0.2 0.5 0.2 0.1 0.266667 0.266667 0.166667 0.3 0.225806 0.322581 0.129032 0.322581 0.125 0.291667 0.291667 0.291667 0.27027 0.27027 0.189189 0.27027 0.190476 0.428571 0.142857 0.238095 0.24 0.28 0.16 0.32 0.375 0.125 0.333333 0.166667 0.36 0.12 0.28 0.24 0.1 0.5 0.25 0.15 0.206897 0.344828 0.344828 0.103448 0.257143 0.257143 0.285714 0.2 0.275862 0.241379 0.137931 0.344828 0.214286 0.285714 0.214286 0.285714 0.26087 0.08695700000000001 0.217391 0.434783 0.095238 0.380952 0.238095 0.285714 0.416667 0.166667 0.083333 0.333333 0.266667 0.2 0.233333 0.3 0.230769 0.307692 0.307692 0.153846 0.318182 0.136364 0.363636 0.181818 0.275862 0.172414 0.275862 0.275862 0.25 0.5 0.125 0.125 0.344828 0.275862 0.241379 0.137931 0.208333 0.375 0.166667 0.25 0.315789 0.105263 0.315789 0.263158 0.315789 0.105263 0.210526 0.368421 0.16129 0.258065 0.290323 0.290323 0.222222 0.185185 0.222222 0.37037 0.3 0.2 0.3 0.2 0.115385 0.307692 0.384615 0.192308 0.444444 0.222222 0.111111 0.222222 0.2 0.233333 0.333333 0.233333 0.428571 0.238095 0.190476 0.142857 0.1 0.15 0.4 0.35 0.225806 0.225806 0.258065 0.290323 0.307692 0.230769 0.384615 0.07692300000000001 0.416667 0.375 0.125 0.083333 0.25 0.25 0.15 0.35 0.346154 0.269231 0.269231 0.115385 0.6 0.133333 0.133333 0.133333 0.137931 0.172414 0.344828 0.344828 0.272727 0.318182 0.318182 0.090909 0.352941 0.176471 0.176471 0.294118 0.142857 0.285714 0.214286 0.357143 0.333333 0.222222 0.185185 0.259259 0.3 0.333333 0.3 0.066667 0.210526 0.210526 0.315789 0.263158 0.285714 0.214286 0.25 0.25 0.344828 0.344828 0.172414 0.137931 0.5 0.166667 0.222222 0.111111 0.4375 0.25 0.1875 0.125 0.08695700000000001 0.347826 0.173913 0.391304 0.2 0.16 0.28 0.36 0.384615 0.07692300000000001 0.269231 0.269231 0.315789 0.157895 0.368421 0.157895 0.2 0.1 0.3 0.4 0.571429 0.142857 0.142857 0.142857 0.266667 0.2 0.2 0.333333 0.148148 0.333333 0.222222 0.296296 0.275862 0.310345 0.344828 0.068966 0.217391 0.391304 0.173913 0.217391 0.157895 0.526316 0.105263 0.210526 0.125 0.333333 0.416667 0.125 0.416667 0.208333 0.166667 0.208333 0.24 0.28 0.36 0.12 0.105263 0.210526 0.473684 0.210526 0.166667 0.25 0.416667 0.166667 0.352941 0.176471 0.294118 0.176471 0.105263 0.368421 0.263158 0.263158 0.1875 0.3125 0.25 0.25 0.173913 0.217391 0.347826 0.26087 0.47619 0.142857 0.095238 0.285714 0.210526 0.105263 0.473684 0.210526 0.238095 0.380952 0.190476 0.190476 0.346154 0.269231 0.230769 0.153846 0.227273 0.227273 0.136364 0.409091 0.310345 0.206897 0.206897 0.275862 0.133333 0.333333 0.266667 0.266667 0.1875 0.4375 0.25 0.125 0.347826 0.08695700000000001 0.217391 0.347826 0.241379 0.241379 0.172414 0.344828 0.4 0.4 0.1 0.1 0.157895 0.421053 0.157895 0.263158 0.3 0.233333 0.2 0.266667 0.315789 0.368421 0.105263 0.210526 0.25 0.285714 0.214286 0.25 0.111111 0.111111 0.388889 0.388889 0.28 0.4 0.24 0.08 0.235294 0.235294 0.235294 0.294118 0.347826 0.217391 0.347826 0.08695700000000001 0.37037 0.333333 0.185185 0.111111 0.08695700000000001 0.391304 0.434783 0.08695700000000001 0.318182 0.181818 0.181818 0.318182 0.529412 0.176471 0.176471 0.117647 0.185185 0.185185 0.259259 0.37037 0.32 0.28 0.2 0.2 0.28 0.16 0.28 0.28 0.227273 0.409091 0.227273 0.136364 0.241379 0.172414 0.344828 0.241379 0.47619 0.285714 0.142857 0.095238 0.368421 0.157895 0.368421 0.105263 0.375 0.125 0.375 0.125 0.315789 0.105263 0.421053 0.157895 0.263158 0.210526 0.315789 0.210526 0.259259 0.333333 0.333333 0.074074 0.25 0.107143 0.357143 0.285714 0.16 0.2 0.36 0.28 0.4 0.12 0.12 0.36 0.142857 0.285714 0.285714 0.285714 0.346154 0.115385 0.192308 0.346154 0.269231 0.307692 0.307692 0.115385 0.37037 0.148148 0.222222 0.259259 0.275862 0.310345 0.068966 0.344828 0.4 0.08 0.4 0.12 0.380952 0.190476 0.095238 0.333333 0.111111 0.111111 0.277778 0.5 0.192308 0.307692 0.384615 0.115385 0.125 0.3125 0.3125 0.25 0.090909 0.409091 0.409091 0.090909 0.206897 0.275862 0.241379 0.275862 0.258065 0.290323 0.225806 0.225806 0.210526 0.473684 0.157895 0.157895 0.3125 0.1875 0.21875 0.28125 0.333333 0.3 0.1 0.266667 0.277778 0.444444 0.166667 0.111111 0.181818 0.090909 0.409091 0.318182 0.37037 0.259259 0.111111 0.259259 0.26087 0.217391 0.217391 0.304348 0.285714 0.321429 0.107143 0.285714 0.190476 0.47619 0.190476 0.142857 0.225806 0.193548 0.258065 0.322581 0.3 0.1 0.4 0.2 0.363636 0.227273 0.272727 0.136364 0.153846 0.230769 0.346154 0.269231 0.1875 0.3125 0.25 0.25 0.357143 0.357143 0.107143 0.178571 0.275862 0.068966 0.310345 0.344828 0.136364 0.272727 0.409091 0.181818 0.32 0.24 0.12 0.32 0.210526 0.315789 0.263158 0.210526 0.3125 0.28125 0.28125 0.125 0.275862 0.344828 0.241379 0.137931 0.222222 0.333333 0.185185 0.259259 0.258065 0.322581 0.129032 0.290323 0.235294 0.176471 0.176471 0.411765 0.125 0.25 0.3125 0.3125 0.409091 0.181818 0.090909 0.318182 0.26087 0.26087 0.347826 0.130435 0.090909 0.363636 0.227273 0.318182 0.206897 0.275862 0.275862 0.241379 0.208333 0.25 0.25 0.291667 0.068966 0.275862 0.344828 0.310345 0.222222 0.111111 0.166667 0.5 0.192308 0.269231 0.230769 0.307692 0.444444 0.166667 0.166667 0.222222 0.275862 0.103448 0.344828 0.275862 0.473684 0.315789 0.105263 0.105263 0.192308 0.307692 0.384615 0.115385 0.333333 0.296296 0.222222 0.148148 0.210526 0.421053 0.105263 0.263158 0.37037 0.222222 0.185185 0.222222 0.130435 0.26087 0.391304 0.217391 0.130435 0.434783 0.173913 0.26087 0.3 0.266667 0.266667 0.166667 0.181818 0.181818 0.181818 0.454545 0.2 0.24 0.24 0.32</probabilities>
		</cpt>
		<cpt id="NODE011">
			<state id="STATE00" />
			<state id="STATE01" />
			<state id="STATE02" />
			<state id="STATE03" />
			<parents>NODE000 NODE003 NODE008</parents>
			<probabilities>0.333333 0.166667 0.266667 0.233333 0.133333 0.133333 0.133333 0.6 0.28125 0.21875 0.3125 0.1875 0.294118 0.264706 0.176471 0.264706 0.380952 0.333333 0.190476 0.095238 0.444444 0.166667 0.111111 0.277778 0.346154 0.307692 0.153846 0.192308 0.238095 0.47619 0.095238 0.190476 0.08 0.24 0.28 0.4 0.25 0.208333 0.333333 0.208333 0.291667 0.125 0.166667 0.416667 0.2 0.16 0.32 0.32 0.4 0.2 0.16 0.24 0.181818 0.272727 0.318182 0.227273 0.3125 0.1875 0.375 0.125 0.277778 0.333333 0.277778 0.111111 0.346154 0.153846 0.384615 0.115385 0.230769 0.153846 0.461538 0.153846 0.391304 0.217391 0.217391 0.173913 0.333333 0.333333 0.111111 0.222222 0.157895 0.157895 0.315789 0.368421 0.235294 0.352941 0.235294 0.176471 0.30303 0.30303 0.151515 0.242424 0.391304 0.217391 0.08695700000000001 0.304348 0.1875 0.3125 0.28125 0.21875 0.285714 0.07142900000000001 0.357143 0.285714 0.181818 0.409091 0.181818 0.227273 0.2 0.257143 0.285714 0.257143 0.357143 0.142857 0.178571 0.321429 0.333333 0.3 0.233333 0.133333 0.125 0.25 0.208333 0.416667 0.222222 0.222222 0.277778 0.277778 0.32 0.12 0.32 0.24 0.333333 0.190476 0.190476 0.285714 0.266667 0.333333 0.133333 0.266667 0.258065 0.225806 0.290323 0.225806 0.310345 0.344828 0.068966 0.275862 0.1 0.1 0.3 0.5 0.206897 0.344828 0.137931 0.310345 0.333333 0.238095 0.285714 0.142857 0.384615 0.307692 0.192308 0.115385 0.1 0.3 0.2 0.4 0.210526 0.315789 0.368421 0.105263 0.15 0.3 0.1 0.45 0.36 0.16 0.4 0.08 0.136364 0.136364 0.363636 0.363636 0.24 0.36 0.24 0.16 0.210526 0.473684 0.210526 0.105263 0.173913 0.26087 0.347826 0.217391 0.294118 0.294118 0.294118 0.117647 0.210526 0.105263 0.157895 0.526316 0.166667 0.166667 0.25 0.416667 0.321429 0.25 0.214286 0.214286 0.28125 0.25 0.15625 0.3125 0.25 0.142857 0.25 0.357143 0.176471 0.235294 0.294118 0.294118 0.27027 0.27027 0.27027 0.189189 0.37037 0.074074 0.296296 0.259259 0.321429 0.321429 0.214286 0.142857 0.07692300000000001 0.384615 0.153846 0.384615 0.241379 0.344828 0.103448 0.310345 0.238095 0.333333 0.190476 0.238095 0.307692 0.230769 0.230769 0.230769 0.290323 0.322581 0.193548 0.193548</probabilities>
		</cpt>
		<cpt id="NODE012">
			<state id="STATE00" />
			<state id="STATE01" />
			<state id="STATE02" />
			<state id="STATE03" />
			<parents>NODE003 NODE006 NODE009</parents>
			<probabilities>0.384615 0.115385 0.269231 0.230769 0.259259 0.333333 0.222222 0.185185 0.318182 0.363636 0.181818 0.136364 0.318182 0.363636 0.136364 0.181818 0.08695700000000001 0.434783 0.26087 0.217391 0.08695700000000001 0.434783 0.347826 0.130435 0.30303 0.30303 0.30303 0.090909 0.24 0.28 0.12 0.36 0.1875 0.5 0.1875 0.125 0.307692 0.269231 0.346154 0.07692300000000001 0.285714 0.142857 0.357143 0.214286 0.3125 0.28125 0.125 0.28125 0.130435 0.304348 0.434783 0.130435 0.25 0.125 0.4375 0.1875 0.136364 0.181818 0.409091 0.272727 0.153846 0.384615 0.115385 0.346154 0.304348 0.130435 0.26087 0.304348 0.2 0.5 0.15 0.15 0.181818 0.272727 0.181818 0.363636 0.21875 0.3125 0.15625 0.3125 0.290323 0.129032 0.322581 0.258065 0.090909 0.318182 0.454545 0.136364 0.08695700000000001 0.304348 0.217391 0.391304 0.148148 0.333333 0.185185 0.333333 0.35 0.15 0.4 0.1 0.136364 0.227273 0.454545 0.181818 0.272727 0.363636 0.272727 0.090909 0.1 0.25 0.3 0.35 0.125 0.3125 0.3125 0.25 0.285714 0.142857 0.190476 0.380952 0.166667 0.291667 0.416667 0.125 0.15 0.2 0.5 0.15 0.384615 0.346154 0.153846 0.115385 0.333333 0.222222 0.296296 0.148148 0.266667 0.133333 0.4 0.2 0.214286 0.357143 0.178571 0.25 0.166667 0.166667 0.555556 0.111111 0.36 0.32 0.12 0.2 0.272727 0.136364 0.454545 0.136364 0.111111 0.166667 0.5 0.222222 0.258065 0.290323 0.322581 0.129032 0.285714 0.178571 0.321429 0.214286 0.368421 0.210526 0.263158 0.157895 0.176471 0.352941 0.117647 0.352941 0.136364 0.318182 0.363636 0.181818 0.225806 0.290323 0.322581 0.16129 0.555556 0.166667 0.166667 0.111111 0.166667 0.416667 0.25 0.166667 0.214286 0.285714 0.178571 0.321429 0.206897 0.344828 0.137931 0.310345 0.172414 0.137931 0.344828 0.344828 0.105263 0.368421 0.105263 0.421053 0.47619 0.095238 0.333333 0.095238 0.285714 0.285714 0.142857 0.285714 0.2 0.25 0.25 0.3 0.346154 0.07692300000000001 0.307692 0.269231 0.269231 0.153846 0.192308 0.384615 0.28 0.08 0.36 0.28 0.136364 0.227273 0.363636 0.272727 0.217391 0.26087 0.217391 0.304348 0.238095 0.238095 0.190476 0.333333 0.142857 0.333333 0.095238 0.428571 0.074074 0.333333 0.333333 0.259259 0.136364 0.454545 0.090909 0.318182</probabilities>
		</cpt>
		<cpt id="NODE013">
			<state id="STATE00" />
			<state id="STATE01" />
			<state id="STATE02" />
			<state id="STATE03" />
			<parents>NODE004 NODE006 NODE008 NODE009 NODE010 NODE012</parents>
			<probabilities>0.416667 0.125 0.083333 0.375 0.35 0.15 0.1 0.4 0.233333 0.233333 0.233333 0.3 0.241379 0.344828 0.172414 0.241379 0.272727 0.242424 0.242424 0.242424 0.190476 0.285714 0.095238 0.428571 0.083333 0.166667 0.416667 0.333333 0.238095 0.238095 0.380952 0.142857 0.107143 0.321429 0.214286 0.357143 0.347826 0.217391 0.217391 0.217391 0.285714 0.107143 0.25 0.357143 0.068966 0.275862 0.310345 0.344828 0.115385 0.384615 0.269231 0.230769 0.095238 0.380952 0.333333 0.190476 0.08 0.36 0.2 0.36 0.1 0.2 0.3 0.4 0.266667 0.3 0.266667 0.166667 0.222222 0.111111 0.111111 0.555556 0.32 0.16 0.12 0.4 0.115385 0.269231 0.384615 0.230769 0.178571 0.25 0.321429 0.25 0.142857 0.285714 0.095238 0.47619 0.25 0.285714 0.142857 0.321429 0.3 0.1 0.266667 0.333333 0.310345 0.310345 0.275862 0.103448 0.454545 0.363636 0.090909 0.090909 0.333333 0.333333 0.222222 0.111111 0.166667 0.166667 0.375 0.291667 0.285714 0.142857 0.357143 0.214286 0.111111 0.111111 0.222222 0.555556 0.32 0.12 0.36 0.2 0.16 0.32 0.16 0.36 0.115385 0.346154 0.384615 0.153846 0.142857 0.142857 0.333333 0.380952 0.307692 0.384615 0.153846 0.153846 0.307692 0.192308 0.269231 0.230769 0.214286 0.107143 0.321429 0.357143 0.27027 0.243243 0.216216 0.27027 0.181818 0.272727 0.454545 0.090909 0.470588 0.117647 0.176471 0.235294 0.241379 0.344828 0.206897 0.206897 0.28125 0.09375 0.3125 0.3125 0.136364 0.318182 0.181818 0.363636 0.172414 0.275862 0.206897 0.344828 0.172414 0.344828 0.310345 0.172414 0.1 0.3 0.3 0.3 0.37037 0.296296 0.074074 0.259259 0.290323 0.322581 0.096774 0.290323 0.304348 0.304348 0.08695700000000001 0.304348 0.08 0.4 0.32 0.2 0.21875 0.1875 0.3125 0.28125 0.178571 0.178571 0.321429 0.321429 0.375 0.291667 0.25 0.083333 0.1875 0.3125 0.125 0.375 0.526316 0.157895 0.105263 0.210526 0.15 0.45 0.3 0.1 0.142857 0.321429 0.357143 0.178571 0.333333 0.222222 0.222222 0.222222 0.30303 0.151515 0.242424 0.30303 0.296296 0.259259 0.259259 0.185185 0.285714 0.07142900000000001 0.321429 0.321429 0.227273 0.409091 0.227273 0.136364 0.238095 0.142857 0.142857 0.47619 0.235294 0.176471 0.352941 0.235294 0.384615 0.307692 0.153846 0.153846 0.344828 0.137931 0.344828 0.172414 0.36 0.4 0.16 0.08 0.444444 0.111111 0.222222 0.222222 0.25 0.35 0.25 0.15 0.380952 0.190476 0.333333 0.095238 0.107143 0.214286 0.321429 0.357143 0.217391 0.217391 0.391304 0.173913 0.416667 0.208333 0.166667 0.208333 0.277778 0.25 0.222222 0.25 0.217391 0.434783 0.130435 0.217391 0.321429 0.178571 0.142857 0.357143 0.166667 0.111111 0.444444 0.277778 0.230769 0.25641 0.25641 0.25641 0.228571 0.285714 0.257143 0.228571 0.416667 0.083333 0.083333 0.416667 0.233333 0.3 0.266667 0.2 0.181818 0.227273 0.181818 0.409091 0.2 0.15 0.2 0.45 0.30303 0.212121 0.272727 0.212121 0.304348 0.347826 0.173913 0.173913 0.190476 0.47619 0.142857 0.190476 0.416667 0.125 0.166667 0.291667 0.24 0.24 0.36 0.16 0.35 0.1 0.25 0.3 0.25 0.25 0.1 0.4 0.130435 0.391304 0.08695700000000001 0.391304 0.230769 0.115385 0.384615 0.269231 0.233333 0.333333 0.3 0.133333 0.294118 0.264706 0.294118 0.147059 0.375 0.333333 0.125 0.166667 0.214286 0.107143 0.357143 0.321429 0.08 0.2 0.4 0.32 0.310345 0.241379 0.241379 0.206897 0.421053 0.315789 0.157895 0.105263 0.185185 0.259259 0.37037 0.185185 0.26087 0.26087 0.08695700000000001 0.391304 0.272727 0.318182 0.090909 0.318182 0.2 0.3 0.3 0.2 0.259259 0.185185 0.222222 0.333333 0.363636 0.136364 0.409091 0.090909 0.37037 0.296296 0.074074 0.259259 0.105263 0.421053 0.210526 0.263158 0.25 0.375 0.291667 0.083333 0.217391 0.26087 0.391304 0.130435 0.137931 0.172414 0.344828 0.344828 0.269231 0.230769 0.230769 0.269231 0.25 0.25 0.166667 0.333333 0.3 0.066667 0.333333 0.3 0.375 0.25 0.1875 0.1875 0.384615 0.115385 0.307692 0.192308 0.08 0.36 0.28 0.28 0.36 0.16 0.2 0.28 0.3125 0.25 0.125 0.3125 0.222222 0.185185 0.259259 0.333333 0.233333 0.3 0.166667 0.3 0.5333329999999999 0.133333 0.2 0.133333 0.238095 0.285714 0.285714 0.190476 0.275862 0.344828 0.310345 0.068966 0.24 0.12 0.32 0.32 0.136364 0.272727 0.181818 0.409091 0.333333 0.3 0.166667 0.2 0.318182 0.409091 0.136364 0.136364 0.181818 0.227273 0.227273 0.363636 0.153846 0.346154 0.230769 0.269231 0.285714 0.190476 0.428571 0.095238 0.4375 0.25 0.125 0.1875 0.173913 0.304348 0.26087 0.26087 0.08695700000000001 0.130435 0.434783 0.347826 0.25 0.1875 0.25 0.3125 0.130435 0.347826 0.347826 0.173913 0.090909 0.272727 0.181818 0.454545 0.290323 0.16129 0.322581 0.225806 0.166667 0.291667 0.208333 0.333333 0.322581 0.258065 0.193548 0.225806 0.307692 0.230769 0.192308 0.269231 0.310345 0.275862 0.344828 0.068966 0.066667 0.266667 0.333333 0.333333 0.111111 0.166667 0.166667 0.555556 0.285714 0.47619 0.142857 0.095238 0.266667 0.233333 0.333333 0.166667 0.074074 0.185185 0.37037 0.37037 0.333333 0.148148 0.259259 0.259259 0.344828 0.206897 0.172414 0.275862 0.225806 0.322581 0.129032 0.322581 0.3125 0.1875 0.25 0.25 0.111111 0.555556 0.222222 0.111111 0.409091 0.181818 0.136364 0.272727 0.142857 0.285714 0.142857 0.428571 0.333333 0.208333 0.125 0.333333 0.411765 0.117647 0.176471 0.294118 0.08695700000000001 0.391304 0.130435 0.391304 0.454545 0.181818 0.090909 0.272727 0.230769 0.346154 0.153846 0.269231 0.30303 0.242424 0.151515 0.30303 0.4375 0.1875 0.125 0.25 0.206897 0.206897 0.310345 0.275862 0.346154 0.115385 0.346154 0.192308 0.227273 0.318182 0.227273 0.227273 0.137931 0.241379 0.275862 0.344828 0.136364 0.318182 0.318182 0.227273 0.25 0.1875 0.375 0.1875 0.32 0.28 0.12 0.28 0.35 0.3 0.1 0.25 0.333333 0.259259 0.296296 0.111111 0.2 0.3 0.2 0.3 0.105263 0.526316 0.210526 0.157895 0.3 0.35 0.25 0.1 0.296296 0.333333 0.185185 0.185185 0.178571 0.285714 0.178571 0.357143 0.111111 0.333333 0.222222 0.333333 0.32 0.08 0.24 0.36 0.428571 0.190476 0.285714 0.095238 0.227273 0.227273 0.272727 0.272727 0.5 0.2 0.1 0.2 0.3 0.4 0.15 0.15 0.275862 0.241379 0.206897 0.275862 0.347826 0.217391 0.304348 0.130435 0.176471 0.235294 0.411765 0.176471 0.136364 0.181818 0.409091 0.272727 0.466667 0.133333 0.133333 0.266667 0.136364 0.136364 0.454545 0.272727 0.375 0.083333 0.208333 0.333333 0.526316 0.105263 0.210526 0.157895 0.217391 0.217391 0.347826 0.217391 0.257143 0.285714 0.257143 0.2 0.238095 0.238095 0.333333 0.190476 0.185185 0.222222 0.296296 0.296296 0.357143 0.214286 0.25 0.178571 0.142857 0.285714 0.25 0.321429 0.217391 0.173913 0.391304 0.217391 0.25 0.357143 0.214286 0.178571 0.153846 0.461538 0.230769 0.153846 0.4 0.2 0.25 0.15 0.296296 0.333333 0.148148 0.222222 0.347826 0.434783 0.08695700000000001 0.130435 0.1 0.3 0.266667 0.333333 0.285714 0.333333 0.238095 0.142857 0.230769 0.230769 0.346154 0.192308 0.111111 0.222222 0.296296 0.37037 0.173913 0.26087 0.130435 0.434783 0.08695700000000001 0.130435 0.391304 0.391304 0.4 0.36 0.08 0.16 0.142857 0.238095 0.238095 0.380952 0.192308 0.307692 0.307692 0.192308 0.24 0.24 0.32 0.2 0.3125 0.125 0.375 0.1875 0.2 0.3 0.15 0.35 0.217391 0.434783 0.217391 0.130435 0.333333 0.190476 0.238095 0.238095 0.36 0.16 0.08 0.4 0.233333 0.266667 0.166667 0.333333 0.190476 0.285714 0.285714 0.238095 0.125 0.375 0.375 0.125 0.208333 0.208333 0.166667 0.416667 0.230769 0.192308 0.269231 0.307692 0.28 0.08 0.28 0.36 0.222222 0.444444 0.222222 0.111111 0.12 0.32 0.2 0.36 0.434783 0.173913 0.304348 0.08695700000000001 0.3 0.266667 0.2 0.233333 0.30303 0.151515 0.30303 0.242424 0.285714 0.190476 0.380952 0.142857 0.2 0.2 0.333333 0.266667 0.1875 0.1875 0.4375 0.1875 0.16129 0.322581 0.225806 0.290323 0.096774 0.290323 0.322581 0.290323 0.148148 0.259259 0.222222 0.37037 0.318182 0.272727 0.318182 0.090909 0.444444 0.111111 0.277778 0.166667 0.111111 0.222222 0.277778 0.388889 0.285714 0.285714 0.178571 0.25 0.272727 0.227273 0.409091 0.090909 0.28 0.36 0.24 0.12 0.173913 0.130435 0.347826 0.347826 0.277778 0.25 0.222222 0.25 0.222222 0.296296 0.111111 0.37037 0.526316 0.157895 0.157895 0.157895 0.3 0.3 0.3 0.1 0.25 0.2 0.15 0.4 0.115385 0.192308 0.307692 0.384615 0.153846 0.230769 0.307692 0.307692 0.3 0.1 0.2 0.4 0.263158 0.421053 0.157895 0.157895 0.333333 0.222222 0.296296 0.148148 0.08695700000000001 0.391304 0.217391 0.304348 0.333333 0.3 0.133333 0.233333 0.391304 0.304348 0.217391 0.08695700000000001 0.346154 0.153846 0.384615 0.115385 0.357143 0.107143 0.178571 0.357143 0.346154 0.307692 0.07692300000000001 0.269231 0.230769 0.153846 0.384615 0.230769 0.103448 0.241379 0.344828 0.310345 0.357143 0.214286 0.214286 0.214286 0.347826 0.347826 0.130435 0.173913 0.25 0.285714 0.107143 0.357143 0.28 0.36 0.28 0.08 0.166667 0.444444 0.166667 0.222222 0.315789 0.368421 0.105263 0.210526 0.416667 0.125 0.208333 0.25 0.318182 0.363636 0.181818 0.136364 0.166667 0.233333 0.333333 0.266667 0.3 0.333333 0.2 0.166667 0.230769 0.307692 0.307692 0.153846 0.428571 0.142857 0.142857 0.285714 0.277778 0.166667 0.444444 0.111111 0.318182 0.090909 0.136364 0.454545 0.258065 0.129032 0.322581 0.290323 0.28 0.28 0.32 0.12 0.333333 0.259259 0.185185 0.222222 0.269231 0.307692 0.346154 0.07692300000000001 0.375 0.25 0.083333 0.291667 0.37037 0.148148 0.111111 0.37037 0.277778 0.111111 0.444444 0.166667 0.363636 0.090909 0.409091 0.136364 0.208333 0.375 0.208333 0.208333 0.272727 0.151515 0.30303 0.272727 0.25 0.333333 0.166667 0.25 0.1875 0.1875 0.25 0.375 0.217391 0.304348 0.391304 0.08695700000000001 0.375 0.291667 0.083333 0.25 0.217391 0.391304 0.26087 0.130435 0.066667 0.266667 0.333333 0.333333 0.333333 0.2 0.333333 0.133333 0.2 0.4 0.2 0.2 0.194444 0.277778 0.25 0.277778 0.137931 0.241379 0.344828 0.275862 0.137931 0.310345 0.344828 0.206897 0.24 0.36 0.28 0.12 0.333333 0.416667 0.166667 0.083333 0.181818 0.090909 0.409091 0.318182 0.28 0.4 0.12 0.2 0.47619 0.095238 0.095238 0.333333 0.241379 0.241379 0.172414 0.344828 0.16129 0.322581 0.193548 0.322581 0.2 0.45 0.25 0.1 0.291667 0.208333 0.375 0.125 0.333333 0.3 0.233333 0.133333 0.222222 0.259259 0.259259 0.259259 0.24 0.28 0.36 0.12 0.291667 0.291667 0.25 0.166667 0.384615 0.115385 0.346154 0.153846 0.2 0.25 0.35 0.2 0.3 0.15 0.45 0.1 0.15625 0.25 0.28125 0.3125 0.08695700000000001 0.173913 0.304348 0.434783 0.357143 0.142857 0.285714 0.214286 0.333333 0.296296 0.074074 0.296296 0.45 0.1 0.25 0.2 0.344828 0.241379 0.310345 0.103448 0.391304 0.217391 0.26087 0.130435 0.3 0.2 0.2 0.3 0.238095 0.285714 0.380952 0.095238 0.310345 0.344828 0.206897 0.137931 0.346154 0.346154 0.153846 0.153846 0.185185 0.259259 0.333333 0.222222 0.36 0.36 0.08 0.2 0.409091 0.227273 0.272727 0.090909 0.192308 0.384615 0.153846 0.269231 0.230769 0.153846 0.307692 0.307692 0.166667 0.166667 0.416667 0.25 0.142857 0.142857 0.47619 0.238095 0.275862 0.310345 0.137931 0.275862 0.1 0.15 0.35 0.4 0.178571 0.321429 0.214286 0.285714 0.296296 0.222222 0.111111 0.37037 0.227273 0.409091 0.227273 0.136364 0.115385 0.230769 0.307692 0.346154 0.166667 0.166667 0.333333 0.333333 0.105263 0.421053 0.368421 0.105263 0.4 0.32 0.16 0.12 0.3125 0.1875 0.21875 0.28125 0.16 0.16 0.32 0.36 0.32 0.36 0.12 0.2 0.318182 0.136364 0.363636 0.181818 0.333333 0.2 0.133333 0.333333 0.294118 0.205882 0.235294 0.264706 0.375 0.125 0.291667 0.208333 0.322581 0.064516 0.290323 0.322581 0.285714 0.214286 0.357143 0.142857 0.166667 0.166667 0.444444 0.222222 0.090909 0.227273 0.363636 0.318182 0.230769 0.384615 0.115385 0.269231 0.185185 0.111111 0.333333 0.37037 0.434783 0.130435 0.347826 0.08695700000000001 0.083333 0.25 0.416667 0.25 0.333333 0.148148 0.259259 0.259259 0.172414 0.344828 0.344828 0.137931 0.384615 0.115385 0.153846 0.346154 0.434783 0.173913 0.08695700000000001 0.304348 0.25 0.277778 0.194444 0.277778 0.27027 0.27027 0.189189 0.27027 0.105263 0.105263 0.473684 0.315789 0.47619 0.095238 0.285714 0.142857 0.133333 0.266667 0.2 0.4 0.136364 0.272727 0.227273 0.363636 0.105263 0.263158 0.105263 0.526316 0.363636 0.090909 0.409091 0.136364 0.315789 0.105263 0.421053 0.157895 0.074074 0.296296 0.37037 0.259259 0.185185 0.37037 0.333333 0.111111 0.16 0.24 0.28 0.32 0.4 0.1 0.1 0.4 0.310345 0.344828 0.275862 0.068966 0.4 0.333333 0.133333 0.133333 0.217391 0.391304 0.304348 0.08695700000000001 0.318182 0.272727 0.136364 0.272727 0.346154 0.153846 0.307692 0.192308 0.384615 0.192308 0.230769 0.192308 0.25 0.35 0.1 0.3 0.272727 0.181818 0.181818 0.363636 0.173913 0.217391 0.217391 0.391304 0.333333 0.333333 0.142857 0.190476 0.375 0.333333 0.208333 0.083333 0.142857 0.25 0.357143 0.25 0.285714 0.142857 0.142857 0.428571 0.333333 0.333333 0.166667 0.166667 0.095238 0.380952 0.333333 0.190476 0.190476 0.095238 0.428571 0.285714 0.227273 0.363636 0.272727 0.136364 0.37037 0.259259 0.111111 0.259259 0.222222 0.296296 0.37037 0.111111 0.130435 0.434783 0.304348 0.130435 0.166667 0.416667 0.125 0.291667 0.588235 0.117647 0.176471 0.117647 0.333333 0.166667 0.25 0.25 0.363636 0.136364 0.090909 0.409091 0.5 0.1 0.25 0.15 0.2 0.333333 0.233333 0.233333 0.3125 0.09375 0.3125 0.28125 0.26087 0.347826 0.08695700000000001 0.304348 0.166667 0.111111 0.555556 0.166667 0.363636 0.090909 0.409091 0.136364 0.47619 0.095238 0.142857 0.285714 0.384615 0.192308 0.307692 0.115385 0.16 0.36 0.36 0.12 0.157895 0.315789 0.368421 0.157895 0.205882 0.264706 0.235294 0.294118 0.192308 0.307692 0.192308 0.307692 0.310345 0.068966 0.275862 0.344828 0.347826 0.347826 0.173913 0.130435 0.375 0.333333 0.083333 0.208333 0.30303 0.151515 0.242424 0.30303 0.117647 0.294118 0.470588 0.117647 0.258065 0.258065 0.290323 0.193548 0.294118 0.176471 0.235294 0.294118 0.321429 0.178571 0.285714 0.214286 0.242424 0.212121 0.242424 0.30303 0.181818 0.454545 0.181818 0.181818 0.117647 0.117647 0.294118 0.470588 0.227273 0.272727 0.272727 0.227273 0.357143 0.07142900000000001 0.285714 0.285714 0.310345 0.137931 0.206897 0.344828 0.357143 0.214286 0.178571 0.25 0.15 0.2 0.35 0.3 0.259259 0.259259 0.222222 0.259259 0.47619 0.190476 0.095238 0.238095 0.307692 0.07692300000000001 0.307692 0.307692 0.08695700000000001 0.304348 0.347826 0.26087 0.178571 0.25 0.321429 0.25 0.259259 0.148148 0.296296 0.296296 0.380952 0.095238 0.190476 0.333333 0.21875 0.25 0.3125 0.21875 0.210526 0.473684 0.105263 0.210526 0.333333 0.428571 0.142857 0.095238 0.133333 0.5333329999999999 0.2 0.133333 0.444444 0.222222 0.166667 0.166667 0.210526 0.157895 0.421053 0.210526 0.269231 0.269231 0.230769 0.230769 0.333333 0.166667 0.083333 0.416667 0.321429 0.07142900000000001 0.285714 0.321429 0.384615 0.230769 0.153846 0.230769 0.157895 0.263158 0.210526 0.368421 0.333333 0.259259 0.148148 0.259259 0.230769 0.230769 0.346154 0.192308 0.166667 0.388889 0.277778 0.166667 0.235294 0.205882 0.294118 0.264706 0.275862 0.344828 0.206897 0.172414 0.142857 0.428571 0.285714 0.142857 0.16129 0.225806 0.322581 0.290323 0.375 0.25 0.208333 0.166667 0.066667 0.333333 0.266667 0.333333 0.172414 0.310345 0.172414 0.344828 0.32 0.2 0.28 0.2 0.176471 0.352941 0.235294 0.235294 0.241379 0.310345 0.275862 0.172414 0.2 0.4 0.133333 0.266667 0.25 0.21875 0.21875 0.3125 0.310345 0.241379 0.241379 0.206897 0.4 0.16 0.36 0.08 0.35 0.25 0.25 0.15 0.3125 0.125 0.3125 0.25 0.083333 0.208333 0.333333 0.375 0.25 0.2 0.45 0.1 0.321429 0.107143 0.285714 0.285714 0.25 0.25 0.178571 0.321429 0.241379 0.241379 0.172414 0.344828 0.4 0.12 0.12 0.36 0.333333 0.190476 0.333333 0.142857 0.105263 0.210526 0.368421 0.315789 0.357143 0.285714 0.285714 0.07142900000000001 0.16 0.16 0.32 0.36 0.190476 0.238095 0.142857 0.428571 0.173913 0.08695700000000001 0.304348 0.434783 0.24 0.32 0.08 0.36 0.307692 0.153846 0.153846 0.384615 0.290323 0.290323 0.258065 0.16129 0.1875 0.28125 0.3125 0.21875 0.259259 0.222222 0.259259 0.259259 0.25 0.35 0.3 0.1 0.2 0.4 0.3 0.1 0.230769 0.384615 0.153846 0.230769 0.07142900000000001 0.285714 0.321429 0.321429 0.375 0.1875 0.125 0.3125 0.357143 0.285714 0.107143 0.25 0.384615 0.307692 0.07692300000000001 0.230769 0.166667 0.111111 0.277778 0.444444 0.24 0.28 0.12 0.36 0.333333 0.142857 0.428571 0.095238 0.37037 0.185185 0.333333 0.111111 0.416667 0.25 0.166667 0.166667 0.142857 0.428571 0.238095 0.190476 0.3125 0.25 0.125 0.3125 0.321429 0.178571 0.25 0.25 0.5333329999999999 0.133333 0.133333 0.2 0.375 0.166667 0.333333 0.125 0.105263 0.368421 0.210526 0.315789 0.333333 0.259259 0.296296 0.111111 0.142857 0.238095 0.380952 0.238095 0.217391 0.130435 0.391304 0.26087 0.258065 0.193548 0.290323 0.258065 0.212121 0.272727 0.212121 0.30303 0.1 0.45 0.2 0.25 0.192308 0.230769 0.346154 0.230769 0.1 0.15 0.45 0.3 0.454545 0.090909 0.136364 0.318182 0.3 0.15 0.1 0.45 0.4 0.1 0.4 0.1 0.322581 0.258065 0.16129 0.258065 0.357143 0.285714 0.142857 0.214286 0.117647 0.235294 0.176471 0.470588 0.3 0.3 0.166667 0.233333 0.238095 0.142857 0.190476 0.428571 0.190476 0.238095 0.47619 0.095238 0.375 0.166667 0.166667 0.291667 0.333333 0.095238 0.190476 0.380952 0.133333 0.333333 0.266667 0.266667 0.15625 0.3125 0.21875 0.3125 0.454545 0.181818 0.090909 0.272727 0.30303 0.151515 0.272727 0.272727 0.16 0.36 0.4 0.08 0.333333 0.166667 0.333333 0.166667 0.133333 0.333333 0.266667 0.266667 0.148148 0.296296 0.259259 0.296296 0.227273 0.227273 0.227273 0.318182 0.291667 0.208333 0.166667 0.333333 0.321429 0.07142900000000001 0.25 0.357143 0.294118 0.352941 0.235294 0.117647 0.357143 0.214286 0.07142900000000001 0.357143 0.133333 0.333333 0.4 0.133333 0.095238 0.333333 0.238095 0.333333 0.384615 0.07692300000000001 0.153846 0.384615 0.285714 0.095238 0.285714 0.333333 0.07692300000000001 0.230769 0.307692 0.384615 0.15625 0.25 0.3125 0.28125 0.30303 0.212121 0.30303 0.181818 0.30303 0.30303 0.272727 0.121212 0.333333 0.2 0.333333 0.133333 0.185185 0.37037 0.074074 0.37037 0.30303 0.242424 0.181818 0.272727 0.272727 0.30303 0.30303 0.121212 0.344828 0.068966 0.241379 0.344828 0.266667 0.2 0.2 0.333333 0.105263 0.526316 0.105263 0.263158 0.136364 0.227273 0.409091 0.227273 0.307692 0.384615 0.07692300000000001 0.230769 0.375 0.375 0.166667 0.083333 0.444444 0.333333 0.111111 0.111111 0.259259 0.37037 0.111111 0.259259 0.304348 0.08695700000000001 0.434783 0.173913 0.368421 0.157895 0.210526 0.263158 0.272727 0.30303 0.30303 0.121212 0.235294 0.264706 0.235294 0.264706 0.272727 0.090909 0.318182 0.318182 0.347826 0.434783 0.130435 0.08695700000000001 0.4 0.12 0.12 0.36 0.294118 0.470588 0.117647 0.117647 0.105263 0.263158 0.157895 0.473684 0.222222 0.444444 0.166667 0.166667 0.266667 0.133333 0.4 0.2 0.277778 0.222222 0.222222 0.277778 0.318182 0.181818 0.136364 0.363636 0.454545 0.363636 0.090909 0.090909 0.333333 0.133333 0.266667 0.266667 0.2 0.28 0.24 0.28 0.16 0.28 0.36 0.2 0.2 0.15 0.4 0.25 0.291667 0.208333 0.166667 0.333333 0.117647 0.235294 0.529412 0.117647 0.173913 0.26087 0.304348 0.26087 0.1875 0.125 0.125 0.5625 0.2 0.4 0.1 0.3 0.148148 0.333333 0.148148 0.37037 0.136364 0.363636 0.227273 0.272727 0.066667 0.333333 0.266667 0.333333 0.333333 0.333333 0.2 0.133333 0.24 0.32 0.12 0.32 0.380952 0.142857 0.238095 0.238095 0.08695700000000001 0.434783 0.217391 0.26087 0.214286 0.142857 0.214286 0.428571 0.208333 0.375 0.333333 0.083333 0.190476 0.238095 0.47619 0.095238 0.322581 0.193548 0.322581 0.16129 0.176471 0.117647 0.176471 0.529412 0.148148 0.222222 0.296296 0.333333 0.230769 0.269231 0.115385 0.384615 0.166667 0.333333 0.3 0.2 0.277778 0.222222 0.111111 0.388889 0.15 0.45 0.1 0.3 0.136364 0.318182 0.227273 0.318182 0.315789 0.157895 0.157895 0.368421 0.25 0.291667 0.375 0.083333 0.3125 0.28125 0.125 0.28125 0.357143 0.25 0.321429 0.07142900000000001 0.148148 0.333333 0.185185 0.333333 0.259259 0.222222 0.148148 0.37037 0.28125 0.28125 0.28125 0.15625 0.15 0.35 0.25 0.25 0.3 0.333333 0.1 0.266667 0.346154 0.192308 0.153846 0.307692 0.2 0.12 0.4 0.28 0.1 0.5 0.25 0.15 0.16 0.12 0.32 0.4 0.304348 0.26087 0.304348 0.130435 0.133333 0.333333 0.233333 0.3 0.25 0.5 0.125 0.125 0.192308 0.192308 0.307692 0.307692 0.083333 0.416667 0.208333 0.291667 0.318182 0.227273 0.181818 0.272727 0.363636 0.181818 0.181818 0.272727 0.391304 0.434783 0.08695700000000001 0.08695700000000001 0.35 0.4 0.15 0.1 0.434783 0.130435 0.304348 0.130435 0.285714 0.428571 0.142857 0.142857 0.322581 0.193548 0.290323 0.193548 0.08695700000000001 0.26087 0.304348 0.347826 0.346154 0.230769 0.192308 0.230769 0.24 0.2 0.28 0.28 0.235294 0.470588 0.176471 0.117647 0.5 0.1875 0.1875 0.125 0.241379 0.310345 0.275862 0.172414 0.115385 0.269231 0.269231 0.346154 0.178571 0.142857 0.357143 0.321429 0.428571 0.238095 0.190476 0.142857 0.409091 0.181818 0.136364 0.272727 0.294118 0.176471 0.411765 0.117647 0.222222 0.333333 0.222222 0.222222 0.5 0.111111 0.222222 0.166667 0.172414 0.275862 0.206897 0.344828 0.210526 0.157895 0.210526 0.421053 0.111111 0.111111 0.555556 0.222222 0.409091 0.227273 0.227273 0.136364 0.151515 0.30303 0.272727 0.272727 0.136364 0.318182 0.318182 0.227273 0.285714 0.257143 0.285714 0.171429 0.3125 0.21875 0.15625 0.3125 0.148148 0.37037 0.296296 0.185185 0.130435 0.391304 0.173913 0.304348 0.227273 0.318182 0.090909 0.363636 0.153846 0.461538 0.153846 0.230769 0.375 0.3125 0.125 0.1875 0.36 0.12 0.16 0.36 0.333333 0.125 0.416667 0.125 0.230769 0.07692300000000001 0.384615 0.307692 0.153846 0.192308 0.384615 0.269231 0.28125 0.25 0.1875 0.28125 0.428571 0.142857 0.190476 0.238095 0.384615 0.153846 0.153846 0.307692 0.212121 0.30303 0.30303 0.181818 0.263158 0.315789 0.263158 0.157895 0.25 0.45 0.1 0.2 0.16129 0.290323 0.225806 0.322581 0.4 0.32 0.16 0.12 0.307692 0.192308 0.269231 0.230769 0.4375 0.125 0.125 0.3125 0.363636 0.181818 0.318182 0.136364 0.153846 0.384615 0.192308 0.269231 0.275862 0.241379 0.137931 0.344828 0.28125 0.3125 0.28125 0.125 0.434783 0.173913 0.173913 0.217391 0.346154 0.269231 0.269231 0.115385 0.421053 0.105263 0.368421 0.105263 0.16 0.4 0.08 0.36 0.222222 0.444444 0.166667 0.166667 0.310345 0.241379 0.137931 0.310345 0.333333 0.25 0.25 0.166667 0.269231 0.230769 0.153846 0.346154 0.3125 0.28125 0.21875 0.1875 0.285714 0.095238 0.380952 0.238095 0.222222 0.111111 0.222222 0.444444 0.259259 0.074074 0.37037 0.296296 0.291667 0.208333 0.083333 0.416667 0.166667 0.291667 0.208333 0.333333 0.333333 0.133333 0.4 0.133333 0.28 0.28 0.32 0.12 0.304348 0.26087 0.217391 0.217391 0.208333 0.25 0.333333 0.208333 0.103448 0.344828 0.241379 0.310345 0.1 0.3 0.1 0.5 0.333333 0.37037 0.074074 0.222222 0.222222 0.277778 0.277778 0.222222 0.111111 0.333333 0.111111 0.444444 0.185185 0.074074 0.37037 0.37037 0.25 0.291667 0.083333 0.375 0.285714 0.142857 0.357143 0.214286 0.176471 0.176471 0.529412 0.117647 0.363636 0.318182 0.227273 0.090909 0.434783 0.304348 0.173913 0.08695700000000001 0.117647 0.235294 0.470588 0.176471 0.3 0.333333 0.2 0.166667 0.258065 0.193548 0.322581 0.225806 0.25 0.1 0.5 0.15 0.148148 0.296296 0.185185 0.37037 0.285714 0.357143 0.07142900000000001 0.285714 0.290323 0.322581 0.290323 0.096774 0.25 0.125 0.416667 0.208333 0.130435 0.130435 0.347826 0.391304 0.285714 0.285714 0.257143 0.171429 0.25 0.1875 0.4375 0.125 0.291667 0.291667 0.333333 0.083333 0.193548 0.16129 0.322581 0.322581 0.157895 0.157895 0.526316 0.157895 0.142857 0.357143 0.285714 0.214286 0.107143 0.285714 0.25 0.357143 0.230769 0.07692300000000001 0.384615 0.307692 0.388889 0.166667 0.166667 0.277778 0.285714 0.190476 0.380952 0.142857 0.125 0.3125 0.25 0.3125 0.45 0.2 0.25 0.1 0.2 0.4 0.24 0.16 0.307692 0.192308 0.192308 0.307692 0.08 0.32 0.32 0.28 0.142857 0.5 0.142857 0.214286 0.25 0.25 0.25 0.25 0.4 0.16 0.2 0.24 0.2 0.15 0.35 0.3 0.142857 0.333333 0.190476 0.333333 0.083333 0.416667 0.208333 0.291667 0.5 0.1 0.2 0.2 0.1 0.3 0.25 0.35 0.153846 0.307692 0.307692 0.230769 0.115385 0.384615 0.269231 0.230769 0.210526 0.368421 0.263158 0.157895 0.346154 0.269231 0.153846 0.230769 0.26087 0.217391 0.347826 0.173913 0.166667 0.083333 0.375 0.375 0.133333 0.6 0.133333 0.133333 0.1 0.333333 0.3 0.266667 0.210526 0.473684 0.210526 0.105263 0.258065 0.258065 0.322581 0.16129 0.241379 0.310345 0.310345 0.137931 0.291667 0.083333 0.25 0.375 0.3 0.133333 0.3 0.266667 0.212121 0.30303 0.242424 0.242424 0.266667 0.2 0.2 0.333333 0.15 0.45 0.2 0.2 0.1875 0.375 0.3125 0.125 0.181818 0.136364 0.272727 0.409091 0.136364 0.454545 0.318182 0.090909 0.130435 0.173913 0.347826 0.347826 0.142857 0.142857 0.285714 0.428571 0.357143 0.285714 0.285714 0.07142900000000001 0.16 0.32 0.2 0.32 0.222222 0.111111 0.37037 0.296296 0.2 0.5 0.2 0.1 0.166667 0.333333 0.111111 0.388889 0.416667 0.333333 0.166667 0.083333 0.277778 0.277778 0.222222 0.222222 0.36 0.24 0.32 0.08 0.1 0.4 0.35 0.15 0.233333 0.233333 0.233333 0.3 0.310345 0.241379 0.310345 0.137931 0.07142900000000001 0.357143 0.321429 0.25 0.25 0.333333 0.25 0.166667 0.266667 0.333333 0.2 0.2 0.225806 0.193548 0.258065 0.322581 0.137931 0.206897 0.310345 0.344828 0.083333 0.291667 0.416667 0.208333 0.105263 0.210526 0.157895 0.526316 0.266667 0.266667 0.2 0.266667 0.227273 0.136364 0.227273 0.409091 0.181818 0.227273 0.136364 0.454545 0.105263 0.263158 0.368421 0.263158 0.157895 0.210526 0.421053 0.210526 0.176471 0.235294 0.294118 0.294118 0.125 0.125 0.4375 0.3125 0.171429 0.285714 0.285714 0.257143 0.434783 0.173913 0.26087 0.130435 0.290323 0.290323 0.322581 0.096774 0.285714 0.190476 0.095238 0.428571 0.285714 0.107143 0.25 0.357143 0.1875 0.5 0.1875 0.125 0.105263 0.368421 0.263158 0.263158 0.136364 0.363636 0.409091 0.090909 0.291667 0.208333 0.416667 0.083333 0.25 0.3125 0.21875 0.21875 0.5 0.111111 0.166667 0.222222 0.15 0.4 0.2 0.25 0.192308 0.192308 0.230769 0.384615 0.333333 0.375 0.083333 0.208333 0.25 0.15 0.5 0.1 0.310345 0.103448 0.310345 0.275862 0.181818 0.136364 0.272727 0.409091 0.225806 0.129032 0.322581 0.322581 0.315789 0.105263 0.105263 0.473684 0.304348 0.26087 0.26087 0.173913 0.142857 0.285714 0.321429 0.25 0.272727 0.242424 0.212121 0.272727 0.25 0.2 0.25 0.3 0.272727 0.272727 0.181818 0.272727 0.125 0.1875 0.5625 0.125 0.125 0.125 0.1875 0.5625 0.346154 0.230769 0.07692300000000001 0.346154 0.307692 0.230769 0.07692300000000001 0.384615 0.173913 0.304348 0.304348 0.217391 0.259259 0.111111 0.37037 0.259259 0.157895 0.263158 0.210526 0.368421 0.28 0.2 0.4 0.12 0.28125 0.3125 0.125 0.28125 0.352941 0.411765 0.117647 0.117647 0.24 0.16 0.32 0.28 0.117647 0.176471 0.117647 0.588235 0.428571 0.095238 0.190476 0.285714 0.391304 0.08695700000000001 0.08695700000000001 0.434783 0.16 0.32 0.24 0.28 0.230769 0.307692 0.230769 0.230769 0.291667 0.291667 0.333333 0.083333 0.318182 0.090909 0.181818 0.409091 0.153846 0.230769 0.384615 0.230769 0.206897 0.241379 0.344828 0.206897 0.2 0.4 0.133333 0.266667 0.45 0.3 0.1 0.15 0.225806 0.322581 0.290323 0.16129 0.176471 0.117647 0.352941 0.352941 0.142857 0.47619 0.142857 0.238095 0.322581 0.225806 0.193548 0.258065 0.08 0.28 0.4 0.24 0.25 0.25 0.25 0.25 0.16129 0.258065 0.258065 0.322581 0.208333 0.25 0.333333 0.208333 0.233333 0.2 0.333333 0.233333 0.208333 0.416667 0.25 0.125 0.269231 0.346154 0.153846 0.230769 0.125 0.208333 0.375 0.291667 0.3125 0.15625 0.21875 0.3125 0.5 0.1 0.25 0.15 0.257143 0.285714 0.2 0.257143 0.136364 0.227273 0.318182 0.318182 0.347826 0.130435 0.347826 0.173913 0.242424 0.242424 0.242424 0.272727 0.1 0.35 0.25 0.3 0.294118 0.294118 0.176471 0.235294 0.142857 0.142857 0.428571 0.285714 0.181818 0.409091 0.181818 0.227273 0.142857 0.095238 0.380952 0.380952 0.296296 0.185185 0.185185 0.333333 0.230769 0.269231 0.192308 0.307692 0.263158 0.105263 0.210526 0.421053 0.173913 0.304348 0.434783 0.08695700000000001 0.526316 0.263158 0.105263 0.105263 0.272727 0.136364 0.454545 0.136364 0.111111 0.166667 0.166667 0.555556 0.25 0.416667 0.166667 0.166667 0.133333 0.333333 0.333333 0.2 0.277778 0.222222 0.222222 0.277778 0.263158 0.105263 0.315789 0.315789 0.181818 0.318182 0.181818 0.318182 0.15 0.35 0.4 0.1 0.166667 0.375 0.208333 0.25 0.380952 0.285714 0.095238 0.238095 0.214286 0.214286 0.285714 0.285714 0.35 0.1 0.15 0.4 0.217391 0.130435 0.391304 0.26087 0.111111 0.277778 0.388889 0.222222 0.30303 0.272727 0.272727 0.151515 0.473684 0.157895 0.210526 0.157895 0.304348 0.217391 0.391304 0.08695700000000001 0.3125 0.1875 0.375 0.125 0.315789 0.157895 0.210526 0.315789 0.105263 0.210526 0.315789 0.368421 0.347826 0.173913 0.217391 0.26087 0.35 0.35 0.1 0.2 0.166667 0.222222 0.5 0.111111 0.375 0.416667 0.125 0.083333 0.157895 0.210526 0.263158 0.368421 0.206897 0.206897 0.310345 0.275862 0.416667 0.125 0.125 0.333333 0.259259 0.333333 0.259259 0.148148 0.346154 0.346154 0.230769 0.07692300000000001 0.344828 0.275862 0.310345 0.068966 0.24 0.24 0.16 0.36 0.222222 0.277778 0.111111 0.388889 0.105263 0.315789 0.105263 0.473684 0.173913 0.130435 0.304348 0.391304 0.12 0.32 0.24 0.32 0.333333 0.133333 0.2 0.333333 0.4 0.1 0.4 0.1 0.225806 0.258065 0.290323 0.225806 0.1875 0.3125 0.25 0.25 0.25 0.208333 0.208333 0.333333 0.357143 0.214286 0.321429 0.107143 0.27027 0.216216 0.243243 0.27027 0.206897 0.310345 0.241379 0.241379 0.25 0.1875 0.3125 0.25 0.190476 0.190476 0.428571 0.190476 0.4 0.1 0.15 0.35 0.304348 0.130435 0.26087 0.304348 0.47619 0.190476 0.238095 0.095238 0.346154 0.192308 0.230769 0.230769 0.285714 0.257143 0.171429 0.285714 0.222222 0.277778 0.277778 0.222222 0.47619 0.095238 0.190476 0.238095 0.227273 0.363636 0.227273 0.181818 0.238095 0.095238 0.285714 0.380952 0.275862 0.241379 0.241379 0.241379 0.111111 0.111111 0.444444 0.333333 0.36 0.08 0.24 0.32 0.222222 0.148148 0.259259 0.37037 0.176471 0.529412 0.117647 0.176471 0.25 0.4 0.15 0.2 0.434783 0.347826 0.130435 0.08695700000000001 0.473684 0.157895 0.157895 0.210526 0.347826 0.08695700000000001 0.130435 0.434783 0.1875 0.5625 0.125 0.125 0.32 0.32 0.12 0.24 0.363636 0.181818 0.136364 0.318182 0.333333 0.2 0.233333 0.233333 0.333333 0.259259 0.111111 0.296296 0.21875 0.25 0.28125 0.25 0.2 0.2 0.2 0.4 0.241379 0.206897 0.275862 0.275862 0.125 0.125 0.375 0.375 0.409091 0.136364 0.363636 0.090909 0.32 0.28 0.32 0.08 0.210526 0.473684 0.210526 0.105263 0.185185 0.333333 0.37037 0.111111 0.238095 0.190476 0.095238 0.47619 0.296296 0.37037 0.222222 0.111111 0.347826 0.173913 0.391304 0.08695700000000001 0.193548 0.258065 0.258065 0.290323 0.153846 0.230769 0.230769 0.384615 0.347826 0.217391 0.347826 0.08695700000000001 0.105263 0.263158 0.263158 0.368421 0.307692 0.269231 0.230769 0.192308 0.388889 0.333333 0.111111 0.166667 0.30303 0.272727 0.30303 0.121212 0.181818 0.30303 0.272727 0.242424 0.333333 0.25 0.166667 0.25 0.153846 0.230769 0.230769 0.384615 0.117647 0.176471 0.235294 0.470588 0.1875 0.28125 0.25 0.28125 0.264706 0.264706 0.176471 0.294118 0.272727 0.30303 0.30303 0.121212 0.25 0.1875 0.3125 0.25 0.153846 0.307692 0.384615 0.153846 0.266667 0.233333 0.166667 0.333333 0.344828 0.310345 0.137931 0.206897 0.333333 0.25 0.25 0.166667 0.066667 0.3 0.333333 0.3 0.230769 0.269231 0.115385 0.384615 0.434783 0.130435 0.304348 0.130435 0.130435 0.08695700000000001 0.434783 0.347826 0.083333 0.291667 0.208333 0.416667 0.45 0.15 0.1 0.3 0.210526 0.526316 0.157895 0.105263 0.133333 0.3 0.233333 0.333333 0.344828 0.206897 0.275862 0.172414 0.227273 0.363636 0.318182 0.090909 0.238095 0.190476 0.095238 0.47619 0.290323 0.290323 0.258065 0.16129 0.304348 0.391304 0.08695700000000001 0.217391 0.344828 0.068966 0.310345 0.275862 0.083333 0.208333 0.291667 0.416667 0.172414 0.344828 0.137931 0.344828 0.258065 0.322581 0.16129 0.258065 0.074074 0.333333 0.37037 0.222222 0.307692 0.153846 0.230769 0.307692 0.142857 0.571429 0.142857 0.142857 0.37037 0.296296 0.148148 0.185185 0.285714 0.321429 0.107143 0.285714 0.315789 0.105263 0.105263 0.473684 0.090909 0.454545 0.090909 0.363636 0.136364 0.272727 0.136364 0.454545 0.1875 0.3125 0.3125 0.1875 0.290323 0.290323 0.129032 0.290323 0.225806 0.322581 0.322581 0.129032 0.258065 0.322581 0.322581 0.096774 0.310345 0.310345 0.103448 0.275862 0.529412 0.176471 0.176471 0.117647 0.346154 0.192308 0.384615 0.07692300000000001 0.173913 0.304348 0.304348 0.217391 0.321429 0.321429 0.178571 0.178571 0.4 0.1 0.35 0.15 0.166667 0.416667 0.25 0.166667 0.25 0.25 0.125 0.375 0.225806 0.290323 0.322581 0.16129 0.153846 0.346154 0.269231 0.230769 0.208333 0.125 0.291667 0.375 0.3125 0.1875 0.25 0.25 0.454545 0.090909 0.272727 0.181818 0.178571 0.25 0.285714 0.285714 0.259259 0.333333 0.111111 0.296296 0.333333 0.285714 0.142857 0.238095 0.384615 0.307692 0.07692300000000001 0.230769 0.222222 0.333333 0.296296 0.148148 0.4 0.12 0.28 0.2 0.263158 0.157895 0.105263 0.473684 0.321429 0.107143 0.357143 0.214286 0.1 0.45 0.3 0.15 0.2 0.4 0.28 0.12 0.304348 0.26087 0.08695700000000001 0.347826 0.3125 0.09375 0.3125 0.28125 0.130435 0.173913 0.434783 0.26087 0.176471 0.352941 0.117647 0.352941 0.2 0.35 0.35 0.1 0.388889 0.111111 0.111111 0.388889 0.416667 0.083333 0.25 0.25 0.166667 0.291667 0.125 0.416667 0.133333 0.4 0.333333 0.133333 0.2 0.3 0.166667 0.333333 0.37037 0.111111 0.296296 0.222222 0.222222 0.111111 0.444444 0.222222 0.181818 0.272727 0.363636 0.181818 0.166667 0.25 0.333333 0.25 0.090909 0.318182 0.454545 0.136364 0.225806 0.193548 0.258065 0.322581 0.357143 0.25 0.142857 0.25 0.315789 0.157895 0.157895 0.368421 0.2 0.25 0.25 0.3 0.206897 0.206897 0.344828 0.241379 0.307692 0.153846 0.230769 0.307692 0.090909 0.318182 0.227273 0.363636 0.142857 0.178571 0.321429 0.357143 0.347826 0.217391 0.08695700000000001 0.347826 0.166667 0.277778 0.277778 0.277778 0.095238 0.285714 0.238095 0.380952 0.142857 0.47619 0.142857 0.238095 0.375 0.375 0.125 0.125 0.285714 0.321429 0.25 0.142857 0.125 0.25 0.3125 0.3125 0.125 0.208333 0.291667 0.375 0.321429 0.142857 0.25 0.285714 0.26087 0.130435 0.391304 0.217391 0.272727 0.212121 0.30303 0.212121 0.125 0.208333 0.25 0.416667 0.470588 0.176471 0.176471 0.176471 0.130435 0.347826 0.173913 0.347826 0.157895 0.315789 0.263158 0.263158 0.181818 0.454545 0.181818 0.181818 0.346154 0.192308 0.192308 0.269231 0.304348 0.173913 0.08695700000000001 0.434783 0.25 0.214286 0.321429 0.214286 0.157895 0.105263 0.526316 0.210526 0.15 0.25 0.3 0.3 0.368421 0.210526 0.315789 0.105263 0.294118 0.411765 0.117647 0.176471 0.263158 0.315789 0.315789 0.105263 0.333333 0.083333 0.416667 0.166667 0.181818 0.242424 0.30303 0.272727 0.4 0.35 0.15 0.1 0.333333 0.333333 0.222222 0.111111 0.318182 0.136364 0.227273 0.318182 0.2 0.266667 0.3 0.233333 0.230769 0.153846 0.384615 0.230769 0.4 0.2 0.08 0.32 0.310345 0.137931 0.206897 0.344828 0.148148 0.296296 0.259259 0.296296 0.08695700000000001 0.391304 0.304348 0.217391 0.235294 0.529412 0.117647 0.117647 0.1875 0.1875 0.125 0.5 0.333333 0.111111 0.444444 0.111111 0.08695700000000001 0.173913 0.391304 0.347826 0.25 0.321429 0.357143 0.07142900000000001 0.416667 0.25 0.166667 0.166667 0.333333 0.333333 0.166667 0.166667 0.230769 0.192308 0.230769 0.346154 0.333333 0.380952 0.190476 0.095238 0.275862 0.137931 0.310345 0.275862 0.235294 0.117647 0.529412 0.117647 0.322581 0.096774 0.290323 0.290323 0.2 0.12 0.4 0.28 0.16 0.4 0.24 0.2 0.36 0.32 0.16 0.16 0.4 0.16 0.2 0.24 0.310345 0.068966 0.344828 0.275862 0.083333 0.375 0.208333 0.333333 0.1 0.2 0.2 0.5 0.318182 0.409091 0.181818 0.090909 0.285714 0.142857 0.428571 0.142857 0.166667 0.3 0.266667 0.266667 0.266667 0.3 0.2 0.233333 0.310345 0.137931 0.344828 0.206897 0.259259 0.185185 0.222222 0.333333 0.290323 0.258065 0.258065 0.193548 0.222222 0.333333 0.111111 0.333333 0.3 0.333333 0.3 0.066667 0.173913 0.26087 0.347826 0.217391 0.15 0.3 0.2 0.35 0.08695700000000001 0.434783 0.26087 0.217391 0.210526 0.526316 0.157895 0.105263 0.212121 0.30303 0.212121 0.272727 0.25 0.35 0.25 0.15 0.444444 0.222222 0.111111 0.222222 0.178571 0.25 0.357143 0.214286 0.15 0.4 0.35 0.1 0.25 0.25 0.25 0.25 0.07692300000000001 0.269231 0.384615 0.269231 0.090909 0.090909 0.363636 0.454545 0.26087 0.130435 0.391304 0.217391 0.4 0.16 0.12 0.32 0.28125 0.3125 0.25 0.15625 0.266667 0.2 0.266667 0.266667 0.304348 0.26087 0.08695700000000001 0.347826 0.206897 0.275862 0.172414 0.344828 0.25 0.214286 0.321429 0.214286 0.294118 0.235294 0.264706 0.205882 0.096774 0.322581 0.290323 0.290323 0.307692 0.230769 0.346154 0.115385 0.15 0.2 0.4 0.25 0.434783 0.08695700000000001 0.08695700000000001 0.391304 0.25 0.285714 0.25 0.214286 0.148148 0.37037 0.148148 0.333333 0.105263 0.210526 0.473684 0.210526 0.210526 0.263158 0.210526 0.315789 0.238095 0.47619 0.095238 0.190476 0.206897 0.310345 0.241379 0.241379 0.095238 0.47619 0.238095 0.190476 0.307692 0.192308 0.346154 0.153846 0.142857 0.285714 0.285714 0.285714 0.242424 0.272727 0.30303 0.181818 0.346154 0.192308 0.115385 0.346154 0.222222 0.259259 0.296296 0.222222 0.466667 0.266667 0.133333 0.133333 0.28125 0.125 0.3125 0.28125 0.241379 0.241379 0.172414 0.344828 0.409091 0.090909 0.318182 0.181818 0.363636 0.272727 0.272727 0.090909 0.166667 0.25 0.166667 0.416667 0.346154 0.269231 0.230769 0.153846 0.32 0.24 0.32 0.12 0.2 0.257143 0.285714 0.257143 0.37037 0.148148 0.148148 0.333333 0.384615 0.192308 0.07692300000000001 0.346154 0.208333 0.291667 0.125 0.375 0.375 0.125 0.375 0.125 0.26087 0.434783 0.173913 0.130435 0.409091 0.181818 0.272727 0.136364 0.15 0.25 0.5 0.1 0.190476 0.190476 0.285714 0.333333 0.357143 0.357143 0.142857 0.142857 0.07142900000000001 0.285714 0.285714 0.357143 0.241379 0.172414 0.310345 0.275862 0.263158 0.105263 0.157895 0.473684 0.2 0.12 0.4 0.28 0.259259 0.296296 0.333333 0.111111 0.136364 0.454545 0.090909 0.318182 0.217391 0.173913 0.347826 0.26087 0.3 0.3 0.166667 0.233333 0.444444 0.222222 0.111111 0.222222 0.148148 0.333333 0.185185 0.333333 0.095238 0.142857 0.333333 0.428571 0.384615 0.346154 0.192308 0.07692300000000001 0.263158 0.105263 0.421053 0.210526 0.391304 0.304348 0.173913 0.130435 0.26087 0.26087 0.173913 0.304348 0.37037 0.296296 0.185185 0.148148 0.173913 0.304348 0.217391 0.304348 0.166667 0.166667 0.444444 0.222222 0.222222 0.259259 0.185185 0.333333 0.296296 0.222222 0.37037 0.111111 0.136364 0.181818 0.363636 0.318182 0.333333 0.111111 0.388889 0.166667 0.269231 0.346154 0.269231 0.115385 0.08695700000000001 0.173913 0.391304 0.347826 0.083333 0.333333 0.25 0.333333 0.105263 0.368421 0.368421 0.157895 0.12 0.08 0.4 0.4 0.307692 0.307692 0.153846 0.230769 0.347826 0.173913 0.391304 0.08695700000000001 0.409091 0.272727 0.136364 0.181818 0.275862 0.310345 0.172414 0.241379 0.190476 0.428571 0.095238 0.285714 0.214286 0.142857 0.5 0.142857 0.375 0.25 0.25 0.125 0.315789 0.210526 0.315789 0.157895 0.095238 0.380952 0.238095 0.285714 0.24 0.24 0.36 0.16 0.310345 0.206897 0.172414 0.310345 0.2 0.12 0.4 0.28 0.2 0.3 0.35 0.15 0.5 0.1 0.2 0.2 0.185185 0.37037 0.185185 0.259259 0.172414 0.172414 0.344828 0.310345 0.16129 0.258065 0.290323 0.290323 0.36 0.2 0.12 0.32 0.333333 0.1 0.3 0.266667 0.263158 0.157895 0.263158 0.315789 0.095238 0.238095 0.47619 0.190476 0.3125 0.21875 0.3125 0.15625 0.111111 0.111111 0.222222 0.555556 0.3 0.266667 0.2 0.233333 0.241379 0.137931 0.344828 0.275862 0.294118 0.294118 0.176471 0.235294 0.235294 0.235294 0.294118 0.235294 0.125 0.5 0.125 0.25 0.238095 0.285714 0.142857 0.333333 0.35 0.1 0.3 0.25 0.242424 0.30303 0.242424 0.212121 0.111111 0.333333 0.166667 0.388889 0.133333 0.266667 0.333333 0.266667 0.15 0.25 0.3 0.3 0.115385 0.230769 0.269231 0.384615 0.391304 0.217391 0.26087 0.130435 0.263158 0.263158 0.263158 0.210526 0.409091 0.318182 0.181818 0.090909 0.217391 0.26087 0.304348 0.217391 0.090909 0.136364 0.409091 0.363636 0.117647 0.235294 0.529412 0.117647 0.4 0.3 0.1 0.2 0.238095 0.142857 0.428571 0.190476 0.272727 0.454545 0.136364 0.136364 0.241379 0.310345 0.206897 0.241379 0.3 0.166667 0.333333 0.2 0.470588 0.117647 0.294118 0.117647 0.375 0.25 0.1875 0.1875 0.4 0.15 0.25 0.2 0.107143 0.285714 0.285714 0.321429 0.3125 0.28125 0.15625 0.25 0.153846 0.384615 0.307692 0.153846 0.264706 0.264706 0.176471 0.294118 0.157895 0.105263 0.473684 0.263158 0.172414 0.310345 0.310345 0.206897 0.380952 0.190476 0.142857 0.285714 0.130435 0.08695700000000001 0.391304 0.391304 0.166667 0.333333 0.291667 0.208333 0.24 0.24 0.12 0.4 0.285714 0.142857 0.214286 0.357143 0.095238 0.428571 0.142857 0.333333 0.315789 0.263158 0.210526 0.210526 0.296296 0.074074 0.259259 0.37037 0.166667 0.208333 0.333333 0.291667 0.1 0.35 0.4 0.15 0.181818 0.227273 0.363636 0.227273 0.25 0.333333 0.125 0.291667 0.36 0.32 0.08 0.24 0.095238 0.238095 0.333333 0.333333 0.344828 0.241379 0.103448 0.310345 0.142857 0.238095 0.333333 0.285714 0.321429 0.214286 0.321429 0.142857 0.083333 0.291667 0.291667 0.333333 0.346154 0.307692 0.269231 0.07692300000000001 0.409091 0.363636 0.136364 0.090909 0.296296 0.074074 0.259259 0.37037 0.227273 0.090909 0.227273 0.454545 0.333333 0.222222 0.111111 0.333333 0.25 0.25 0.25 0.25 0.233333 0.2 0.266667 0.3 0.181818 0.136364 0.454545 0.227273 0.230769 0.307692 0.307692 0.153846 0.24 0.32 0.2 0.24 0.357143 0.321429 0.214286 0.107143 0.285714 0.25 0.178571 0.285714 0.238095 0.190476 0.095238 0.47619 0.130435 0.130435 0.347826 0.391304 0.333333 0.148148 0.37037 0.148148 0.296296 0.296296 0.296296 0.111111 0.25 0.25 0.28125 0.21875 0.269231 0.269231 0.307692 0.153846 0.172414 0.344828 0.137931 0.344828 0.173913 0.434783 0.08695700000000001 0.304348 0.192308 0.346154 0.115385 0.346154 0.315789 0.263158 0.263158 0.157895 0.074074 0.296296 0.333333 0.296296 0.25 0.416667 0.083333 0.25 0.241379 0.275862 0.206897 0.275862 0.259259 0.148148 0.37037 0.222222 0.214286 0.214286 0.357143 0.214286 0.242424 0.272727 0.272727 0.212121 0.1875 0.3125 0.25 0.25 0.206897 0.241379 0.206897 0.344828 0.294118 0.235294 0.235294 0.235294 0.25 0.166667 0.416667 0.166667 0.333333 0.222222 0.148148 0.296296 0.30303 0.242424 0.242424 0.212121 0.1875 0.1875 0.5 0.125 0.30303 0.30303 0.212121 0.181818 0.30303 0.090909 0.30303 0.30303 0.269231 0.192308 0.307692 0.230769 0.3 0.1 0.5 0.1 0.136364 0.318182 0.454545 0.090909 0.333333 0.111111 0.333333 0.222222 0.210526 0.210526 0.105263 0.473684 0.178571 0.25 0.321429 0.25 0.25 0.1875 0.3125 0.25 0.142857 0.142857 0.238095 0.47619 0.157895 0.368421 0.315789 0.157895 0.1875 0.28125 0.28125 0.25 0.166667 0.333333 0.25 0.25 0.318182 0.090909 0.454545 0.136364 0.12 0.16 0.36 0.36 0.133333 0.266667 0.333333 0.266667 0.130435 0.173913 0.304348 0.391304 0.227273 0.227273 0.181818 0.363636 0.192308 0.153846 0.269231 0.384615 0.133333 0.3 0.3 0.266667 0.357143 0.07142900000000001 0.285714 0.285714 0.074074 0.37037 0.296296 0.259259 0.130435 0.391304 0.217391 0.26087 0.08695700000000001 0.434783 0.130435 0.347826 0.322581 0.193548 0.322581 0.16129 0.28125 0.15625 0.28125 0.28125 0.1875 0.4375 0.25 0.125 0.28 0.24 0.32 0.16 0.2 0.266667 0.333333 0.2 0.304348 0.08695700000000001 0.173913 0.434783 0.380952 0.142857 0.142857 0.333333 0.269231 0.153846 0.307692 0.269231 0.136364 0.318182 0.181818 0.363636 0.3125 0.25 0.3125 0.125 0.290323 0.322581 0.322581 0.064516 0.3 0.333333 0.266667 0.1 0.5 0.1 0.25 0.15 0.103448 0.344828 0.275862 0.275862 0.238095 0.190476 0.285714 0.285714 0.263158 0.157895 0.473684 0.105263 0.173913 0.130435 0.304348 0.391304 0.176471 0.176471 0.470588 0.176471 0.0625 0.3125 0.3125 0.3125 0.3 0.1 0.35 0.25 0.08695700000000001 0.434783 0.26087 0.217391 0.473684 0.157895 0.105263 0.263158 0.212121 0.242424 0.242424 0.30303 0.166667 0.291667 0.208333 0.333333 0.296296 0.222222 0.296296 0.185185 0.285714 0.428571 0.190476 0.095238 0.307692 0.192308 0.269231 0.230769 0.45 0.2 0.25 0.1 0.3125 0.28125 0.28125 0.125 0.3125 0.375 0.125 0.1875 0.25 0.208333 0.125 0.416667 0.185185 0.37037 0.333333 0.111111 0.190476 0.142857 0.190476 0.47619 0.206897 0.344828 0.172414 0.275862 0.304348 0.347826 0.217391 0.130435 0.217391 0.26087 0.304348 0.217391 0.269231 0.230769 0.346154 0.153846 0.333333 0.25 0.25 0.166667 0.166667 0.333333 0.166667 0.333333 0.3125 0.25 0.25 0.1875 0.2 0.285714 0.285714 0.228571 0.352941 0.176471 0.352941 0.117647 0.4 0.333333 0.133333 0.133333 0.357143 0.214286 0.25 0.178571 0.105263 0.421053 0.263158 0.210526 0.258065 0.258065 0.322581 0.16129 0.2 0.2 0.28 0.32 0.192308 0.192308 0.307692 0.307692 0.212121 0.181818 0.30303 0.30303 0.24 0.32 0.12 0.32 0.225806 0.290323 0.290323 0.193548 0.25 0.28125 0.1875 0.28125 0.2 0.3 0.3 0.2 0.375 0.416667 0.083333 0.125 0.368421 0.105263 0.368421 0.157895 0.357143 0.321429 0.214286 0.107143 0.409091 0.318182 0.181818 0.090909 0.266667 0.266667 0.233333 0.233333 0.363636 0.227273 0.227273 0.181818 0.4375 0.1875 0.25 0.125 0.235294 0.117647 0.294118 0.352941 0.2 0.266667 0.266667 0.266667 0.25 0.3125 0.25 0.1875 0.212121 0.30303 0.272727 0.212121 0.241379 0.137931 0.344828 0.275862 0.129032 0.322581 0.290323 0.258065 0.117647 0.411765 0.117647 0.352941 0.192308 0.384615 0.153846 0.269231 0.117647 0.235294 0.529412 0.117647 0.45 0.1 0.25 0.2 0.235294 0.117647 0.411765 0.235294 0.1875 0.3125 0.1875 0.3125 0.142857 0.428571 0.142857 0.285714 0.166667 0.291667 0.375 0.166667 0.310345 0.275862 0.206897 0.206897 0.222222 0.277778 0.277778 0.222222 0.153846 0.115385 0.346154 0.384615 0.16 0.36 0.4 0.08 0.181818 0.318182 0.227273 0.272727 0.212121 0.212121 0.30303 0.272727 0.375 0.083333 0.375 0.166667 0.259259 0.148148 0.37037 0.222222 0.166667 0.444444 0.277778 0.111111 0.37037 0.148148 0.185185 0.296296 0.173913 0.304348 0.173913 0.347826 0.259259 0.296296 0.333333 0.111111 0.285714 0.095238 0.285714 0.333333 0.16 0.16 0.32 0.36 0.142857 0.321429 0.214286 0.321429 0.36 0.12 0.12 0.4 0.227273 0.363636 0.272727 0.136364 0.296296 0.37037 0.259259 0.074074 0.1875 0.1875 0.1875 0.4375 0.296296 0.259259 0.222222 0.222222 0.3 0.2 0.4 0.1 0.275862 0.172414 0.344828 0.206897 0.3 0.233333 0.333333 0.133333 0.346154 0.230769 0.115385 0.307692 0.153846 0.384615 0.230769 0.230769 0.1 0.333333 0.3 0.266667 0.208333 0.083333 0.291667 0.416667 0.272727 0.272727 0.181818 0.272727 0.111111 0.444444 0.111111 0.333333 0.25 0.25 0.3125 0.1875 0.166667 0.25 0.166667 0.416667 0.105263 0.263158 0.473684 0.157895 0.103448 0.241379 0.310345 0.344828 0.25 0.357143 0.107143 0.285714 0.15625 0.3125 0.3125 0.21875 0.4 0.15 0.2 0.25 0.4 0.2 0.12 0.28 0.304348 0.130435 0.434783 0.130435 0.1875 0.3125 0.1875 0.3125 0.275862 0.241379 0.344828 0.137931 0.315789 0.105263 0.315789 0.263158 0.409091 0.227273 0.090909 0.272727 0.230769 0.153846 0.346154 0.269231 0.117647 0.176471 0.529412 0.176471 0.32 0.2 0.16 0.32 0.275862 0.275862 0.275862 0.172414 0.142857 0.333333 0.095238 0.428571 0.266667 0.266667 0.133333 0.333333 0.107143 0.285714 0.357143 0.25 0.35 0.2 0.3 0.15 0.173913 0.304348 0.304348 0.217391 0.190476 0.428571 0.095238 0.285714 0.333333 0.208333 0.333333 0.125 0.291667 0.166667 0.291667 0.25 0.25 0.25 0.375 0.125 0.391304 0.173913 0.173913 0.26087 0.555556 0.111111 0.222222 0.111111 0.375 0.166667 0.208333 0.25 0.307692 0.230769 0.307692 0.153846 0.357143 0.07142900000000001 0.214286 0.357143 0.333333 0.166667 0.333333 0.166667 0.375 0.125 0.291667 0.208333 0.236842 0.263158 0.236842 0.263158 0.105263 0.315789 0.210526 0.368421 0.181818 0.136364 0.409091 0.272727 0.166667 0.416667 0.166667 0.25 0.25 0.107143 0.357143 0.285714 0.142857 0.25 0.285714 0.321429 0.227273 0.227273 0.363636 0.181818 0.208333 0.25 0.416667 0.125 0.434783 0.173913 0.304348 0.08695700000000001 0.28 0.2 0.2 0.32 0.434783 0.217391 0.217391 0.130435 0.181818 0.136364 0.454545 0.227273 0.333333 0.208333 0.083333 0.375 0.421053 0.263158 0.157895 0.157895 0.08695700000000001 0.304348 0.304348 0.304348 0.347826 0.26087 0.130435 0.26087 0.210526 0.157895 0.368421 0.263158 0.111111 0.5 0.222222 0.166667 0.307692 0.384615 0.153846 0.153846 0.214286 0.285714 0.214286 0.285714 0.28125 0.125 0.28125 0.3125 0.125 0.208333 0.25 0.416667 0.192308 0.346154 0.115385 0.346154 0.285714 0.357143 0.214286 0.142857 0.333333 0.095238 0.238095 0.333333 0.214286 0.321429 0.214286 0.25 0.333333 0.259259 0.074074 0.333333 0.214286 0.321429 0.214286 0.25 0.153846 0.230769 0.269231 0.346154 0.272727 0.151515 0.272727 0.30303 0.269231 0.346154 0.307692 0.07692300000000001 0.136364 0.227273 0.318182 0.318182 0.125 0.375 0.166667 0.333333 0.105263 0.157895 0.526316 0.210526 0.227273 0.227273 0.409091 0.136364 0.083333 0.083333 0.416667 0.416667 0.28125 0.25 0.1875 0.28125 0.307692 0.346154 0.115385 0.230769 0.25 0.2 0.1 0.45 0.176471 0.235294 0.176471 0.411765 0.190476 0.380952 0.285714 0.142857 0.333333 0.2 0.133333 0.333333 0.333333 0.208333 0.333333 0.125 0.346154 0.07692300000000001 0.230769 0.346154 0.25 0.277778 0.25 0.222222 0.384615 0.384615 0.07692300000000001 0.153846 0.172414 0.344828 0.310345 0.172414 0.2 0.1 0.25 0.45 0.111111 0.388889 0.277778 0.222222 0.227273 0.136364 0.227273 0.409091 0.230769 0.384615 0.230769 0.153846 0.08695700000000001 0.347826 0.434783 0.130435 0.296296 0.111111 0.259259 0.333333 0.230769 0.230769 0.307692 0.230769 0.275862 0.172414 0.275862 0.275862 0.222222 0.074074 0.37037 0.333333 0.176471 0.117647 0.411765 0.294118 0.25 0.375 0.25 0.125 0.285714 0.357143 0.25 0.107143 0.238095 0.142857 0.190476 0.428571 0.178571 0.214286 0.357143 0.25 0.166667 0.375 0.083333 0.375 0.321429 0.357143 0.25 0.07142900000000001 0.117647 0.117647 0.411765 0.352941 0.142857 0.142857 0.571429 0.142857 0.37037 0.259259 0.074074 0.296296 0.181818 0.181818 0.272727 0.363636 0.28125 0.21875 0.3125 0.1875 0.3125 0.1875 0.25 0.25 0.25 0.375 0.125 0.25 0.380952 0.095238 0.428571 0.095238 0.333333 0.142857 0.380952 0.142857 0.25 0.125 0.4375 0.1875 0.307692 0.153846 0.153846 0.384615 0.36 0.32 0.16 0.16 0.133333 0.333333 0.2 0.333333 0.217391 0.391304 0.26087 0.130435 0.307692 0.230769 0.115385 0.346154 0.318182 0.136364 0.181818 0.363636 0.217391 0.173913 0.347826 0.26087 0.4 0.2 0.266667 0.133333 0.277778 0.333333 0.222222 0.166667 0.142857 0.214286 0.428571 0.214286 0.28 0.4 0.16 0.16 0.285714 0.228571 0.228571 0.257143 0.25 0.1 0.45 0.2 0.222222 0.333333 0.185185 0.259259 0.208333 0.291667 0.375 0.125 0.269231 0.384615 0.153846 0.192308 0.15 0.25 0.1 0.5 0.148148 0.37037 0.185185 0.296296 0.30303 0.212121 0.181818 0.30303 0.310345 0.241379 0.206897 0.241379 0.384615 0.307692 0.153846 0.153846 0.083333 0.125 0.375 0.416667 0.416667 0.25 0.166667 0.166667 0.111111 0.444444 0.333333 0.111111 0.304348 0.304348 0.08695700000000001 0.304348 0.176471 0.352941 0.352941 0.117647 0.277778 0.194444 0.277778 0.25 0.181818 0.136364 0.409091 0.272727 0.214286 0.285714 0.142857 0.357143 0.263158 0.210526 0.157895 0.368421 0.352941 0.176471 0.294118 0.176471 0.5333329999999999 0.2 0.133333 0.133333 0.321429 0.25 0.07142900000000001 0.357143 0.214286 0.321429 0.321429 0.142857 0.08695700000000001 0.26087 0.217391 0.434783 0.285714 0.285714 0.07142900000000001 0.357143 0.24 0.28 0.24 0.24 0.285714 0.321429 0.25 0.142857 0.37037 0.222222 0.333333 0.074074 0.07692300000000001 0.307692 0.269231 0.346154 0.142857 0.321429 0.321429 0.214286 0.30303 0.121212 0.30303 0.272727 0.37037 0.185185 0.37037 0.074074 0.277778 0.277778 0.333333 0.111111 0.227273 0.363636 0.272727 0.136364 0.384615 0.153846 0.230769 0.230769 0.153846 0.153846 0.346154 0.346154 0.1 0.15 0.4 0.35 0.388889 0.166667 0.222222 0.222222 0.176471 0.529412 0.176471 0.117647 0.333333 0.266667 0.233333 0.166667 0.230769 0.307692 0.384615 0.07692300000000001 0.291667 0.125 0.166667 0.416667 0.24 0.32 0.28 0.16 0.25641 0.25641 0.25641 0.230769 0.181818 0.318182 0.090909 0.409091 0.409091 0.136364 0.227273 0.227273 0.173913 0.304348 0.434783 0.08695700000000001 0.272727 0.318182 0.090909 0.318182 0.25 0.28125 0.28125 0.1875 0.190476 0.428571 0.095238 0.285714 0.275862 0.344828 0.206897 0.172414 0.2 0.35 0.1 0.35 0.4 0.2 0.32 0.08 0.47619 0.095238 0.333333 0.095238 0.375 0.1875 0.25 0.1875 0.357143 0.25 0.107143 0.285714 0.304348 0.304348 0.173913 0.217391 0.08695700000000001 0.391304 0.391304 0.130435 0.428571 0.333333 0.095238 0.142857 0.222222 0.222222 0.222222 0.333333 0.25 0.178571 0.25 0.321429 0.233333 0.266667 0.233333 0.266667 0.321429 0.25 0.07142900000000001 0.357143 0.090909 0.409091 0.318182 0.181818 0.136364 0.318182 0.090909 0.454545 0.315789 0.263158 0.315789 0.105263 0.208333 0.333333 0.125 0.333333 0.32 0.2 0.36 0.12 0.307692 0.115385 0.384615 0.192308 0.333333 0.111111 0.444444 0.111111 0.333333 0.375 0.083333 0.208333 0.074074 0.259259 0.296296 0.37037 0.133333 0.4 0.2 0.266667 0.115385 0.153846 0.384615 0.346154 0.264706 0.235294 0.205882 0.294118 0.384615 0.192308 0.307692 0.115385 0.208333 0.166667 0.416667 0.208333 0.285714 0.285714 0.285714 0.142857 0.555556 0.111111 0.166667 0.166667 0.157895 0.368421 0.210526 0.263158 0.461538 0.153846 0.230769 0.153846 0.266667 0.233333 0.333333 0.166667 0.222222 0.259259 0.259259 0.259259 0.37037 0.259259 0.074074 0.296296 0.461538 0.153846 0.230769 0.153846 0.173913 0.26087 0.217391 0.347826 0.421053 0.263158 0.210526 0.105263 0.466667 0.266667 0.133333 0.133333 0.24 0.32 0.36 0.08 0.074074 0.259259 0.333333 0.333333 0.321429 0.107143 0.321429 0.25 0.16 0.12 0.4 0.32 0.083333 0.25 0.416667 0.25 0.230769 0.230769 0.269231 0.269231 0.133333 0.133333 0.133333 0.6 0.142857 0.357143 0.357143 0.142857 0.095238 0.428571 0.190476 0.285714 0.25 0.357143 0.214286 0.178571 0.2 0.3 0.2 0.3 0.3125 0.4375 0.125 0.125 0.222222 0.37037 0.333333 0.074074 0.3 0.166667 0.266667 0.266667 0.333333 0.111111 0.37037 0.185185 0.347826 0.434783 0.08695700000000001 0.130435 0.142857 0.142857 0.285714 0.428571 0.3 0.133333 0.233333 0.333333 0.37037 0.222222 0.222222 0.185185 0.25 0.333333 0.166667 0.25 0.111111 0.222222 0.111111 0.555556 0.2 0.25 0.35 0.2 0.190476 0.333333 0.238095 0.238095 0.346154 0.346154 0.230769 0.07692300000000001 0.2 0.12 0.4 0.28 0.157895 0.526316 0.157895 0.157895 0.3125 0.3125 0.1875 0.1875 0.391304 0.130435 0.08695700000000001 0.391304 0.2 0.2 0.4 0.2 0.32 0.28 0.12 0.28 0.32 0.16 0.28 0.24 0.3125 0.1875 0.21875 0.28125 0.28125 0.25 0.15625 0.3125 0.181818 0.272727 0.181818 0.363636 0.290323 0.16129 0.225806 0.322581 0.375 0.25 0.125 0.25 0.26087 0.130435 0.26087 0.347826 0.285714 0.333333 0.285714 0.095238 0.333333 0.222222 0.222222 0.222222 0.333333 0.095238 0.428571 0.142857 0.294118 0.235294 0.205882 0.264706 0.08 0.36 0.16 0.4 0.2 0.35 0.25 0.2 0.153846 0.115385 0.384615 0.346154 0.35 0.1 0.45 0.1 0.272727 0.272727 0.30303 0.151515 0.357143 0.142857 0.178571 0.321429 0.3125 0.125 0.25 0.3125 0.5 0.3 0.1 0.1 0.384615 0.153846 0.192308 0.269231 0.142857 0.333333 0.142857 0.380952 0.391304 0.08695700000000001 0.304348 0.217391 0.266667 0.3 0.166667 0.266667 0.3125 0.125 0.3125 0.25 0.291667 0.166667 0.291667 0.25 0.363636 0.409091 0.136364 0.090909 0.307692 0.384615 0.115385 0.192308 0.307692 0.192308 0.153846 0.346154 0.090909 0.363636 0.181818 0.363636 0.21875 0.28125 0.28125 0.21875 0.08 0.2 0.36 0.36 0.21875 0.3125 0.15625 0.3125 0.434783 0.08695700000000001 0.391304 0.08695700000000001 0.304348 0.173913 0.217391 0.304348 0.210526 0.473684 0.157895 0.157895 0.272727 0.30303 0.212121 0.212121 0.428571 0.214286 0.214286 0.142857 0.142857 0.214286 0.357143 0.285714 0.3125 0.28125 0.21875 0.1875 0.307692 0.230769 0.230769 0.230769 0.214286 0.285714 0.25 0.25 0.08 0.24 0.4 0.28 0.176471 0.470588 0.176471 0.176471 0.454545 0.181818 0.181818 0.181818 0.315789 0.210526 0.263158 0.210526 0.36 0.36 0.12 0.16 0.238095 0.428571 0.238095 0.095238 0.384615 0.07692300000000001 0.153846 0.384615 0.148148 0.296296 0.259259 0.296296 0.333333 0.3 0.3 0.066667 0.269231 0.115385 0.269231 0.346154 0.391304 0.173913 0.130435 0.304348 0.105263 0.105263 0.526316 0.263158 0.242424 0.212121 0.242424 0.30303 0.142857 0.321429 0.285714 0.25 0.222222 0.333333 0.166667 0.277778 0.115385 0.307692 0.307692 0.269231 0.25 0.1875 0.28125 0.28125 0.375 0.125 0.291667 0.208333 0.206897 0.310345 0.275862 0.206897 0.227273 0.181818 0.363636 0.227273 0.294118 0.176471 0.294118 0.235294 0.333333 0.375 0.208333 0.083333 0.185185 0.37037 0.111111 0.333333 0.45 0.1 0.35 0.1 0.428571 0.095238 0.142857 0.333333 0.275862 0.241379 0.137931 0.344828 0.227273 0.181818 0.454545 0.136364 0.269231 0.230769 0.346154 0.153846 0.272727 0.272727 0.212121 0.242424 0.0625 0.3125 0.3125 0.3125 0.115385 0.269231 0.307692 0.307692 0.222222 0.259259 0.148148 0.37037 0.2 0.12 0.36 0.32 0.25 0.291667 0.208333 0.25 0.37037 0.111111 0.148148 0.37037 0.228571 0.228571 0.257143 0.285714 0.259259 0.259259 0.148148 0.333333 0.176471 0.264706 0.294118 0.264706 0.185185 0.259259 0.296296 0.259259 0.434783 0.173913 0.08695700000000001 0.304348 0.25 0.3 0.3 0.15 0.307692 0.192308 0.346154 0.153846 0.238095 0.238095 0.285714 0.238095 0.1 0.2 0.2 0.5 0.285714 0.285714 0.357143 0.07142900000000001 0.411765 0.294118 0.117647 0.176471 0.095238 0.190476 0.238095 0.47619 0.333333 0.333333 0.1 0.233333 0.375 0.375 0.125 0.125 0.344828 0.241379 0.206897 0.206897 0.125 0.1875 0.1875 0.5 0.3 0.333333 0.166667 0.2 0.269231 0.307692 0.153846 0.269231 0.208333 0.291667 0.333333 0.166667 0.454545 0.136364 0.181818 0.227273 0.25 0.125 0.3125 0.3125 0.222222 0.111111 0.277778 0.388889 0.473684 0.315789 0.105263 0.105263 0.333333 0.133333 0.2 0.333333 0.275862 0.103448 0.310345 0.310345 0.318182 0.136364 0.136364 0.409091 0.210526 0.315789 0.105263 0.368421 0.32 0.12 0.24 0.32 0.357143 0.142857 0.321429 0.178571 0.208333 0.416667 0.166667 0.208333 0.45 0.15 0.3 0.1 0.241379 0.103448 0.344828 0.310345 0.181818 0.136364 0.454545 0.227273 0.357143 0.214286 0.285714 0.142857 0.205882 0.294118 0.294118 0.205882 0.166667 0.111111 0.333333 0.388889 0.185185 0.148148 0.333333 0.333333 0.368421 0.263158 0.105263 0.263158 0.208333 0.291667 0.166667 0.333333 0.416667 0.25 0.208333 0.125 0.1 0.3 0.266667 0.333333 0.4 0.16 0.28 0.16 0.32 0.2 0.08 0.4 0.181818 0.454545 0.181818 0.181818 0.241379 0.344828 0.206897 0.206897 0.269231 0.115385 0.384615 0.230769 0.095238 0.238095 0.428571 0.238095 0.322581 0.322581 0.064516 0.290323 0.357143 0.357143 0.07142900000000001 0.214286 0.321429 0.321429 0.285714 0.07142900000000001 0.16 0.16 0.36 0.32 0.470588 0.235294 0.117647 0.176471 0.4 0.3 0.2 0.1 0.290323 0.096774 0.322581 0.290323 0.105263 0.473684 0.315789 0.105263 0.111111 0.388889 0.111111 0.388889 0.344828 0.310345 0.241379 0.103448 0.35 0.2 0.3 0.15 0.315789 0.263158 0.210526 0.210526 0.222222 0.296296 0.222222 0.259259 0.384615 0.230769 0.230769 0.153846 0.157895 0.368421 0.368421 0.105263 0.35 0.15 0.4 0.1 0.344828 0.206897 0.103448 0.344828 0.16 0.4 0.2 0.24 0.230769 0.269231 0.269231 0.230769 0.3125 0.3125 0.125 0.25 0.241379 0.310345 0.310345 0.137931 0.3125 0.3125 0.21875 0.15625 0.16129 0.290323 0.258065 0.290323 0.095238 0.238095 0.380952 0.285714 0.47619 0.095238 0.285714 0.142857 0.269231 0.153846 0.307692 0.269231 0.318182 0.136364 0.227273 0.318182 0.588235 0.117647 0.117647 0.176471 0.35 0.1 0.4 0.15 0.275862 0.310345 0.103448 0.310345 0.222222 0.222222 0.222222 0.333333 0.307692 0.269231 0.307692 0.115385 0.16 0.24 0.28 0.32 0.264706 0.294118 0.176471 0.264706 0.275862 0.206897 0.344828 0.172414 0.1 0.333333 0.233333 0.333333 0.321429 0.357143 0.107143 0.214286 0.352941 0.117647 0.411765 0.117647 0.130435 0.08695700000000001 0.434783 0.347826 0.214286 0.357143 0.321429 0.107143 0.25 0.35 0.1 0.3 0.142857 0.428571 0.095238 0.333333 0.409091 0.090909 0.363636 0.136364 0.214286 0.357143 0.07142900000000001 0.357143 0.26087 0.08695700000000001 0.434783 0.217391 0.307692 0.384615 0.153846 0.153846 0.190476 0.428571 0.190476 0.190476 0.36 0.16 0.4 0.08 0.384615 0.07692300000000001 0.269231 0.269231 0.166667 0.125 0.333333 0.375 0.074074 0.37037 0.37037 0.185185 0.294118 0.264706 0.294118 0.147059 0.275862 0.310345 0.241379 0.172414 0.176471 0.235294 0.235294 0.352941 0.111111 0.222222 0.333333 0.333333 0.230769 0.346154 0.153846 0.269231 0.222222 0.333333 0.222222 0.222222 0.3125 0.125 0.25 0.3125 0.347826 0.08695700000000001 0.347826 0.217391 0.105263 0.368421 0.315789 0.210526 0.5 0.111111 0.222222 0.166667 0.357143 0.178571 0.214286 0.25 0.384615 0.07692300000000001 0.153846 0.384615 0.136364 0.272727 0.181818 0.409091 0.3 0.2 0.3 0.2 0.380952 0.333333 0.190476 0.095238 0.36 0.08 0.16 0.4 0.185185 0.148148 0.333333 0.333333 0.194444 0.277778 0.25 0.277778 0.235294 0.205882 0.294118 0.264706 0.117647 0.294118 0.117647 0.470588 0.277778 0.166667 0.277778 0.277778 0.2 0.2 0.1 0.5 0.25 0.3125 0.25 0.1875 0.166667 0.444444 0.111111 0.277778 0.130435 0.304348 0.217391 0.347826 0.25 0.333333 0.25 0.166667 0.454545 0.136364 0.272727 0.136364 0.333333 0.416667 0.083333 0.166667 0.291667 0.166667 0.375 0.166667 0.125 0.625 0.125 0.125 0.166667 0.166667 0.375 0.291667 0.103448 0.310345 0.275862 0.310345 0.181818 0.454545 0.181818 0.181818 0.176471 0.176471 0.411765 0.235294 0.290323 0.258065 0.225806 0.225806 0.272727 0.090909 0.318182 0.318182 0.08695700000000001 0.304348 0.347826 0.26087 0.166667 0.125 0.291667 0.416667 0.307692 0.153846 0.384615 0.153846 0.4 0.28 0.08 0.24 0.105263 0.105263 0.368421 0.421053 0.117647 0.176471 0.235294 0.470588 0.347826 0.26087 0.173913 0.217391 0.15 0.5 0.15 0.2 0.264706 0.235294 0.235294 0.264706 0.344828 0.275862 0.206897 0.172414 0.111111 0.166667 0.555556 0.166667 0.07692300000000001 0.307692 0.307692 0.307692 0.4 0.12 0.4 0.08 0.115385 0.153846 0.346154 0.384615 0.090909 0.318182 0.409091 0.181818 0.190476 0.285714 0.238095 0.285714 0.294118 0.411765 0.117647 0.176471 0.07142900000000001 0.285714 0.321429 0.321429 0.21875 0.25 0.3125 0.21875 0.454545 0.227273 0.136364 0.181818 0.130435 0.391304 0.347826 0.130435 0.07142900000000001 0.357143 0.321429 0.25 0.125 0.375 0.083333 0.416667 0.090909 0.227273 0.272727 0.409091 0.105263 0.315789 0.368421 0.210526 0.5 0.1 0.2 0.2 0.277778 0.222222 0.111111 0.388889 0.2 0.5 0.15 0.15 0.136364 0.409091 0.136364 0.318182 0.24 0.28 0.2 0.28 0.259259 0.333333 0.259259 0.148148 0.210526 0.315789 0.263158 0.210526 0.277778 0.222222 0.222222 0.277778 0.444444 0.111111 0.166667 0.277778 0.263158 0.421053 0.210526 0.105263 0.310345 0.103448 0.344828 0.241379 0.269231 0.153846 0.346154 0.230769 0.147059 0.294118 0.294118 0.264706 0.095238 0.142857 0.285714 0.47619 0.333333 0.166667 0.166667 0.333333 0.230769 0.384615 0.115385 0.269231 0.272727 0.318182 0.318182 0.090909 0.307692 0.384615 0.153846 0.153846 0.25 0.25 0.3125 0.1875 0.074074 0.333333 0.222222 0.37037 0.307692 0.07692300000000001 0.384615 0.230769 0.3 0.3 0.3 0.1 0.24 0.16 0.36 0.24 0.129032 0.258065 0.290323 0.322581 0.25 0.291667 0.125 0.333333 0.227273 0.090909 0.227273 0.454545 0.347826 0.173913 0.347826 0.130435 0.277778 0.333333 0.277778 0.111111 0.28 0.36 0.12 0.24 0.275862 0.241379 0.275862 0.206897 0.166667 0.233333 0.333333 0.266667 0.35 0.15 0.4 0.1 0.193548 0.258065 0.258065 0.290323 0.103448 0.275862 0.344828 0.275862 0.07142900000000001 0.357143 0.321429 0.25 0.263158 0.157895 0.105263 0.473684 0.4 0.16 0.28 0.16 0.315789 0.210526 0.368421 0.105263 0.133333 0.5333329999999999 0.133333 0.2 0.193548 0.322581 0.290323 0.193548 0.222222 0.296296 0.333333 0.148148 0.083333 0.416667 0.291667 0.208333 0.111111 0.222222 0.333333 0.333333 0.157895 0.368421 0.210526 0.263158 0.136364 0.227273 0.227273 0.409091 0.136364 0.227273 0.409091 0.227273 0.318182 0.409091 0.090909 0.181818 0.36 0.16 0.24 0.24 0.290323 0.290323 0.258065 0.16129 0.269231 0.269231 0.115385 0.346154 0.3 0.15 0.1 0.45 0.12 0.4 0.24 0.24 0.08 0.36 0.32 0.24 0.233333 0.333333 0.333333 0.1 0.206897 0.310345 0.310345 0.172414 0.25 0.416667 0.166667 0.166667 0.28125 0.3125 0.15625 0.25 0.3 0.1 0.266667 0.333333 0.241379 0.241379 0.172414 0.344828 0.263158 0.157895 0.421053 0.157895 0.115385 0.153846 0.384615 0.346154 0.15 0.3 0.2 0.35 0.222222 0.111111 0.111111 0.555556 0.333333 0.148148 0.222222 0.296296 0.416667 0.125 0.291667 0.166667 0.136364 0.454545 0.181818 0.227273 0.111111 0.37037 0.148148 0.37037 0.4 0.32 0.2 0.08 0.133333 0.466667 0.266667 0.133333 0.321429 0.07142900000000001 0.25 0.357143 0.235294 0.117647 0.470588 0.176471 0.264706 0.294118 0.147059 0.294118 0.25 0.28125 0.28125 0.1875 0.190476 0.238095 0.428571 0.142857 0.157895 0.421053 0.263158 0.157895 0.3 0.35 0.25 0.1 0.3 0.4 0.15 0.15 0.166667 0.375 0.291667 0.166667 0.12 0.4 0.32 0.16 0.357143 0.25 0.285714 0.107143 0.258065 0.322581 0.129032 0.290323 0.16129 0.322581 0.322581 0.193548 0.166667 0.555556 0.111111 0.166667 0.45 0.2 0.1 0.25 0.333333 0.111111 0.37037 0.185185 0.277778 0.388889 0.222222 0.111111 0.08 0.2 0.32 0.4 0.26087 0.217391 0.304348 0.217391 0.210526 0.105263 0.421053 0.263158 0.380952 0.285714 0.095238 0.238095 0.3125 0.09375 0.3125 0.28125 0.068966 0.241379 0.344828 0.344828 0.263158 0.315789 0.157895 0.263158 0.321429 0.321429 0.07142900000000001 0.285714 0.363636 0.363636 0.090909 0.181818 0.222222 0.148148 0.259259 0.37037 0.214286 0.142857 0.357143 0.285714 0.304348 0.173913 0.217391 0.304348 0.368421 0.368421 0.105263 0.157895 0.08 0.2 0.32 0.4 0.233333 0.3 0.166667 0.3 0.15 0.25 0.1 0.5 0.210526 0.315789 0.105263 0.368421 0.307692 0.269231 0.346154 0.07692300000000001 0.322581 0.290323 0.064516 0.322581 0.333333 0.133333 0.133333 0.4 0.275862 0.344828 0.137931 0.241379 0.225806 0.193548 0.322581 0.258065 0.266667 0.133333 0.133333 0.466667 0.117647 0.235294 0.117647 0.529412 0.25 0.28125 0.21875 0.25 0.315789 0.315789 0.105263 0.263158 0.434783 0.217391 0.217391 0.130435 0.08695700000000001 0.304348 0.304348 0.304348 0.333333 0.333333 0.166667 0.166667 0.36 0.12 0.32 0.2 0.3 0.1 0.15 0.45 0.3125 0.28125 0.21875 0.1875 0.16 0.4 0.36 0.08 0.1 0.2 0.2 0.5 0.238095 0.238095 0.190476 0.333333 0.26087 0.217391 0.130435 0.391304 0.142857 0.214286 0.214286 0.428571 0.176471 0.235294 0.411765 0.176471 0.192308 0.269231 0.269231 0.269231 0.173913 0.173913 0.391304 0.26087 0.214286 0.142857 0.285714 0.357143 0.380952 0.333333 0.095238 0.190476 0.26087 0.26087 0.304348 0.173913 0.2 0.3 0.166667 0.333333 0.233333 0.2 0.333333 0.233333 0.208333 0.291667 0.375 0.125 0.277778 0.111111 0.222222 0.388889 0.25 0.4375 0.125 0.1875 0.3 0.266667 0.3 0.133333 0.083333 0.208333 0.416667 0.291667 0.4 0.25 0.2 0.15 0.166667 0.25 0.416667 0.166667 0.357143 0.142857 0.142857 0.357143 0.193548 0.258065 0.225806 0.322581 0.272727 0.090909 0.272727 0.363636 0.08695700000000001 0.304348 0.347826 0.26087 0.32 0.32 0.24 0.12 0.208333 0.166667 0.333333 0.291667 0.225806 0.258065 0.290323 0.225806 0.416667 0.166667 0.333333 0.083333 0.129032 0.322581 0.225806 0.322581 0.304348 0.391304 0.173913 0.130435 0.28125 0.1875 0.3125 0.21875 0.227273 0.090909 0.318182 0.363636 0.217391 0.173913 0.26087 0.347826 0.3 0.333333 0.266667 0.1 0.421053 0.315789 0.157895 0.105263 0.235294 0.294118 0.264706 0.205882 0.37037 0.185185 0.259259 0.185185 0.25 0.15 0.5 0.1 0.181818 0.363636 0.181818 0.272727 0.296296 0.222222 0.148148 0.333333 0.275862 0.344828 0.103448 0.275862 0.129032 0.258065 0.322581 0.290323 0.272727 0.090909 0.227273 0.409091 0.241379 0.310345 0.310345 0.137931 0.5 0.166667 0.111111 0.222222 0.178571 0.285714 0.357143 0.178571 0.230769 0.230769 0.384615 0.153846 0.454545 0.181818 0.136364 0.227273 0.2 0.466667 0.2 0.133333 0.263158 0.368421 0.105263 0.263158 0.409091 0.318182 0.136364 0.136364 0.181818 0.090909 0.318182 0.409091 0.47619 0.285714 0.095238 0.142857 0.25 0.21875 0.3125 0.21875 0.416667 0.166667 0.166667 0.25 0.208333 0.166667 0.375 0.25 0.291667 0.25 0.083333 0.375 0.153846 0.307692 0.230769 0.307692 0.346154 0.384615 0.153846 0.115385 0.172414 0.275862 0.206897 0.344828 0.117647 0.235294 0.470588 0.176471 0.294118 0.117647 0.470588 0.117647 0.125 0.125 0.375 0.375 0.193548 0.290323 0.258065 0.258065 0.333333 0.074074 0.37037 0.222222 0.166667 0.333333 0.375 0.125 0.153846 0.307692 0.230769 0.307692 0.269231 0.269231 0.230769 0.230769 0.275862 0.068966 0.344828 0.310345 0.346154 0.307692 0.07692300000000001 0.269231 0.115385 0.307692 0.384615 0.192308 0.375 0.125 0.3125 0.1875 0.142857 0.190476 0.190476 0.47619 0.416667 0.25 0.208333 0.125 0.230769 0.192308 0.384615 0.192308 0.375 0.333333 0.125 0.166667 0.321429 0.214286 0.321429 0.142857 0.115385 0.269231 0.269231 0.346154 0.236842 0.263158 0.263158 0.236842 0.1 0.2 0.4 0.3 0.1875 0.3125 0.28125 0.21875 0.321429 0.107143 0.321429 0.25 0.125 0.3125 0.1875 0.375 0.322581 0.129032 0.258065 0.290323 0.125 0.25 0.375 0.25 0.391304 0.217391 0.217391 0.173913 0.285714 0.321429 0.107143 0.285714 0.238095 0.47619 0.095238 0.190476 0.148148 0.333333 0.148148 0.37037 0.32 0.08 0.2 0.4 0.129032 0.290323 0.258065 0.322581 0.285714 0.095238 0.47619 0.142857 0.115385 0.384615 0.346154 0.153846 0.4375 0.125 0.3125 0.125 0.238095 0.190476 0.285714 0.285714 0.153846 0.346154 0.269231 0.230769 0.222222 0.37037 0.296296 0.111111 0.212121 0.242424 0.272727 0.272727 0.2 0.32 0.12 0.36 0.421053 0.105263 0.105263 0.368421 0.08695700000000001 0.26087 0.347826 0.304348 0.25 0.416667 0.125 0.208333 0.181818 0.272727 0.090909 0.454545 0.291667 0.291667 0.291667 0.125 0.148148 0.37037 0.333333 0.148148 0.130435 0.304348 0.434783 0.130435 0.291667 0.125 0.333333 0.25 0.130435 0.173913 0.347826 0.347826 0.470588 0.176471 0.117647 0.235294 0.333333 0.25 0.166667 0.25 0.37037 0.222222 0.259259 0.148148 0.136364 0.363636 0.090909 0.409091 0.205882 0.235294 0.264706 0.294118 0.344828 0.137931 0.241379 0.275862 0.166667 0.111111 0.555556 0.166667 0.214286 0.214286 0.357143 0.214286 0.333333 0.37037 0.222222 0.074074 0.241379 0.344828 0.310345 0.103448 0.210526 0.526316 0.157895 0.105263 0.172414 0.344828 0.310345 0.172414 0.16 0.36 0.24 0.24 0.216216 0.27027 0.27027 0.243243 0.095238 0.380952 0.238095 0.285714 0.115385 0.384615 0.115385 0.384615 0.36 0.16 0.16 0.32 0.32 0.16 0.28 0.24 0.15 0.25 0.25 0.35 0.321429 0.107143 0.285714 0.285714 0.2 0.333333 0.266667 0.2 0.384615 0.346154 0.192308 0.07692300000000001 0.263158 0.105263 0.368421 0.263158 0.259259 0.185185 0.185185 0.37037 0.259259 0.148148 0.296296 0.296296 0.190476 0.380952 0.285714 0.142857 0.190476 0.238095 0.47619 0.095238 0.230769 0.153846 0.384615 0.230769 0.225806 0.193548 0.258065 0.322581 0.090909 0.363636 0.181818 0.363636 0.25 0.4 0.15 0.2 0.4 0.08 0.12 0.4 0.095238 0.380952 0.428571 0.095238 0.310345 0.241379 0.103448 0.344828 0.333333 0.238095 0.238095 0.190476 0.227273 0.272727 0.318182 0.181818 0.428571 0.142857 0.285714 0.142857 0.363636 0.227273 0.181818 0.227273 0.259259 0.259259 0.148148 0.333333 0.07142900000000001 0.357143 0.321429 0.25 0.083333 0.416667 0.208333 0.291667 0.068966 0.344828 0.344828 0.241379 0.130435 0.434783 0.08695700000000001 0.347826 0.275862 0.241379 0.137931 0.344828 0.28 0.36 0.12 0.24 0.230769 0.230769 0.153846 0.384615 0.172414 0.344828 0.344828 0.137931 0.190476 0.333333 0.190476 0.285714 0.230769 0.384615 0.230769 0.153846 0.238095 0.238095 0.142857 0.380952 0.16 0.4 0.08 0.36 0.214286 0.142857 0.285714 0.357143 0.30303 0.272727 0.121212 0.30303 0.296296 0.222222 0.185185 0.296296 0.47619 0.190476 0.095238 0.238095 0.5 0.111111 0.222222 0.166667 0.16 0.28 0.24 0.32 0.272727 0.272727 0.242424 0.212121 0.272727 0.272727 0.212121 0.242424 0.25 0.375 0.208333 0.166667 0.2 0.36 0.36 0.08 0.266667 0.333333 0.1 0.3 0.125 0.4375 0.25 0.1875 0.272727 0.227273 0.409091 0.090909 0.190476 0.333333 0.333333 0.142857 0.185185 0.185185 0.296296 0.333333 0.388889 0.333333 0.166667 0.111111 0.322581 0.258065 0.096774 0.322581 0.285714 0.321429 0.321429 0.07142900000000001 0.238095 0.190476 0.333333 0.238095 0.290323 0.322581 0.258065 0.129032 0.333333 0.444444 0.111111 0.111111 0.3125 0.25 0.3125 0.125 0.125 0.333333 0.166667 0.375 0.285714 0.142857 0.357143 0.214286 0.07142900000000001 0.285714 0.285714 0.357143 0.2 0.25 0.45 0.1 0.07692300000000001 0.307692 0.307692 0.307692 0.3125 0.1875 0.21875 0.28125 0.269231 0.115385 0.384615 0.230769 0.6 0.133333 0.133333 0.133333 0.368421 0.315789 0.210526 0.105263 0.153846 0.230769 0.269231 0.346154 0.25 0.291667 0.291667 0.166667 0.368421 0.368421 0.157895 0.105263 0.346154 0.307692 0.115385 0.230769 0.1875 0.125 0.5 0.1875 0.125 0.3125 0.3125 0.25 0.384615 0.115385 0.115385 0.384615 0.333333 0.333333 0.190476 0.142857 0.266667 0.266667 0.333333 0.133333 0.3125 0.15625 0.3125 0.21875 0.153846 0.230769 0.230769 0.384615 0.291667 0.25 0.291667 0.166667 0.214286 0.214286 0.357143 0.214286 0.1 0.4 0.25 0.25 0.222222 0.277778 0.25 0.25 0.241379 0.137931 0.310345 0.310345 0.4375 0.1875 0.25 0.125 0.1875 0.21875 0.28125 0.3125 0.133333 0.133333 0.266667 0.466667 0.266667 0.4 0.133333 0.2 0.28125 0.15625 0.3125 0.25 0.444444 0.111111 0.222222 0.222222 0.272727 0.151515 0.272727 0.30303 0.333333 0.111111 0.444444 0.111111 0.26087 0.173913 0.434783 0.130435 0.222222 0.222222 0.296296 0.259259 0.307692 0.07692300000000001 0.269231 0.346154 0.30303 0.212121 0.30303 0.181818 0.269231 0.115385 0.384615 0.230769 0.428571 0.333333 0.142857 0.095238 0.233333 0.2 0.233333 0.333333 0.117647 0.352941 0.176471 0.352941 0.347826 0.304348 0.173913 0.173913 0.105263 0.315789 0.473684 0.105263 0.129032 0.290323 0.290323 0.290323 0.24 0.24 0.12 0.4 0.333333 0.416667 0.083333 0.166667 0.230769 0.346154 0.153846 0.269231 0.192308 0.269231 0.153846 0.384615 0.375 0.25 0.166667 0.208333 0.125 0.25 0.208333 0.416667 0.151515 0.272727 0.30303 0.272727 0.24 0.2 0.24 0.32 0.157895 0.105263 0.315789 0.421053 0.36 0.2 0.32 0.12 0.206897 0.310345 0.172414 0.310345 0.3125 0.28125 0.15625 0.25 0.173913 0.217391 0.304348 0.304348 0.277778 0.166667 0.277778 0.277778 0.157895 0.210526 0.473684 0.157895 0.30303 0.212121 0.181818 0.30303 0.148148 0.333333 0.148148 0.37037 0.3 0.3 0.233333 0.166667 0.136364 0.272727 0.454545 0.136364 0.12 0.32 0.32 0.24 0.555556 0.111111 0.111111 0.222222 0.411765 0.176471 0.235294 0.176471 0.409091 0.136364 0.227273 0.227273 0.25 0.25 0.3 0.2 0.190476 0.238095 0.095238 0.47619 0.318182 0.181818 0.272727 0.227273 0.263158 0.473684 0.105263 0.157895 0.210526 0.526316 0.157895 0.105263 0.275862 0.310345 0.068966 0.344828 0.428571 0.095238 0.190476 0.285714 0.225806 0.16129 0.322581 0.290323 0.333333 0.333333 0.233333 0.1 0.357143 0.25 0.285714 0.107143 0.384615 0.192308 0.230769 0.192308 0.384615 0.307692 0.153846 0.153846 0.322581 0.129032 0.322581 0.225806 0.090909 0.272727 0.409091 0.227273 0.166667 0.277778 0.277778 0.277778 0.125 0.5 0.25 0.125 0.466667 0.133333 0.2 0.2 0.269231 0.192308 0.307692 0.230769 0.181818 0.272727 0.136364 0.409091 0.171429 0.285714 0.257143 0.285714 0.285714 0.142857 0.142857 0.428571 0.307692 0.230769 0.153846 0.307692 0.37037 0.185185 0.296296 0.148148 0.233333 0.333333 0.1 0.333333 0.227273 0.272727 0.409091 0.090909 0.333333 0.133333 0.233333 0.3 0.176471 0.117647 0.352941 0.352941 0.4 0.12 0.4 0.08 0.322581 0.322581 0.225806 0.129032 0.291667 0.208333 0.083333 0.416667 0.2 0.28 0.32 0.2 0.241379 0.241379 0.206897 0.310345 0.105263 0.105263 0.526316 0.263158 0.08695700000000001 0.26087 0.304348 0.347826 0.26087 0.173913 0.434783 0.130435 0.318182 0.409091 0.090909 0.181818 0.12 0.28 0.32 0.28 0.136364 0.272727 0.227273 0.363636 0.321429 0.214286 0.107143 0.357143 0.1875 0.25 0.3125 0.25 0.2 0.15 0.3 0.35 0.07142900000000001 0.25 0.321429 0.357143 0.217391 0.26087 0.130435 0.391304 0.111111 0.166667 0.5 0.222222 0.347826 0.08695700000000001 0.304348 0.26087 0.30303 0.30303 0.151515 0.242424 0.241379 0.137931 0.275862 0.344828 0.258065 0.225806 0.290323 0.225806 0.2 0.3 0.333333 0.166667 0.217391 0.434783 0.26087 0.08695700000000001 0.166667 0.222222 0.166667 0.444444 0.2 0.35 0.35 0.1 0.214286 0.357143 0.357143 0.07142900000000001 0.148148 0.296296 0.259259 0.296296 0.380952 0.142857 0.238095 0.238095 0.380952 0.190476 0.142857 0.285714 0.294118 0.470588 0.117647 0.117647 0.36 0.32 0.16 0.16 0.277778 0.222222 0.388889 0.111111 0.333333 0.222222 0.296296 0.148148 0.416667 0.25 0.083333 0.25 0.307692 0.153846 0.153846 0.384615 0.210526 0.157895 0.421053 0.210526 0.16 0.32 0.12 0.4 0.37037 0.185185 0.074074 0.37037 0.263158 0.263158 0.263158 0.210526 0.25 0.291667 0.125 0.333333 0.2 0.12 0.28 0.4 0.333333 0.333333 0.185185 0.148148 0.322581 0.064516 0.322581 0.290323 0.25 0.35 0.1 0.3 0.30303 0.181818 0.30303 0.212121 0.24 0.08 0.28 0.4 0.37037 0.222222 0.333333 0.074074 0.153846 0.269231 0.230769 0.346154 0.192308 0.384615 0.307692 0.115385 0.3 0.266667 0.166667 0.266667 0.130435 0.130435 0.434783 0.304348 0.333333 0.333333 0.2 0.133333 0.115385 0.346154 0.384615 0.153846 0.217391 0.304348 0.217391 0.26087 0.322581 0.322581 0.193548 0.16129 0.290323 0.129032 0.258065 0.322581 0.363636 0.181818 0.318182 0.136364 0.363636 0.272727 0.136364 0.227273 0.333333 0.266667 0.266667 0.133333 0.304348 0.391304 0.173913 0.130435 0.272727 0.272727 0.272727 0.181818 0.333333 0.190476 0.333333 0.142857 0.230769 0.153846 0.153846 0.461538 0.08 0.28 0.32 0.32 0.333333 0.375 0.166667 0.125 0.32 0.12 0.4 0.16 0.263158 0.105263 0.157895 0.473684 0.28125 0.3125 0.25 0.15625 0.4 0.2 0.133333 0.266667 0.384615 0.07692300000000001 0.346154 0.192308 0.333333 0.333333 0.074074 0.259259 0.090909 0.363636 0.363636 0.181818 0.225806 0.290323 0.16129 0.322581 0.1 0.35 0.4 0.15 0.333333 0.166667 0.166667 0.333333 0.25 0.166667 0.166667 0.416667 0.291667 0.333333 0.25 0.125 0.148148 0.222222 0.37037 0.259259 0.368421 0.421053 0.105263 0.105263 0.083333 0.291667 0.333333 0.291667 0.416667 0.333333 0.166667 0.083333 0.166667 0.25 0.416667 0.166667 0.375 0.291667 0.208333 0.125 0.16 0.36 0.24 0.24 0.357143 0.214286 0.214286 0.214286 0.333333 0.333333 0.190476 0.142857 0.266667 0.333333 0.266667 0.133333 0.333333 0.190476 0.285714 0.190476 0.35 0.2 0.35 0.1 0.36 0.12 0.16 0.36 0.2 0.1 0.5 0.2 0.1875 0.5 0.1875 0.125 0.176471 0.352941 0.176471 0.294118 0.08 0.24 0.4 0.28 0.095238 0.142857 0.333333 0.428571 0.242424 0.30303 0.272727 0.181818 0.166667 0.166667 0.416667 0.25 0.391304 0.173913 0.347826 0.08695700000000001 0.173913 0.391304 0.26087 0.173913 0.178571 0.142857 0.321429 0.357143 0.176471 0.294118 0.294118 0.235294 0.230769 0.192308 0.307692 0.269231 0.291667 0.083333 0.416667 0.208333 0.384615 0.230769 0.269231 0.115385 0.428571 0.142857 0.238095 0.190476 0.2 0.32 0.08 0.4 0.3 0.1 0.4 0.2 0.409091 0.090909 0.409091 0.090909 0.28 0.28 0.36 0.08 0.321429 0.214286 0.25 0.214286 0.266667 0.1 0.3 0.333333 0.153846 0.115385 0.384615 0.346154 0.263158 0.368421 0.105263 0.263158 0.222222 0.222222 0.222222 0.333333 0.3 0.1 0.4 0.2 0.238095 0.142857 0.238095 0.380952 0.4 0.2 0.133333 0.266667 0.344828 0.241379 0.344828 0.068966 0.206897 0.275862 0.206897 0.310345 0.210526 0.105263 0.263158 0.421053 0.275862 0.172414 0.206897 0.344828 0.310345 0.310345 0.206897 0.172414 0.105263 0.421053 0.315789 0.157895 0.434783 0.217391 0.08695700000000001 0.26087 0.137931 0.172414 0.344828 0.344828 0.259259 0.333333 0.074074 0.333333 0.37037 0.185185 0.259259 0.185185 0.263158 0.315789 0.157895 0.263158 0.307692 0.384615 0.115385 0.192308 0.190476 0.095238 0.428571 0.285714 0.225806 0.290323 0.193548 0.290323 0.409091 0.181818 0.136364 0.272727 0.26087 0.304348 0.217391 0.217391 0.107143 0.321429 0.285714 0.285714 0.285714 0.321429 0.07142900000000001 0.321429 0.230769 0.384615 0.269231 0.115385 0.275862 0.344828 0.241379 0.137931 0.321429 0.214286 0.285714 0.178571 0.083333 0.375 0.333333 0.208333 0.333333 0.185185 0.222222 0.259259 0.428571 0.142857 0.095238 0.333333 0.16 0.36 0.16 0.32 0.32 0.2 0.28 0.2 0.25 0.1 0.35 0.3 0.217391 0.26087 0.347826 0.173913 0.16 0.16 0.4 0.28 0.363636 0.090909 0.090909 0.454545 0.24 0.16 0.2 0.4 0.125 0.25 0.375 0.25 0.230769 0.192308 0.346154 0.230769 0.344828 0.137931 0.206897 0.310345 0.3 0.266667 0.2 0.233333 0.25 0.285714 0.357143 0.107143 0.375 0.1875 0.3125 0.125 0.363636 0.181818 0.227273 0.227273 0.233333 0.3 0.266667 0.2 0.181818 0.454545 0.136364 0.227273 0.12 0.28 0.4 0.2 0.1 0.25 0.35 0.3 0.35 0.2 0.35 0.1 0.291667 0.083333 0.291667 0.333333 0.1 0.4 0.1 0.4 0.238095 0.142857 0.428571 0.190476 0.090909 0.318182 0.181818 0.409091 0.321429 0.321429 0.178571 0.178571 0.172414 0.344828 0.206897 0.275862 0.173913 0.347826 0.26087 0.217391 0.3 0.3 0.266667 0.133333 0.1875 0.21875 0.3125 0.28125 0.242424 0.30303 0.151515 0.30303 0.230769 0.192308 0.384615 0.192308 0.227273 0.136364 0.181818 0.454545 0.416667 0.208333 0.166667 0.208333 0.322581 0.16129 0.322581 0.193548 0.1 0.25 0.5 0.15 0.3125 0.125 0.25 0.3125 0.375 0.375 0.166667 0.083333 0.344828 0.241379 0.344828 0.068966 0.222222 0.5 0.166667 0.111111 0.103448 0.275862 0.344828 0.275862 0.2 0.166667 0.333333 0.3 0.2 0.4 0.3 0.1 0.263158 0.315789 0.210526 0.210526 0.117647 0.235294 0.529412 0.117647 0.4 0.1 0.3 0.2 0.454545 0.181818 0.136364 0.227273 0.1 0.333333 0.3 0.266667 0.212121 0.242424 0.30303 0.242424 0.178571 0.214286 0.285714 0.321429 0.352941 0.117647 0.176471 0.352941 0.25 0.3125 0.125 0.3125 0.227273 0.454545 0.227273 0.090909 0.222222 0.296296 0.222222 0.259259 0.15 0.4 0.2 0.25 0.368421 0.157895 0.368421 0.105263 0.310345 0.103448 0.310345 0.275862 0.36 0.36 0.2 0.08 0.130435 0.217391 0.304348 0.347826 0.157895 0.105263 0.473684 0.263158 0.26087 0.26087 0.391304 0.08695700000000001 0.259259 0.222222 0.259259 0.259259 0.47619 0.285714 0.142857 0.095238 0.142857 0.428571 0.142857 0.285714 0.095238 0.47619 0.190476 0.238095 0.285714 0.228571 0.285714 0.2 0.136364 0.090909 0.318182 0.454545 0.333333 0.133333 0.4 0.133333 0.083333 0.25 0.375 0.291667 0.238095 0.095238 0.428571 0.238095 0.176471 0.176471 0.235294 0.411765 0.129032 