<?xml version="1.0" encoding="ISO-8859-1"?>
<smile version="1.0" id="munin" numsamples="10000" discsamples="10000">
	<nodes>
		<cpt id="R_LNLW_MED_SEV">
			<state id="NO" label="F677" />
			<state id="MILD" label="F678" />
			<state id="MOD" label="F679" />
			<state id="SEV" label="F680" />
			<state id="TOTAL" label="F681" />
			<probabilities>0.895 0.06 0.03 0.01 0.005000000000000001</probabilities>
		</cpt>
		<cpt id="R_LNLW_MED_PATHO">
			<state id="DEMY" label="F672" />
			<state id="BLOCK" label="F673" />
			<state id="AXONAL" label="F674" />
			<state id="V_E_REIN" label="F675" />
			<state id="E_REIN" label="F676" />
			<probabilities>0.8 0.12 0.07000000000000001 0.005000000000000001 0.005000000000000001</probabilities>
		</cpt>
		<cpt id="R_LNLW_MEDD2_DISP_WD">
			<state id="NO" label="F810" />
			<state id="MILD" label="F811" />
			<state id="MOD" label="F812" />
			<state id="SEV" label="F813" />
			<parents>R_LNLW_MED_SEV R_LNLW_MED_PATHO</parents>
			<probabilities>1 0 0 0 1 0 0 0 1 0 0 0 0 0 0 1 0 0 0 1 0 1 0 0 0.5 0.5 0 0 1 0 0 0 0 0 0 1 0 0 0 1 0 0 1 0 0 0.5 0.5 0 0.5 0.5 0 0 0 0 0 1 0 0 0 1 0 0 0 1 0 0.1 0.5 0.4 0.3 0.5 0.2 0 0 0 0 1 0 0 0 1 0 0 0 1 0 0 0.5 0.5 0 0.5 0.5 0 0 0 0 1 0 0 0 1</probabilities>
		</cpt>
		<cpt id="DIFFN_SEV">
			<state id="NO" label="F965" />
			<state id="MILD" label="F966" />
			<state id="MOD" label="F967" />
			<state id="SEV" label="F968" />
			<probabilities>0.9 0.05 0.03 0.02</probabilities>
		</cpt>
		<cpt id="DIFFN_TYPE">
			<state id="MOTOR" label="F962" />
			<state id="MIXED" label="F963" />
			<state id="SENS" label="F964" />
			<probabilities>0.06 0.9350000000000001 0.005000000000000001</probabilities>
		</cpt>
		<cpt id="DIFFN_SENS_SEV">
			<state id="NO" label="F954" />
			<state id="MILD" label="F955" />
			<state id="MOD" label="F956" />
			<state id="SEV" label="F957" />
			<parents>DIFFN_SEV DIFFN_TYPE</parents>
			<probabilities>1 0 0 0 1 0 0 0 1 0 0 0 1 0 0 0 0 1 0 0 0 1 0 0 1 0 0 0 0 0 1 0 0 0 1 0 1 0 0 0 0 0 0 1 0 0 0 1</probabilities>
		</cpt>
		<cpt id="DIFFN_DISTR">
			<state id="DIST" label="F951" />
			<state id="PROX" label="F952" />
			<state id="RANDOM" label="F953" />
			<probabilities>0.93 0.02 0.05</probabilities>
		</cpt>
		<cpt id="DIFFN_S_SEV_DIST">
			<state id="NO" label="F909" />
			<state id="MILD" label="F910" />
			<state id="MOD" label="F911" />
			<state id="SEV" label="F912" />
			<parents>DIFFN_SENS_SEV DIFFN_DISTR</parents>
			<probabilities>1 0 0 0 1 0 0 0 1 0 0 0 0 1 0 0 1 0 0 0 0.25 0.45 0.25 0.05 0 0 1 0 0.5 0.5 0 0 0.1 0.4 0.4 0.1 0 0 0 1 0 0.5 0.5 0 0.05 0.15 0.4 0.4</probabilities>
		</cpt>
		<cpt id="DIFFN_PATHO">
			<state id="DEMY" label="F904" />
			<state id="BLOCK" label="F905" />
			<state id="AXONAL" label="F906" />
			<state id="V_E_REIN" label="F907" />
			<state id="E_REIN" label="F908" />
			<probabilities>0.08599999999999999 0.01 0.9 0.002 0.002</probabilities>
		</cpt>
		<cpt id="R_DIFFN_MEDD2_DISP">
			<state id="NO" label="F558" />
			<state id="MILD" label="F559" />
			<state id="MOD" label="F560" />
			<state id="SEV" label="F561" />
			<parents>DIFFN_S_SEV_DIST DIFFN_PATHO</parents>
			<probabilities>1 0 0 0 1 0 0 0 1 0 0 0 0 0 0 1 0 0 0 1 0 1 0 0 0.5 0.5 0 0 1 0 0 0 0 0 0 1 0 0 0 1 0 0 1 0 0 0.5 0.5 0 0.5 0.5 0 0 0 0 0 1 0 0 0 1 0 0 0 1 0 0.1 0.5 0.4 0 0.5 0.5 0 0 0 0 1 0 0 0 1</probabilities>
		</cpt>
		<cpt id="R_DIFFN_LNLW_MEDD2_DISP_WD">
			<state id="NO" label="F593" />
			<state id="MILD" label="F594" />
			<state id="MOD" label="F595" />
			<state id="SEV" label="F596" />
			<parents>R_LNLW_MEDD2_DISP_WD R_DIFFN_MEDD2_DISP</parents>
			<probabilities>1 0 0 0 0.07489999999999999 0.8229 0.1022 0 0 0.06260626 0.93739374 0 0 0 0 1 0.07489999999999999 0.8229 0.1022 0 0.0047 0.1786 0.8167 0 0 0.019 0.9795 0.0015 0 0 0 1 0 0.06260626 0.93739374 0 0 0.019 0.9795 0.0015 0 0.0001 0.0833 0.9166 0 0 0 1 0 0 0 1 0 0 0 1 0 0 0 1 0 0 0 1</probabilities>
		</cpt>
		<cpt id="R_MEDD2_DISP_WD">
			<state id="NO" label="F428" />
			<state id="MILD" label="F429" />
			<state id="MOD" label="F430" />
			<state id="SEV" label="F431" />
			<parents>R_DIFFN_LNLW_MEDD2_DISP_WD</parents>
			<probabilities>1 0 0 0 0 1 0 0 0 0 1 0 0 0 0 1</probabilities>
		</cpt>
		<cpt id="R_LNLBE_MEDD2_DISP_EW">
			<state id="NO" label="F554" />
			<state id="MILD" label="F555" />
			<state id="MOD" label="F556" />
			<state id="SEV" label="F557" />
			<probabilities>1 0 0 0</probabilities>
		</cpt>
		<cpt id="R_MEDD2_DISP_EW">
			<state id="NO" label="F424" />
			<state id="MILD" label="F425" />
			<state id="MOD" label="F426" />
			<state id="SEV" label="F427" />
			<parents>R_DIFFN_MEDD2_DISP R_LNLBE_MEDD2_DISP_EW</parents>
			<probabilities>1 0 0 0 0.07489999999999999 0.8229 0.1022 0 0 0.06260626 0.93739374 0 0 0.007900790000000001 0.60286029 0.38923892 0.07489999999999999 0.8229 0.1022 0 0.0047 0.1786 0.8167 0 0 0.019 0.9795 0.0015 0 0.0001 0.006900000000000001 0.993 0 0.06260626 0.93739374 0 0 0.019 0.9795 0.0015 0 0.0001 0.0833 0.9166 0 0 0 1 0 0.007900790000000001 0.60286029 0.38923892 0 0.0001 0.006900000000000001 0.993 0 0 0 1 0 0 0 1</probabilities>
		</cpt>
		<cpt id="R_MEDD2_DISP_EWD">
			<state id="R0_15" label="F30" />
			<state id="R0_25" label="F31" />
			<state id="R0_35" label="F32" />
			<state id="R0_45" label="F33" />
			<state id="R0_55" label="F34" />
			<state id="R0_65" label="F35" />
			<state id="R0_75" label="F36" />
			<state id="R0_85" label="F37" />
			<state id="R0_95" label="F38" />
			<parents>R_MEDD2_DISP_WD R_MEDD2_DISP_EW</parents>
			<probabilities>0 0 0.0742 0.9045 0.0213 0 0 0 0 0.0001 0.2215 0.7732 0.0052 0 0 0 0 0 0.1315 0.8577 0.0108 0 0 0 0 0 0 0.9933 0.006700000000000001 0 0 0 0 0 0 0 0 0 0 0 0.0742 0.9045 0.0213 0 0 0 0 0 0.13151315 0.85768577 0.01080108 0 0 0 0 0 0.0742 0.9045 0.0213 0 0 0 0 0.0404 0.9192 0.0404 0 0 0 0 0 0 0 0 0 0 0 0 0 0.133 0.867 0 0 0 0 0 0 0.0108 0.8577 0.1315 0 0 0 0 0 0.0052 0.7732 0.2215 0.0001 0 0 0.0213 0.9045 0.0742 0 0 0 0 0 0 0 0 0 0 0 0.133 0.867 0 0 0 0 0 0 0.0108 0.8577 0.1315 0 0 0 0 0 0.0052 0.7732 0.2215 0.0001 0 0 0.0213 0.9045 0.0742 0 0 0 0</probabilities>
		</cpt>
		<cpt id="R_DIFFN_MEDD2_BLOCK">
			<state id="NO" label="F567" />
			<state id="MILD" label="F568" />
			<state id="MOD" label="F569" />
			<state id="SEV" label="F570" />
			<state id="TOTAL" label="F571" />
			<parents>DIFFN_S_SEV_DIST DIFFN_PATHO</parents>
			<probabilities>1 0 0 0 0 1 0 0 0 0 1 0 0 0 0 1 0 0 0 0 1 0 0 0 0 0.8 0.2 0 0 0 0.2 0.5 0.3 0 0 1 0 0 0 0 1 0 0 0 0 1 0 0 0 0 0.6 0.4 0 0 0 0 0.2 0.5 0.3 0 1 0 0 0 0 1 0 0 0 0 1 0 0 0 0 0.25 0.5 0.25 0 0 0 0 0.4 0.5 0.1 1 0 0 0 0 1 0 0 0 0 1 0 0 0 0</probabilities>
		</cpt>
		<cpt id="R_LNLBE_MEDD2_BLOCK_EW">
			<state id="NO" label="F562" />
			<state id="MILD" label="F563" />
			<state id="MOD" label="F564" />
			<state id="SEV" label="F565" />
			<state id="TOTAL" label="F566" />
			<probabilities>1 0 0 0 0</probabilities>
		</cpt>
		<cpt id="R_MEDD2_BLOCK_EW">
			<state id="NO" label="F25" />
			<state id="MILD" label="F26" />
			<state id="MOD" label="F27" />
			<state id="SEV" label="F28" />
			<state id="TOTAL" label="F29" />
			<parents>R_DIFFN_MEDD2_BLOCK R_LNLBE_MEDD2_BLOCK_EW</parents>
			<probabilities>1 0 0 0 0 0.0077 0.9923 0 0 0 0.0007000000000000001 0.0234 0.9759 0 0 0.0019 0.006 0.0588 0.9333 0 0 0 0 0 1 0.0077 0.9923 0 0 0 0.0001 0.498 0.5019 0 0 0 0.0032 0.9968 0 0 0.001 0.0033 0.0376 0.9581 0 0 0 0 0 1 0.0007000000000000001 0.0234 0.9759 0 0 0 0.0032 0.9968 0 0 0 0.0007000000000000001 0.4328 0.5665 0 0.0003 0.0011 0.0159 0.9827 0 0 0 0 0 1 0.0019 0.006 0.0588 0.9333 0 0.001 0.0033 0.0376 0.9581 0 0.0003 0.0011 0.0159 0.9827 0 0.00030003 0.00110011 0.01250125 0.98609861 0 0 0 0 0 1 0 0 0 0 1 0 0 0 0 1 0 0 0 0 1 0 0 0 0 1 0 0 0 0 1</probabilities>
		</cpt>
		<cpt id="R_MEDD2_AMPR_EW">
			<state id="R0_0" label="F13" />
			<state id="R0_1" label="F14" />
			<state id="R0_2" label="F15" />
			<state id="R0_3" label="F16" />
			<state id="R0_4" label="F17" />
			<state id="R0_5" label="F18" />
			<state id="R0_6" label="F19" />
			<state id="R0_7" label="F20" />
			<state id="R0_8" label="F21" />
			<state id="R0_9" label="F22" />
			<state id="R1_0" label="F23" />
			<state id="R_1_1" label="F24" />
			<parents>R_MEDD2_DISP_EWD R_MEDD2_BLOCK_EW</parents>
			<probabilities>0 0.28267173 0.71642836 0.0008999100000000002 0 0 0 0 0 0 0 0 0 0.9103 0.0897 0 0 0 0 0 0 0 0 0 0 0.9974 0.0026 0 0 0 0 0 0 0 0 0 0 0.94670533 0.04919508 0.00349965 0.0004999500000000002 9.999e-05 0 0 0 0 0 0 1 0 0 0 0 0 0 0 0 0 0 0 0 0 0.5547 0.4268 0.0183 0.0002 0 0 0 0 0 0 0 0.0004 0.8945 0.1036 0.0015 0 0 0 0 0 0 0 0 0.3856 0.6048 0.009500000000000001 0.0001 0 0 0 0 0 0 0 0 0.87211279 0.1109889 0.01349865 0.00249975 0.0005999400000000002 0.00019998 9.999e-05 0 0 0 0 1 0 0 0 0 0 0 0 0 0 0 0 0 0 0.009000899999999999 0.51275128 0.41524152 0.05890589 0.00390039 0.00020002 0 0 0 0 0 0 0.1140114 0.7169717 0.15981598 0.00890089 0.00030003 0 0 0 0 0 0 0.0073 0.8191000000000001 0.1638 0.009500000000000001 0.0003 0 0 0 0 0 0 0 0.77825565 0.18013603 0.03120624 0.0075015 0.0020004 0.0006001200000000002 0.00020004 0.00010002 0 0 0 1 0 0 0 0 0 0 0 0 0 0 0 0 0 0 0.0635 0.4459 0.3732 0.09950000000000001 0.0162 0.0015 0.0002 0 0 0 0 0.0026 0.3111 0.5155 0.1499 0.019 0.0018 0.0001 0 0 0 0 0.0001 0.386 0.4993 0.1036 0.0101 0.0008 0.0001 0 0 0 0 0 0.678 0.2436 0.0548 0.0156 0.005000000000000001 0.0018 0.0007000000000000001 0.0003 0.0001 0.0001 0 1 0 0 0 0 0 0 0 0 0 0 0 0 0 0 0.00290029 0.11411141 0.39513951 0.31983198 0.13151315 0.02980298 0.005800580000000001 0.0009000900000000001 0 0 0 0 0.0451 0.3717 0.4039 0.1433 0.0313 0.0041 0.0005000000000000001 0.0001 0 0 0 0.09130000000000001 0.5259 0.3027 0.06809999999999999 0.0104 0.0014 0.0002 0 0 0 0 0.5789 0.2957 0.082 0.027 0.009599999999999999 0.0037 0.0017 0.0007000000000000001 0.0004 0.0002 0.0001 1 0 0 0 0 0 0 0 0 0 0 0 0 0 0 0.0001 0.0136 0.1578 0.3285 0.2966 0.1404 0.0483 0.0135 0.0012 0 0 0 0.003500000000000001 0.1122 0.3738 0.3186 0.1444 0.0376 0.0083 0.0015 0.0001 0 0 0.0149985 0.30686931 0.42035796 0.19288071 0.05119488 0.01139886 0.00189981 0.00029997 9.999e-05 0 0 0.485 0.334 0.1106 0.0411 0.0162 0.006800000000000001 0.0033 0.0015 0.0008 0.0004 0.0003 1 0 0 0 0 0 0 0 0 0 0 0 0 0 0 0 0.00120024 0.0385077 0.17463493 0.30156031 0.26135227 0.14472895 0.06511301999999999 0.01290258 0 0 0 0.00020002 0.02260226 0.1890189 0.33173317 0.27442744 0.12521252 0.04310431 0.01240124 0.00130013 0 0 0.0023 0.1333 0.3728 0.3075 0.1292 0.0421 0.009900000000000001 0.0024 0.0005000000000000001 0 0 0.40484048 0.35663566 0.13671367 0.05620562 0.0240024 0.01080108 0.005400540000000001 0.00270027 0.00140014 0.0008000800000000001 0.00050005 1 0 0 0 0 0 0 0 0 0 0 0 0 0 0 0 0.0001 0.006200000000000002 0.058 0.1828 0.2779 0.2392 0.1675 0.0683 0 0 0 0 0.00310031 0.06150615 0.21092109 0.30513051 0.23442344 0.12171217 0.05280528 0.01040104 0 0 0.00030003 0.04440444 0.24132413 0.34313431 0.22082208 0.10251025 0.03370337 0.01040104 0.0030003 0.0004000400000000002 0 0.33163367 0.36712657 0.16126775 0.07268545999999999 0.0334933 0.0159968 0.0084983 0.00439912 0.002399520000000001 0.0014997 0.0009998000000000001 1 0 0 0 0 0 0 0 0 0 0 0 0 0 0 0 0 0.0009 0.0157 0.0823 0.2012 0.2516 0.2559 0.1924 0 0 0 0 0.0004 0.0166 0.1002 0.2325 0.2777 0.2039 0.1251 0.0436 0 0 0 0.0138 0.1311 0.2956 0.2729 0.1711 0.0745 0.0286 0.0104 0.002 0 0.2731 0.3669 0.1808 0.0881 0.0434 0.0217 0.012 0.0064 0.0036 0.0023 0.0017 1 0 0 0 0 0 0 0 0 0 0 0</probabilities>
		</cpt>
		<cpt id="R_LNLBE_MEDD2_LD_EW">
			<state id="NO" label="F572" />
			<state id="MILD" label="F573" />
			<state id="MOD" label="F574" />
			<state id="SEV" label="F575" />
			<probabilities>1 0 0 0</probabilities>
		</cpt>
		<cpt id="R_MEDD2_LD_EW">
			<state id="NO" label="F498" />
			<state id="MILD" label="F499" />
			<state id="MOD" label="F500" />
			<state id="SEV" label="F501" />
			<parents>R_LNLBE_MEDD2_LD_EW</parents>
			<probabilities>1 0 0 0 0 1 0 0 0 0 1 0 0 0 0 1</probabilities>
		</cpt>
		<cpt id="R_LNLBE_MEDD2_RD_EW">
			<state id="NO" label="F576" />
			<state id="MOD" label="F577" />
			<state id="SEV" label="F578" />
			<probabilities>1 0 0</probabilities>
		</cpt>
		<cpt id="R_MEDD2_RD_EW">
			<state id="NO" label="F495" />
			<state id="MOD" label="F496" />
			<state id="SEV" label="F497" />
			<parents>R_LNLBE_MEDD2_RD_EW</parents>
			<probabilities>1 0 0 0 1 0 0 0 1</probabilities>
		</cpt>
		<cpt id="R_MEDD2_LSLOW_EW">
			<state id="NO" label="F460" />
			<state id="MILD" label="F461" />
			<state id="MOD" label="F462" />
			<state id="SEV" label="F463" />
			<state id="V_SEV" label="F464" />
			<parents>R_MEDD2_LD_EW R_MEDD2_RD_EW</parents>
			<probabilities>1 0 0 0 0 0.00840084 0.01190119 0.06190619 0.91739174 0.0004000400000000002 0.005299470000000001 0.006199380000000001 0.02639736 0.20817918 0.75392461 0.0185 0.9560999999999999 0.0254 0 0 0.00690069 0.010001 0.05350535 0.92869287 0.0009000900000000001 0.004900000000000002 0.0057 0.0244 0.1966 0.7684 0 0.0166 0.9834000000000001 0 0 0.005599440000000001 0.00829917 0.04519548 0.93890611 0.0019998 0.00440044 0.00520052 0.02240224 0.18391839 0.78407841 0.0007000000000000001 0.002 0.0219 0.9754 0 0.0023 0.0036 0.0217 0.8326 0.1398 0.0028 0.0033 0.0145 0.1304 0.849</probabilities>
		</cpt>
		<cpt id="R_LNLW_MEDD2_SALOSS_WD">
			<state id="NO" label="F805" />
			<state id="MILD" label="F806" />
			<state id="MOD" label="F807" />
			<state id="SEV" label="F808" />
			<state id="TOTAL" label="F809" />
			<parents>R_LNLW_MED_SEV R_LNLW_MED_PATHO</parents>
			<probabilities>1 0 0 0 0 1 0 0 0 0 1 0 0 0 0 0 0 0 1 0 0 0 0.5 0.5 0 0.5 0.5 0 0 0 0.5 0.5 0 0 0 0 1 0 0 0 0 0 0 1 0 0 0 0.5 0.5 0 0 0.5 0.5 0 0 0.2 0.5 0.3 0 0 0 0 1 0 0 0 0 0 1 0 0 0 0.5 0.5 0 0 0 0.5 0.5 0 0 0.2 0.5 0.3 0 0 0 0 1 0 0 0 0 1 0 0 0 0.5 0.5 0 0 0 0 0.4 0.6 0 0.1 0.4 0.4 0.1 0 0 0 0 1 0 0 0 1 0 0 0 0.5 0.5 0</probabilities>
		</cpt>
		<cpt id="R_DIFFN_MEDD2_SALOSS">
			<state id="NO" label="F800" />
			<state id="MILD" label="F801" />
			<state id="MOD" label="F802" />
			<state id="SEV" label="F803" />
			<state id="TOTAL" label="F804" />
			<parents>DIFFN_S_SEV_DIST DIFFN_PATHO</parents>
			<probabilities>1 0 0 0 0 1 0 0 0 0 1 0 0 0 0 0 0 0 1 0 0 0 0.5 0.5 0 0.5 0.5 0 0 0 0.5 0.5 0 0 0 0 1 0 0 0 0 0 0 1 0 0 0 0.5 0.5 0 0 0.5 0.5 0 0 0.4 0.3 0.3 0 0 0 0 1 0 0 0 0 0 1 0 0 0 0.5 0.5 0 0 0 0 0.7 0.3 0 0.3 0.5 0.2 0 0 0 0 0.7 0.3 0 0 0 1 0 0 0 0.5 0.5 0</probabilities>
		</cpt>
		<cpt id="R_DIFFN_LNLW_MEDD2_SALOSS">
			<state id="NO" label="F588" />
			<state id="MILD" label="F589" />
			<state id="MOD" label="F590" />
			<state id="SEV" label="F591" />
			<state id="TOTAL" label="F592" />
			<parents>R_LNLW_MEDD2_SALOSS_WD R_DIFFN_MEDD2_SALOSS</parents>
			<probabilities>1 0 0 0 0 0.0073 0.9812 0.0115 0 0 0.0017 0.1306 0.867 0.0007000000000000001 0 0 0.0003 0.0212 0.9785 0 0 0 0 0 1 0.0073 0.9812 0.0115 0 0 0 0.0289 0.9711 0 0 0 0.0097 0.5989 0.3914 0 0 0 0.0017 0.9983 0 0 0 0 0 1 0.0017 0.1306 0.867 0.0007000000000000001 0 0 0.0097 0.5989 0.3914 0 0 0.0004999500000000002 0.03309669 0.96640336 0 0 0 0.0008 0.9992 0 0 0 0 0 1 0 0.0003 0.0212 0.9785 0 0 0 0.0017 0.9983 0 0 0 0.0008 0.9992 0 0 0 0.0001 0.9999 0 0 0 0 0 1 0 0 0 0 1 0 0 0 0 1 0 0 0 0 1 0 0 0 0 1 0 0 0 0 1</probabilities>
		</cpt>
		<cpt id="R_LNLBE_MEDD2_SALOSS_EW">
			<state id="NO" label="F583" />
			<state id="MILD" label="F584" />
			<state id="MOD" label="F585" />
			<state id="SEV" label="F586" />
			<state id="TOTAL" label="F587" />
			<probabilities>1 0 0 0 0</probabilities>
		</cpt>
		<cpt id="R_MEDD2_SALOSS">
			<state id="NO" label="F506" />
			<state id="MILD" label="F507" />
			<state id="MOD" label="F508" />
			<state id="SEV" label="F509" />
			<state id="TOTAL" label="F510" />
			<parents>R_DIFFN_LNLW_MEDD2_SALOSS R_LNLBE_MEDD2_SALOSS_EW</parents>
			<probabilities>1 0 0 0 0 0.0073 0.9812 0.0115 0 0 0.0017 0.1306 0.867 0.0007000000000000001 0 0 0.0003 0.0212 0.9785 0 0 0 0 0 1 0.0073 0.9812 0.0115 0 0 0 0.0289 0.9711 0 0 0 0.0097 0.5989 0.3914 0 0 0 0.0017 0.9983 0 0 0 0 0 1 0.0017 0.1306 0.867 0.0007000000000000001 0 0 0.0097 0.5989 0.3914 0 0 0.0004999500000000002 0.03309669 0.96640336 0 0 0 0.0008 0.9992 0 0 0 0 0 1 0 0.0003 0.0212 0.9785 0 0 0 0.0017 0.9983 0 0 0 0.0008 0.9992 0 0 0 0.0001 0.9999 0 0 0 0 0 1 0 0 0 0 1 0 0 0 0 1 0 0 0 0 1 0 0 0 0 1 0 0 0 0 1</probabilities>
		</cpt>
		<cpt id="R_DIFFN_MEDD2_DIFSLOW">
			<state id="NO" label="F579" />
			<state id="MILD" label="F580" />
			<state id="MOD" label="F581" />
			<state id="SEV" label="F582" />
			<parents>DIFFN_S_SEV_DIST DIFFN_PATHO</parents>
			<probabilities>1 0 0 0 1 0 0 0 1 0 0 0 0 0 0 1 0 0 0.7 0.3 0 0.5 0.5 0 0.5 0.5 0 0 1 0 0 0 0 0 0 1 0 0 0.7 0.3 0 0.2 0.6 0.2 0.2 0.4 0.3 0.1 1 0 0 0 0 0 0 1 0 0 0.7 0.3 0 0.1 0.6 0.3 0.2 0.4 0.3 0.1 1 0 0 0 0 0 0 1 0 0 0.7 0.3</probabilities>
		</cpt>
		<cpt id="R_MEDD2_DIFSLOW_EW">
			<state id="NO" label="F502" />
			<state id="MILD" label="F503" />
			<state id="MOD" label="F504" />
			<state id="SEV" label="F505" />
			<parents>R_DIFFN_MEDD2_DIFSLOW</parents>
			<probabilities>1 0 0 0 0 1 0 0 0 0 1 0 0 0 0 1</probabilities>
		</cpt>
		<cpt id="R_MEDD2_DSLOW_EW">
			<state id="M_S60" label="F451" />
			<state id="M_S52" label="F452" />
			<state id="M_S44" label="F453" />
			<state id="M_S36" label="F454" />
			<state id="M_S28" label="F455" />
			<state id="M_S20" label="F456" />
			<state id="M_S14" label="F457" />
			<state id="M_S08" label="F458" />
			<state id="M_S00" label="F459" />
			<parents>R_MEDD2_SALOSS R_MEDD2_DIFSLOW_EW</parents>
			<probabilities>1 0 0 0 0 0 0 0 0 0.0532 0.2387 0.495 0.2072 0.0059 0 0 0 0 0.0007000000000000001 0.0063 0.0614 0.3006 0.5524 0.0781 0.0005000000000000001 0 0 0.0003 0.0011 0.005000000000000001 0.0205 0.08699999999999999 0.2822 0.4514 0.1525 0 0.1036 0.8964 0 0 0 0 0 0 0 0.01780178 0.1190119 0.44814481 0.38543854 0.02960296 0 0 0 0 0.0002 0.0021 0.0283 0.1995 0.5939 0.1737 0.0023 0 0 0.0002 0.0006000000000000003 0.0029 0.0133 0.0634 0.2436 0.4657 0.2103 0 0.0005999400000000002 0.99730027 0.00209979 0 0 0 0 0 0 0.0048 0.0476 0.3148 0.5311 0.1016 0.0001 0 0 0 0 0.00060006 0.01140114 0.11471147 0.54455446 0.31963196 0.00910091 0 0 0.00010001 0.00030003 0.00170017 0.00830083 0.04470447 0.20312031 0.46324632 0.27852785 0 0.0001 0.0629 0.9278 0.0092 0 0 0 0 0 0.00060006 0.00920092 0.1160116 0.48574857 0.38353835 0.00490049 0 0 0 0 0.00010001 0.00240024 0.03740374 0.33273327 0.56705671 0.06030603 0 0 0 0.00010001 0.0007000700000000002 0.00380038 0.02430243 0.14161416 0.4240424 0.40544054 0 0 0 0 0 0 0 0 0 1 0 0 0 0 0 0 0 0 1 0 0 0 0 0 0 0 0 1 0 0 0 0 0 0 0 0 1</probabilities>
		</cpt>
		<cpt id="R_MEDD2_ALLCV_EW">
			<state id="M_S60" label="F67" />
			<state id="M_S52" label="F68" />
			<state id="M_S44" label="F69" />
			<state id="M_S36" label="F70" />
			<state id="M_S28" label="F71" />
			<state id="M_S20" label="F72" />
			<state id="M_S14" label="F73" />
			<state id="M_S08" label="F74" />
			<state id="M_S00" label="F75" />
			<parents>R_MEDD2_LSLOW_EW R_MEDD2_DSLOW_EW</parents>
			<probabilities>1 0 0 0 0 0 0 0 0 0.03049695 0.96720328 0.00229977 0 0 0 0 0 0 0.00039996 0.06189381 0.8881111900000001 0.04959504 0 0 0 0 0 0 0.0001 0.0655 0.9082 0.0262 0 0 0 0 0 0 0.0001 0.0555 0.9370000000000001 0.0074 0 0 0 0 0 0 0.0002 0.0491 0.8863 0.0644 0 0 0 0 0 0 0.00029997 0.09559044 0.89661034 0.007499250000000001 0 0.00020002 0.00060006 0.00190019 0.006400640000000001 0.02470247 0.09740973999999999 0.28552855 0.58325833 0 0 0 0 0 0 0 0 0 1 0.0264 0.9149 0.0587 0 0 0 0 0 0 0.0006000000000000003 0.0944 0.8841 0.0209 0 0 0 0 0 0 0.0018 0.1956 0.786 0.0166 0 0 0 0 0 0 0.0026 0.2655 0.7316 0.0003 0 0 0 0 0 0 0.0044 0.5355 0.46 0.0001 0 0 0 0 0 0 0.0047 0.5053 0.49 0 0 0 0 0 0 0 0.0218 0.8352000000000001 0.143 0 0.0001 0.0003 0.001 0.0036 0.0154 0.0712 0.2467 0.6617 0 0 0 0 0 0 0 0 0 1 0 0.0218 0.9469 0.0313 0 0 0 0 0 0 0.0007000000000000001 0.2183 0.779 0.002 0 0 0 0 0 0 0.0077 0.4577 0.5345 0.0001 0 0 0 0 0 0 0.0166 0.9182 0.06519999999999999 0 0 0 0 0 0 0 0.0398 0.946 0.0142 0 0 0 0 0 0 0.0002 0.1104 0.8881 0.0013 0 0 0 0 0 0 0.002 0.3203 0.6777 0 0 0.00010001 0.00050005 0.00190019 0.009300930000000001 0.05040504 0.20722072 0.73057306 0 0 0 0 0 0 0 0 0 1 0.00030003 0.00190019 0.0140014 0.07880788 0.32383238 0.45964596 0.12121212 0.00030003 0 9.999e-05 0.00039996 0.00429957 0.03209679 0.19558044 0.5048495200000001 0.26037396 0.00229977 0 0 0.0001 0.0007000000000000001 0.0074 0.0735 0.4044 0.4938 0.0201 0 0 0 0.0001 0.001 0.0172 0.2179 0.6479 0.1159 0 0 0 0 9.999e-05 0.00179982 0.05589441 0.46005399 0.48215178 0 0 0 0 0 0.0001 0.0041 0.1033 0.8925 0 0 0 0 0 0 0.0003 0.0194 0.9802999999999999 0 0 0 0.0001 0.0004 0.0026 0.019 0.1153 0.8626 0 0 0 0 0 0 0 0 0 1 0 0 0.00010001 0.00050005 0.004100410000000001 0.03840384 0.21452145 0.74237424 0 0 0 0 0.00020002 0.00210021 0.02390239 0.16481648 0.8089809 0 0 0 0 0.0001 0.0008 0.0123 0.1119 0.8749 0 0 0 0 0 0.0003 0.005500000000000001 0.0699 0.9243 0 0 0 0 0 0.0001 0.0021 0.039 0.9588 0 0 0 0 0 0 0.0006999300000000002 0.01889811 0.98040196 0 0 0 0 0 0 0.0002 0.009299999999999999 0.9905 0 0 0 0 0.0001 0.0006000000000000003 0.006200000000000002 0.0562 0.9369 0 0 0 0 0 0 0 0 0 1</probabilities>
		</cpt>
		<cpt id="R_MEDD2_CV_EW">
			<state id="M_S00" label="F47" />
			<state id="M_S04" label="F48" />
			<state id="M_S08" label="F49" />
			<state id="M_S12" label="F50" />
			<state id="M_S16" label="F51" />
			<state id="M_S20" label="F52" />
			<state id="M_S24" label="F53" />
			<state id="M_S28" label="F54" />
			<state id="M_S32" label="F55" />
			<state id="M_S36" label="F56" />
			<state id="M_S40" label="F57" />
			<state id="M_S44" label="F58" />
			<state id="M_S48" label="F59" />
			<state id="M_S52" label="F60" />
			<state id="M_S56" label="F61" />
			<state id="M_S60" label="F62" />
			<state id="M_S64" label="F63" />
			<state id="M_S68" label="F64" />
			<state id="M_S72" label="F65" />
			<state id="M_S_76" label="F66" />
			<parents>R_MEDD2_ALLCV_EW</parents>
			<probabilities>0 0 0 0 0 0 0 0 0 0 0 0 0.0012 0.0172 0.1126 0.2484 0.321 0.1935 0.0803 0.0258 0 0 0 0 0 0 0 0 0 0 0.0009999000000000004 0.01489851 0.09959004 0.22617738 0.29337066 0.22617738 0.1019898 0.02889711 0.00649935 0.00139986 0 0 0 0 0 0 0 0 0.00250025 0.03170317 0.14451445 0.26392639 0.29252925 0.1670167 0.06690669 0.02450245 0.005400540000000001 0.0009000900000000001 0.00010001 0 0 0 0 0 0 0 0.0005000000000000001 0.0189 0.1567 0.3371 0.2862 0.1429 0.0465 0.009500000000000001 0.0014 0.0003 0 0 0 0 0 0 0 0 0 0.01049895 0.15648435 0.37786221 0.30066993 0.12518748 0.02449755 0.004199580000000001 0.0004999500000000002 9.999e-05 0 0 0 0 0 0 0 0 0 0.0045 0.1674 0.4536 0.2834 0.0774 0.0118 0.0017 0.0002 0 0 0 0 0 0 0 0 0 0 0 0.01090109 0.42284228 0.44464446 0.10661066 0.01370137 0.00120012 0.00010001 0 0 0 0 0 0 0 0 0 0 0 0 0.0199 0.8041 0.1629 0.0125 0.0006000000000000003 0 0 0 0 0 0 0 0 0 0 0 0 0 0 1 0 0 0 0 0 0 0 0 0 0 0 0 0 0 0 0 0 0 0</probabilities>
		</cpt>
		<cpt id="R_LNLW_MEDD2_BLOCK_WD">
			<state id="NO" label="F597" />
			<state id="MILD" label="F598" />
			<state id="MOD" label="F599" />
			<state id="SEV" label="F600" />
			<state id="TOTAL" label="F601" />
			<parents>R_LNLW_MED_SEV R_LNLW_MED_PATHO</parents>
			<probabilities>1 0 0 0 0 1 0 0 0 0 1 0 0 0 0 1 0 0 0 0 1 0 0 0 0 0.8 0.2 0 0 0 0 0.5 0.5 0 0 1 0 0 0 0 1 0 0 0 0 1 0 0 0 0 0.3 0.6 0.1 0 0 0 0 0.5 0.5 0 1 0 0 0 0 1 0 0 0 0 1 0 0 0 0 0.1 0.5 0.3 0.1 0 0 0 0.2 0.6 0.2 1 0 0 0 0 1 0 0 0 0 1 0 0 0 0 0 0.05 0.2 0.55 0.2 0 0 0 0 1 1 0 0 0 0 1 0 0 0 0 1 0 0 0 0</probabilities>
		</cpt>
		<cpt id="R_MEDD2_BLOCK_WD">
			<state id="NO" label="F511" />
			<state id="MILD" label="F512" />
			<state id="MOD" label="F513" />
			<state id="SEV" label="F514" />
			<state id="TOTAL" label="F515" />
			<parents>R_LNLW_MEDD2_BLOCK_WD R_DIFFN_MEDD2_BLOCK</parents>
			<probabilities>1 0 0 0 0 0.0077 0.9923 0 0 0 0.0007000000000000001 0.0234 0.9759 0 0 0.0019 0.006 0.0588 0.9333 0 0 0 0 0 1 0.0077 0.9923 0 0 0 0.0001 0.498 0.5019 0 0 0 0.0032 0.9968 0 0 0.001 0.0033 0.0376 0.9581 0 0 0 0 0 1 0.0007000000000000001 0.0234 0.9759 0 0 0 0.0032 0.9968 0 0 0 0.0007000000000000001 0.4328 0.5665 0 0.0003 0.0011 0.0159 0.9827 0 0 0 0 0 1 0.0019 0.006 0.0588 0.9333 0 0.001 0.0033 0.0376 0.9581 0 0.0003 0.0011 0.0159 0.9827 0 0.00030003 0.00110011 0.01250125 0.98609861 0 0 0 0 0 1 0 0 0 0 1 0 0 0 0 1 0 0 0 0 1 0 0 0 0 1 0 0 0 0 1</probabilities>
		</cpt>
		<cpt id="R_MEDD2_EFFAXLOSS">
			<state id="NO" label="F432" />
			<state id="MILD" label="F433" />
			<state id="MOD" label="F434" />
			<state id="SEV" label="F435" />
			<state id="TOTAL" label="F436" />
			<parents>R_MEDD2_BLOCK_WD R_MEDD2_SALOSS</parents>
			<probabilities>1 0 0 0 0 0.0073 0.9812 0.0115 0 0 0.0017 0.1306 0.867 0.0007000000000000001 0 0 0.0003 0.0212 0.9785 0 0 0 0 0 1 0.0073 0.9812 0.0115 0 0 0 0.0289 0.9711 0 0 0 0.0097 0.5989 0.3914 0 0 0 0.0017 0.9983 0 0 0 0 0 1 0.0017 0.1306 0.867 0.0007000000000000001 0 0 0.0097 0.5989 0.3914 0 0 0.0004999500000000002 0.03309669 0.96640336 0 0 0 0.0008 0.9992 0 0 0 0 0 1 0 0.0003 0.0212 0.9785 0 0 0 0.0017 0.9983 0 0 0 0.0008 0.9992 0 0 0 0.0001 0.9999 0 0 0 0 0 1 0 0 0 0 1 0 0 0 0 1 0 0 0 0 1 0 0 0 0 1 0 0 0 0 1</probabilities>
		</cpt>
		<cpt id="R_MEDD2_ALLAMP_WD">
			<state id="ZERO" label="F91" />
			<state id="A0_01" label="F92" />
			<state id="A0_10" label="F93" />
			<state id="A0_30" label="F94" />
			<state id="A0_70" label="F95" />
			<state id="A1_00" label="F96" />
			<parents>R_MEDD2_DISP_WD R_MEDD2_EFFAXLOSS</parents>
			<probabilities>0 0 0 0 0.0215 0.9785 0 0 0 0.3443 0.6228 0.0329 0 0 0.0248 0.9704 0.0048 0 0 0.1028 0.8793 0.0178 0.0001 0 1 0 0 0 0 0 0 0 0 0.3192 0.6448 0.036 0 0 0.04740474 0.93949395 0.01290129 0.00020002 0 0 0.93309331 0.06690669 0 0 0 0.8756 0.1237 0.0007000000000000001 0 0 1 0 0 0 0 0 0 0 0.0051 0.994 0.0009 0 0 0 0.9599 0.0401 0 0 0 0.0001 0.9994 0.0005000000000000001 0 0 0 0.9969 0.0031 0 0 0 1 0 0 0 0 0 0 0 0.9945000000000001 0.005500000000000001 0 0 0 0 0.9999 0.0001 0 0 0 0.7508 0.2492 0 0 0 0 0.9999 0.0001 0 0 0 1 0 0 0 0 0</probabilities>
		</cpt>
		<cpt id="R_MEDD2_AMP_WD">
			<state id="UV_0_63" label="F76" />
			<state id="UV0_88" label="F77" />
			<state id="UV1_25" label="F78" />
			<state id="UV1_77" label="F79" />
			<state id="UV2_50" label="F80" />
			<state id="UV3_50" label="F81" />
			<state id="UV5_00" label="F82" />
			<state id="UV7_10" label="F83" />
			<state id="UV10_0" label="F84" />
			<state id="UV14_0" label="F85" />
			<state id="UV20_0" label="F86" />
			<state id="UV28_0" label="F87" />
			<state id="UV40_0" label="F88" />
			<state id="UV57_0" label="F89" />
			<state id="UV_80_0" label="F90" />
			<parents>R_MEDD2_ALLAMP_WD</parents>
			<probabilities>0.75007501 0.18781878 0.04760476 0.01120112 0.00260026 0.00060006 0.00010001 0 0 0 0 0 0 0 0 0.3184 0.2478 0.178 0.1158 0.0688 0.038 0.0189 0.0086 0.0036 0.0014 0.0005000000000000001 0.0002 0 0 0 0.01170117 0.03920392 0.09350935 0.16761676 0.21892189 0.20952095 0.14651465 0.07470747 0.02870287 0.00780078 0.00160016 0.00020002 0 0 0 0 0 9.999e-05 0.00129987 0.01089891 0.05269473 0.15628437 0.27017298 0.27427257 0.16358364 0.05689431 0.01219878 0.00149985 9.999e-05 0 0 0 0 0 0 9.999e-05 0.00219978 0.02179782 0.10328967 0.25917408 0.32546745 0.20917908 0.06709329 0.01079892 0.0008999100000000002 0 0 0 0 0 0 0 0.0004 0.0072 0.06560000000000001 0.2449 0.3735 0.2388 0.0624 0.0072</probabilities>
		</cpt>
		<cpt id="R_LNLW_MEDD2_LD_WD">
			<state id="NO" label="F606" />
			<state id="MILD" label="F607" />
			<state id="MOD" label="F608" />
			<state id="SEV" label="F609" />
			<parents>R_LNLW_MED_SEV R_LNLW_MED_PATHO</parents>
			<probabilities>1 0 0 0 1 0 0 0 1 0 0 0 1 0 0 0 1 0 0 0 0 1 0 0 0.5 0.5 0 0 1 0 0 0 1 0 0 0 1 0 0 0 0 0 1 0 0.25 0.5 0.25 0 0.5 0.5 0 0 1 0 0 0 1 0 0 0 0 0 0 1 0.05 0.3 0.5 0.15 0 1 0 0 1 0 0 0 1 0 0 0 0 0 0 1 0.25 0.25 0.25 0.25 0 0.5 0.5 0 1 0 0 0 1 0 0 0</probabilities>
		</cpt>
		<cpt id="R_MEDD2_LD_WD">
			<state id="NO" label="F523" />
			<state id="MILD" label="F524" />
			<state id="MOD" label="F525" />
			<state id="SEV" label="F526" />
			<parents>R_LNLW_MEDD2_LD_WD</parents>
			<probabilities>1 0 0 0 0 1 0 0 0 0 1 0 0 0 0 1</probabilities>
		</cpt>
		<cpt id="R_LNLW_MEDD2_RD_WD">
			<state id="NO" label="F610" />
			<state id="MOD" label="F611" />
			<state id="SEV" label="F612" />
			<parents>R_LNLW_MED_PATHO</parents>
			<probabilities>1 0 0 1 0 0 1 0 0 0 0 1 0 1 0</probabilities>
		</cpt>
		<cpt id="R_MEDD2_RD_WD">
			<state id="NO" label="F520" />
			<state id="MOD" label="F521" />
			<state id="SEV" label="F522" />
			<parents>R_LNLW_MEDD2_RD_WD</parents>
			<probabilities>1 0 0 0 1 0 0 0 1</probabilities>
		</cpt>
		<cpt id="R_MEDD2_LSLOW_WD">
			<state id="NO" label="F446" />
			<state id="MILD" label="F447" />
			<state id="MOD" label="F448" />
			<state id="SEV" label="F449" />
			<state id="V_SEV" label="F450" />
			<parents>R_MEDD2_LD_WD R_MEDD2_RD_WD</parents>
			<probabilities>1 0 0 0 0 0.0021 0.004200000000000002 0.0295 0.9641999999999999 0 0.0001 0.0002 0.0014 0.083 0.9153 0.0185 0.9560999999999999 0.0254 0 0 0.0012 0.002500000000000001 0.0194 0.9769 0 0.0001 0.0001 0.0008 0.0533 0.9457 0 0.0166 0.9834000000000001 0 0 0.0006999300000000002 0.00149985 0.0119988 0.98580142 0 0 0.0001 0.0004 0.0319 0.9676 0.0007000000000000001 0.002 0.0219 0.9754 0 0.00020002 0.00050005 0.00460046 0.99449945 0.00020002 0 0 0 0.00350035 0.99649965</probabilities>
		</cpt>
		<cpt id="R_LNLBE_MEDD2_DIFSLOW_WD">
			<state id="NO" label="F602" />
			<state id="MILD" label="F603" />
			<state id="MOD" label="F604" />
			<state id="SEV" label="F605" />
			<probabilities>1 0 0 0</probabilities>
		</cpt>
		<cpt id="R_MEDD2_DIFSLOW_WD">
			<state id="NO" label="F516" />
			<state id="MILD" label="F517" />
			<state id="MOD" label="F518" />
			<state id="SEV" label="F519" />
			<parents>R_LNLBE_MEDD2_DIFSLOW_WD R_DIFFN_MEDD2_DIFSLOW</parents>
			<probabilities>1 0 0 0 0.0127 0.9867 0.0006000000000000003 0 0 0.01810181 0.98189819 0 0 0.0006000000000000003 0.0492 0.9502 0.0127 0.9867 0.0006000000000000003 0 0.0001 0.09520000000000001 0.9046999999999999 0 0 0.0011 0.7402 0.2587 0 0 0.008800880000000002 0.99119912 0 0.01810181 0.98189819 0 0 0.0011 0.7402 0.2587 0 0 0.004 0.996 0 0 0.0012 0.9988 0 0.0006000000000000003 0.0492 0.9502 0 0 0.008800880000000002 0.99119912 0 0 0.0012 0.9988 0 0 0.0009 0.9991</probabilities>
		</cpt>
		<cpt id="R_MEDD2_DSLOW_WD">
			<state id="M_S60" label="F437" />
			<state id="M_S52" label="F438" />
			<state id="M_S44" label="F439" />
			<state id="M_S36" label="F440" />
			<state id="M_S28" label="F441" />
			<state id="M_S20" label="F442" />
			<state id="M_S14" label="F443" />
			<state id="M_S08" label="F444" />
			<state id="M_S00" label="F445" />
			<parents>R_MEDD2_SALOSS R_MEDD2_DIFSLOW_WD</parents>
			<probabilities>1 0 0 0 0 0 0 0 0 0.0532 0.2387 0.495 0.2072 0.0059 0 0 0 0 0.0007000000000000001 0.0063 0.0614 0.3006 0.5524 0.0781 0.0005000000000000001 0 0 0.0003 0.0011 0.005000000000000001 0.0205 0.08699999999999999 0.2822 0.4514 0.1525 0 0.1036 0.8964 0 0 0 0 0 0 0 0.01780178 0.1190119 0.44814481 0.38543854 0.02960296 0 0 0 0 0.0002 0.0021 0.0283 0.1995 0.5939 0.1737 0.0023 0 0 0.0002 0.0006000000000000003 0.0029 0.0133 0.0634 0.2436 0.4657 0.2103 0 0.0005999400000000002 0.99730027 0.00209979 0 0 0 0 0 0 0.0048 0.0476 0.3148 0.5311 0.1016 0.0001 0 0 0 0 0.00060006 0.01140114 0.11471147 0.54455446 0.31963196 0.00910091 0 0 0.00010001 0.00030003 0.00170017 0.00830083 0.04470447 0.20312031 0.46324632 0.27852785 0 0.0001 0.0629 0.9278 0.0092 0 0 0 0 0 0.00060006 0.00920092 0.1160116 0.48574857 0.38353835 0.00490049 0 0 0 0 0.00010001 0.00240024 0.03740374 0.33273327 0.56705671 0.06030603 0 0 0 0.00010001 0.0007000700000000002 0.00380038 0.02430243 0.14161416 0.4240424 0.40544054 0 0 0 0 0 0 0 0 0 1 0 0 0 0 0 0 0 0 1 0 0 0 0 0 0 0 0 1 0 0 0 0 0 0 0 0 1</probabilities>
		</cpt>
		<cpt id="R_MEDD2_ALLCV_WD">
			<state id="M_S60" label="F116" />
			<state id="M_S52" label="F117" />
			<state id="M_S44" label="F118" />
			<state id="M_S36" label="F119" />
			<state id="M_S28" label="F120" />
			<state id="M_S20" label="F121" />
			<state id="M_S14" label="F122" />
			<state id="M_S08" label="F123" />
			<state id="M_S00" label="F124" />
			<parents>R_MEDD2_LSLOW_WD R_MEDD2_DSLOW_WD</parents>
			<probabilities>1 0 0 0 0 0 0 0 0 0.03049695 0.96720328 0.00229977 0 0 0 0 0 0 0.00039996 0.06189381 0.8881111900000001 0.04959504 0 0 0 0 0 0 0.0001 0.0655 0.9082 0.0262 0 0 0 0 0 0 0.0001 0.0555 0.9370000000000001 0.0074 0 0 0 0 0 0 0.0002 0.0491 0.8863 0.0644 0 0 0 0 0 0 0.00029997 0.09559044 0.89661034 0.007499250000000001 0 0.00020002 0.00060006 0.00190019 0.006400640000000001 0.02470247 0.09740973999999999 0.28552855 0.58325833 0 0 0 0 0 0 0 0 0 1 0.02359764 0.25787421 0.64033597 0.07809219000000001 9.999e-05 0 0 0 0 0.0017 0.0421 0.4597 0.4852 0.0113 0 0 0 0 0 0.00190019 0.07490748999999999 0.56945695 0.35323532 0.00050005 0 0 0 0 0 0.00220022 0.10511051 0.82518252 0.06750675 0 0 0 0 0 0 0.00220022 0.170017 0.8062806300000001 0.02150215 0 0 0 0 0 0 0.00219978 0.23377662 0.7620238 0.0019998 0 0 0 0 0 0 0.01009899 0.48945105 0.50044996 0 0.0001 0.0002 0.0007000000000000001 0.0026 0.0117 0.0585 0.2222 0.704 0 0 0 0 0 0 0 0 0 1 0 0.0021 0.1149 0.7277 0.1553 0 0 0 0 0 0.0001 0.0146 0.3403 0.6424 0.0026 0 0 0 0 0 0.0007000000000000001 0.0498 0.764 0.1854 0.0001 0 0 0 0 0 0.0012 0.137 0.8421 0.0197 0 0 0 0 0 0 0.0034 0.4375 0.5591 0 0 0 0 0 0 0 0.02080208 0.80948095 0.16971697 0 0 0 0 0 0 0.00010001 0.03920392 0.96069607 0 0 0.0001 0.0002 0.0009 0.0051 0.0329 0.1636 0.7972 0 0 0 0 0 0 0 0 0 1 0.0003 0.0011 0.005000000000000001 0.0205 0.08699999999999999 0.2822 0.4514 0.1525 0 0.00010002 0.0004000800000000001 0.00210042 0.01010202 0.05161032 0.21844369 0.46469294 0.25255051 0 0 0.00010001 0.00060006 0.00340034 0.02230223 0.13361336 0.41454145 0.42544254 0 0 0 0.0001 0.0008 0.0073 0.0649 0.3063 0.6206 0 0 0 0 0.00010001 0.00160016 0.02260226 0.17471747 0.8009801 0 0 0 0 0 0.00020002 0.00520052 0.07260726000000001 0.9219922 0 0 0 0 0 0 0.00120012 0.02960296 0.96919692 0 0 0 0.0001 0.0004 0.0022 0.0159 0.0994 0.882 0 0 0 0 0 0 0 0 0 1 0 0 9.999e-05 0.00029997 0.00219978 0.01919808 0.12518748 0.8530147 0 0 0 0 0.00019998 0.00139986 0.01369863 0.10288971 0.88181182 0 0 0 0 0.00010001 0.0007000700000000002 0.00860086 0.07820782 0.91239124 0 0 0 0 0 0.00030003 0.005000500000000002 0.05640564 0.93829383 0 0 0 0 0 0.0001 0.0026 0.0379 0.9594 0 0 0 0 0 0 0.0012 0.023 0.9758 0 0 0 0 0 0 0.0005000000000000001 0.014 0.9855 0 0 0 0 0.0001 0.0006000000000000003 0.005800000000000001 0.0523 0.9412 0 0 0 0 0 0 0 0 0 1</probabilities>
		</cpt>
		<cpt id="R_MEDD2_CV_WD">
			<state id="M_S00" label="F97" />
			<state id="M_S04" label="F98" />
			<state id="M_S08" label="F99" />
			<state id="M_S12" label="F100" />
			<state id="M_S16" label="F101" />
			<state id="M_S20" label="F102" />
			<state id="M_S24" label="F103" />
			<state id="M_S28" label="F104" />
			<state id="M_S32" label="F105" />
			<state id="M_S36" label="F106" />
			<state id="M_S40" label="F107" />
			<state id="M_S44" label="F108" />
			<state id="M_S48" label="F109" />
			<state id="M_S52" label="F110" />
			<state id="M_S56" label="F111" />
			<state id="M_S60" label="F112" />
			<state id="M_S64" label="F113" />
			<state id="M_S68" label="F114" />
			<state id="M_S_72" label="F115" />
			<parents>R_MEDD2_ALLCV_WD</parents>
			<probabilities>0 0 0 0 0 0 0 0 0 0 0 0.00019998 0.01089891 0.09839016 0.31656834 0.35316468 0.17488251 0.04029597 0.005599440000000001 0 0 0 0 0 0 0 0 0 0.00019998 0.008499150000000002 0.07679232 0.28107189 0.33226677 0.20117988 0.08159184 0.01609839 0.00209979 0.00019998 0 0 0 0 0 0 0 0.00020002 0.01390139 0.1120112 0.29182918 0.31343134 0.19151915 0.0610061 0.0130013 0.002800280000000001 0.00030003 0 0 0 0 0 0 0 0 0.00290029 0.07060706 0.31513151 0.38363836 0.17091709 0.04760476 0.008200819999999999 0.0009000900000000001 0.00010001 0 0 0 0 0 0 0 0 0.00019998 0.03939606 0.31846815 0.41945805 0.17558244 0.04189581 0.004499550000000001 0.0004999500000000002 0 0 0 0 0 0 0 0 0 0 0.01569843 0.31446855 0.46605339 0.17158284 0.02909709 0.00279972 0.00029997 0 0 0 0 0 0 0 0 0 0 0 0.03080308 0.5769577 0.33983398 0.04820482 0.0040004 0.00020002 0 0 0 0 0 0 0 0 0 0 0 0 0.04650465 0.84828483 0.09990999 0.00510051 0.00020002 0 0 0 0 0 0 0 0 0 0 0 0 0 1 0 0 0 0 0 0 0 0 0 0 0 0 0 0 0 0 0 0</probabilities>
		</cpt>
		<cpt id="DIFFN_MOT_SEV">
			<state id="NO" label="F958" />
			<state id="MILD" label="F959" />
			<state id="MOD" label="F960" />
			<state id="SEV" label="F961" />
			<parents>DIFFN_SEV DIFFN_TYPE</parents>
			<probabilities>1 0 0 0 1 0 0 0 1 0 0 0 0 1 0 0 0 1 0 0 1 0 0 0 0 0 1 0 0 0 1 0 1 0 0 0 0 0 0 1 0 0 0 1 1 0 0 0</probabilities>
		</cpt>
		<cpt id="DIFFN_M_SEV_DIST">
			<state id="NO" label="F924" />
			<state id="MILD" label="F925" />
			<state id="MOD" label="F926" />
			<state id="SEV" label="F927" />
			<parents>DIFFN_MOT_SEV DIFFN_DISTR</parents>
			<probabilities>1 0 0 0 1 0 0 0 1 0 0 0 0 1 0 0 1 0 0 0 0.25 0.45 0.25 0.05 0 0 1 0 0.5 0.5 0 0 0.1 0.4 0.4 0.1 0 0 0 1 0 0.5 0.5 0 0.05 0.15 0.4 0.4</probabilities>
		</cpt>
		<cpt id="R_DIFFN_MED_BLOCK">
			<state id="NO" label="F618" />
			<state id="MILD" label="F619" />
			<state id="MOD" label="F620" />
			<state id="SEV" label="F621" />
			<state id="TOTAL" label="F622" />
			<parents>DIFFN_M_SEV_DIST DIFFN_PATHO</parents>
			<probabilities>1 0 0 0 0 1 0 0 0 0 1 0 0 0 0 1 0 0 0 0 1 0 0 0 0 1 0 0 0 0 0 0.5 0.5 0 0 1 0 0 0 0 1 0 0 0 0 1 0 0 0 0 0.6 0.4 0 0 0 0 0.5 0.5 0 0 1 0 0 0 0 1 0 0 0 0 1 0 0 0 0 0.25 0.5 0.25 0 0 0 0 0.4 0.5 0.1 1 0 0 0 0 1 0 0 0 0 1 0 0 0 0</probabilities>
		</cpt>
		<cpt id="R_LNLBE_MED_BLOCK">
			<state id="NO" label="F613" />
			<state id="MILD" label="F614" />
			<state id="MOD" label="F615" />
			<state id="SEV" label="F616" />
			<state id="TOTAL" label="F617" />
			<probabilities>1 0 0 0 0</probabilities>
		</cpt>
		<cpt id="R_MED_BLOCK_EW">
			<state id="NO" label="F137" />
			<state id="MILD" label="F138" />
			<state id="MOD" label="F139" />
			<state id="SEV" label="F140" />
			<state id="TOTAL" label="F141" />
			<parents>R_DIFFN_MED_BLOCK R_LNLBE_MED_BLOCK</parents>
			<probabilities>1 0 0 0 0 0.0077 0.9923 0 0 0 0.0007000000000000001 0.0234 0.9759 0 0 0.0019 0.006 0.0588 0.9333 0 0 0 0 0 1 0.0077 0.9923 0 0 0 0.0001 0.498 0.5019 0 0 0 0.0032 0.9968 0 0 0.001 0.0033 0.0376 0.9581 0 0 0 0 0 1 0.0007000000000000001 0.0234 0.9759 0 0 0 0.0032 0.9968 0 0 0 0.0007000000000000001 0.4328 0.5665 0 0.0003 0.0011 0.0159 0.9827 0 0 0 0 0 1 0.0019 0.006 0.0588 0.9333 0 0.001 0.0033 0.0376 0.9581 0 0.0003 0.0011 0.0159 0.9827 0 0.00030003 0.00110011 0.01250125 0.98609861 0 0 0 0 0 1 0 0 0 0 1 0 0 0 0 1 0 0 0 0 1 0 0 0 0 1 0 0 0 0 1</probabilities>
		</cpt>
		<cpt id="R_MED_AMPR_EW">
			<state id="R_1_1" label="F125" />
			<state id="R1_0" label="F126" />
			<state id="R0_9" label="F127" />
			<state id="R0_8" label="F128" />
			<state id="R0_7" label="F129" />
			<state id="R0_6" label="F130" />
			<state id="R0_5" label="F131" />
			<state id="R0_4" label="F132" />
			<state id="R0_3" label="F133" />
			<state id="R0_2" label="F134" />
			<state id="R0_1" label="F135" />
			<state id="R0_0" label="F136" />
			<parents>R_MED_BLOCK_EW</parents>
			<probabilities>0.08790000000000001 0.4192 0.4232 0.0693 0.0004 0 0 0 0 0 0 0 0.00189981 0.03439656 0.25667433 0.52914709 0.17348265 0.00439956 0 0 0 0 0 0 0.0001 0.001 0.0076 0.0403 0.172 0.373 0.342 0.0633 0.0007000000000000001 0 0 0 0.0009000900000000001 0.00150015 0.00260026 0.00490049 0.009500950000000001 0.01760176 0.03470347 0.07680768 0.16681668 0.34143414 0.34323432 0 0 0 0 0 0 0 0 0 0 0 0 1</probabilities>
		</cpt>
		<cpt id="R_LNLT1_APB_MALOSS">
			<state id="NO" label="F5621" />
			<state id="MILD" label="F5622" />
			<state id="MOD" label="F5623" />
			<state id="SEV" label="F5624" />
			<state id="TOTAL" label="F5625" />
			<probabilities>1 0 0 0 0</probabilities>
		</cpt>
		<cpt id="R_LNLLP_APB_MALOSS">
			<state id="NO" label="F913" />
			<state id="MILD" label="F914" />
			<state id="MOD" label="F915" />
			<state id="SEV" label="F916" />
			<state id="TOTAL" label="F917" />
			<probabilities>1 0 0 0 0</probabilities>
		</cpt>
		<cpt id="R_LNLT1_LP_APB_MALOSS">
			<state id="NO" label="F729" />
			<state id="MILD" label="F730" />
			<state id="MOD" label="F731" />
			<state id="SEV" label="F732" />
			<state id="TOTAL" label="F733" />
			<parents>R_LNLT1_APB_MALOSS R_LNLLP_APB_MALOSS</parents>
			<probabilities>1 0 0 0 0 0.0022 0.9977 0.0001 0 0 0.00019998 0.03689631 0.95880412 0.00409959 0 0 0.0002 0.0329 0.9669 0 0 0 0 0 1 0.0022 0.9977 0.0001 0 0 0 0.0282 0.9718 0 0 0 0.0009 0.3409 0.6582 0 0 0 0.0038 0.9962 0 0 0 0 0 1 0.00019998 0.03689631 0.95880412 0.00409959 0 0 0.0009 0.3409 0.6582 0 0 0 0.01 0.99 0 0 0 0.0011 0.9989 0 0 0 0 0 1 0 0.0002 0.0329 0.9669 0 0 0 0.0038 0.9962 0 0 0 0.0011 0.9989 0 0 0 0.0004 0.9996 0 0 0 0 0 1 0 0 0 0 1 0 0 0 0 1 0 0 0 0 1 0 0 0 0 1 0 0 0 0 1</probabilities>
		</cpt>
		<cpt id="R_LNLBE_APB_MALOSS">
			<state id="NO" label="F724" />
			<state id="MILD" label="F725" />
			<state id="MOD" label="F726" />
			<state id="SEV" label="F727" />
			<state id="TOTAL" label="F728" />
			<probabilities>1 0 0 0 0</probabilities>
		</cpt>
		<cpt id="R_LNLT1_LP_BE_APB_MALOSS">
			<state id="NO" label="F632" />
			<state id="MILD" label="F633" />
			<state id="MOD" label="F634" />
			<state id="SEV" label="F635" />
			<state id="TOTAL" label="F636" />
			<parents>R_LNLT1_LP_APB_MALOSS R_LNLBE_APB_MALOSS</parents>
			<probabilities>1 0 0 0 0 0.0022 0.9977 0.0001 0 0 0.00019998 0.03689631 0.95880412 0.00409959 0 0 0.0002 0.0329 0.9669 0 0 0 0 0 1 0.0022 0.9977 0.0001 0 0 0 0.0282 0.9718 0 0 0 0.0009 0.3409 0.6582 0 0 0 0.0038 0.9962 0 0 0 0 0 1 0.00019998 0.03689631 0.95880412 0.00409959 0 0 0.0009 0.3409 0.6582 0 0 0 0.01 0.99 0 0 0 0.0011 0.9989 0 0 0 0 0 1 0 0.0002 0.0329 0.9669 0 0 0 0.0038 0.9962 0 0 0 0.0011 0.9989 0 0 0 0.0004 0.9996 0 0 0 0 0 1 0 0 0 0 1 0 0 0 0 1 0 0 0 0 1 0 0 0 0 1 0 0 0 0 1</probabilities>
		</cpt>
		<cpt id="R_LNLW_APB_MALOSS">
			<state id="NO" label="F751" />
			<state id="MILD" label="F752" />
			<state id="MOD" label="F753" />
			<state id="SEV" label="F754" />
			<state id="TOTAL" label="F755" />
			<parents>R_LNLW_MED_SEV R_LNLW_MED_PATHO</parents>
			<probabilities>1 0 0 0 0 1 0 0 0 0 1 0 0 0 0 0 0 0 1 0 0 0 0.5 0.5 0 0.5 0.5 0 0 0 0.5 0.5 0 0 0 0 1 0 0 0 0 0 0 1 0 0 0 0.5 0.5 0 0 0.5 0.5 0 0 0.4 0.3 0.3 0 0 0 0 1 0 0 0 0 0 1 0 0 0 0.5 0.5 0 0 0 0.5 0.5 0 0 0 0.5 0.5 0 0 0 0 1 0 0 0 0 1 0 0 0 0.5 0.5 0 0 0 0 0.1 0.9 0.25 0.25 0.25 0.25 0 0 0 0 0 1 0 0 0 1 0 0 0 0.5 0.5 0</probabilities>
		</cpt>
		<cpt id="R_DIFFN_APB_MALOSS">
			<state id="NO" label="F746" />
			<state id="MILD" label="F747" />
			<state id="MOD" label="F748" />
			<state id="SEV" label="F749" />
			<state id="TOTAL" label="F750" />
			<parents>DIFFN_M_SEV_DIST DIFFN_PATHO</parents>
			<probabilities>1 0 0 0 0 1 0 0 0 0 1 0 0 0 0 0 0 0 1 0 0 0 0.5 0.5 0 0.4 0.6 0 0 0 0.5 0.5 0 0 0 0 1 0 0 0 0 0 0 1 0 0 0 0.5 0.5 0 0 0.4 0.6 0 0 0.4 0.3 0.3 0 0 0 0 1 0 0 0 0 0 1 0 0 0 0.5 0.5 0 0 0 0.4 0.6 0 0 0 0.5 0.5 0 0 0 0 0.8 0.2 0 0 0 1 0 0 0 0.5 0.5 0</probabilities>
		</cpt>
		<cpt id="R_DIFFN_LNLW_APB_MALOSS">
			<state id="NO" label="F627" />
			<state id="MILD" label="F628" />
			<state id="MOD" label="F629" />
			<state id="SEV" label="F630" />
			<state id="TOTAL" label="F631" />
			<parents>R_LNLW_APB_MALOSS R_DIFFN_APB_MALOSS</parents>
			<probabilities>1 0 0 0 0 0.0022 0.9977 0.0001 0 0 0.00019998 0.03689631 0.95880412 0.00409959 0 0 0.0002 0.0329 0.9669 0 0 0 0 0 1 0.0022 0.9977 0.0001 0 0 0 0.0282 0.9718 0 0 0 0.0009 0.3409 0.6582 0 0 0 0.0038 0.9962 0 0 0 0 0 1 0.00019998 0.03689631 0.95880412 0.00409959 0 0 0.0009 0.3409 0.6582 0 0 0 0.01 0.99 0 0 0 0.0011 0.9989 0 0 0 0 0 1 0 0.0002 0.0329 0.9669 0 0 0 0.0038 0.9962 0 0 0 0.0011 0.9989 0 0 0 0.0004 0.9996 0 0 0 0 0 1 0 0 0 0 1 0 0 0 0 1 0 0 0 0 1 0 0 0 0 1 0 0 0 0 1</probabilities>
		</cpt>
		<cpt id="R_APB_MALOSS">
			<state id="NO" label="F237" />
			<state id="MILD" label="F238" />
			<state id="MOD" label="F239" />
			<state id="SEV" label="F240" />
			<state id="TOTAL" label="F241" />
			<state id="OTHER" label="F242" />
			<parents>R_LNLT1_LP_BE_APB_MALOSS R_DIFFN_LNLW_APB_MALOSS</parents>
			<probabilities>0.98 0 0 0 0 0.02 0.00219978 0.97770223 9.999e-05 0 0 0.019998 0.0002 0.0471 0.9297 0.003 0 0.02 0 0.0003 0.0424 0.9373 0 0.02 0 0 0 0 0.98 0.02 0.00219978 0.97770223 9.999e-05 0 0 0.019998 0 0.0361 0.9439 0 0 0.02 0 0.0014 0.3987 0.5799 0 0.02 0 0 0.005000000000000001 0.975 0 0.02 0 0 0 0 0.98 0.02 0.0002 0.0471 0.9297 0.003 0 0.02 0 0.0014 0.3987 0.5799 0 0.02 0 0 0.013 0.967 0 0.02 0 0 0.0014 0.9786 0 0.02 0 0 0 0 0.98 0.02 0 0.0003 0.0424 0.9373 0 0.02 0 0 0.005000000000000001 0.975 0 0.02 0 0 0.0014 0.9786 0 0.02 0 0 0.0005000000000000001 0.9795 0 0.02 0 0 0 0 0.98 0.02 0 0 0 0 0.98 0.02 0 0 0 0 0.98 0.02 0 0 0 0 0.98 0.02 0 0 0 0 0.98 0.02 0 0 0 0 0.98 0.02</probabilities>
		</cpt>
		<cpt id="R_DIFFN_MED_DIFSLOW">
			<state id="NO" label="F623" />
			<state id="MILD" label="F624" />
			<state id="MOD" label="F625" />
			<state id="SEV" label="F626" />
			<parents>DIFFN_M_SEV_DIST DIFFN_PATHO</parents>
			<probabilities>1 0 0 0 1 0 0 0 1 0 0 0 0 0 0 1 0 0 0.7 0.3 0 0.5 0.5 0 0.4 0.5 0.1 0 1 0 0 0 0 0 0 1 0 0 0.7 0.3 0 0.2 0.6 0.2 0.2 0.4 0.3 0.1 1 0 0 0 0 0 0 1 0 0 0.7 0.3 0 0.2 0.6 0.2 0.2 0.4 0.3 0.1 1 0 0 0 0 0 0 1 0 0 0.7 0.3</probabilities>
		</cpt>
		<cpt id="R_MED_DIFSLOW_EW">
			<state id="NO" label="F534" />
			<state id="MILD" label="F535" />
			<state id="MOD" label="F536" />
			<state id="SEV" label="F537" />
			<parents>R_DIFFN_MED_DIFSLOW</parents>
			<probabilities>1 0 0 0 0.0126 0.9869 0.0005000000000000001 0 0 0.0179 0.9821 0 0 0.0003 0.0252 0.9745</probabilities>
		</cpt>
		<cpt id="R_MED_DCV_EW">
			<state id="M_S60" label="F471" />
			<state id="M_S56" label="F472" />
			<state id="M_S52" label="F473" />
			<state id="M_S44" label="F474" />
			<state id="M_S36" label="F475" />
			<state id="M_S28" label="F476" />
			<state id="M_S20" label="F477" />
			<state id="M_S14" label="F478" />
			<state id="M_S08" label="F479" />
			<state id="M_S00" label="F480" />
			<parents>R_APB_MALOSS R_MED_DIFSLOW_EW</parents>
			<probabilities>1 0 0 0 0 0 0 0 0 0 0.004100410000000001 0.02470247 0.15461546 0.7389739 0.07760776 0 0 0 0 0 0.0004 0.0012 0.005500000000000001 0.06279999999999999 0.295 0.5485 0.0861 0.0005000000000000001 0 0 0 9.999e-05 0.00019998 0.00189981 0.01069893 0.06579342000000001 0.28457154 0.50544946 0.13128687 0 0.109 0.8903 0.0007000000000000001 0 0 0 0 0 0 0 0.0011 0.008200000000000001 0.0683 0.7087 0.2135 0.0002 0 0 0 0 0.00020002 0.00050005 0.002800280000000001 0.03890389 0.23092309 0.5829583 0.14221422 0.00150015 0 0 0 0 0.00010001 0.00120012 0.007500750000000001 0.0510051 0.25242524 0.51855186 0.16921692 0 0.0039996 0.11438856 0.86211379 0.01949805 0 0 0 0 0 0 9.999e-05 0.00079992 0.008999100000000001 0.3029697 0.66543346 0.02169783 0 0 0 0 0 0.00010001 0.00060006 0.01230123 0.11291129 0.5272527299999999 0.33553355 0.01130113 0 0 0 0 0 0.0005000000000000001 0.0034 0.028 0.1822 0.5098 0.2761 0 0.0001 0.0028 0.064 0.9243 0.008800000000000001 0 0 0 0 0 0 0 0.0006000000000000003 0.0547 0.6199 0.3247 0.0001 0 0 0 0 0 9.999e-05 0.00249975 0.0359964 0.32406759 0.5710429 0.06629337 0 0 0 0 0 0.00010001 0.00120012 0.01250125 0.11181118 0.44524452 0.42914291 0 0 0 0 0 0 0 0 0 0 1 0 0 0 0 0 0 0 0 0 1 0 0 0 0 0 0 0 0 0 1 0 0 0 0 0 0 0 0 0 1 0.0835 0.1153 0.2417 0.3746 0.1682 0.0167 0 0 0 0 0.00929907 0.01809819 0.05459454 0.22767723 0.39336066 0.27757224 0.01929807 9.999e-05 0 0 0.0005999400000000002 0.00119988 0.004199580000000001 0.02839716 0.11488851 0.35756424 0.39636036 0.09639035999999999 0.00039996 0 0 0 0.0002 0.0011 0.005600000000000001 0.033 0.1653 0.4414 0.3534 0</probabilities>
		</cpt>
		<cpt id="R_MED_LD_EW">
			<state id="NO" label="F530" />
			<state id="MILD" label="F531" />
			<state id="MOD" label="F532" />
			<state id="SEV" label="F533" />
			<probabilities>1 0 0 0</probabilities>
		</cpt>
		<cpt id="R_MED_RD_EW">
			<state id="NO" label="F527" />
			<state id="MOD" label="F528" />
			<state id="SEV" label="F529" />
			<probabilities>1 0 0</probabilities>
		</cpt>
		<cpt id="R_MED_RDLDCV_EW">
			<state id="M_S60" label="F465" />
			<state id="M_S52" label="F466" />
			<state id="M_S44" label="F467" />
			<state id="M_S27" label="F468" />
			<state id="M_S15" label="F469" />
			<state id="M_S07" label="F470" />
			<parents>R_MED_LD_EW R_MED_RD_EW</parents>
			<probabilities>0.9044904499999999 0.09530953 0.00020002 0 0 0 0.0115 0.0333 0.1509 0.7319 0.07240000000000001 0 0 9.999e-05 0.00109989 0.14618538 0.8070193 0.04559544 0.132 0.6039 0.2641 0 0 0 0.00340034 0.01220122 0.0690069 0.71967197 0.19531953 0.0004000400000000002 0 0 0.0002 0.0581 0.795 0.1467 0.0139 0.1839 0.8022 0 0 0 0.0011 0.0045 0.0299 0.5742 0.3876 0.0027 0 0 0.0001 0.0228 0.6344 0.3427 0.00120012 0.006700670000000002 0.05440544 0.86008601 0.07760776 0 0.0001 0.0002 0.0018 0.0914 0.6093 0.2972 0 0 0 0.0014 0.1063 0.8923</probabilities>
		</cpt>
		<cpt id="R_MED_ALLCV_EW">
			<state id="M_S60" label="F161" />
			<state id="M_S56" label="F162" />
			<state id="M_S52" label="F163" />
			<state id="M_S44" label="F164" />
			<state id="M_S36" label="F165" />
			<state id="M_S28" label="F166" />
			<state id="M_S20" label="F167" />
			<state id="M_S14" label="F168" />
			<state id="M_S08" label="F169" />
			<state id="M_S00" label="F170" />
			<parents>R_MED_DCV_EW R_MED_RDLDCV_EW</parents>
			<probabilities>1 0 0 0 0 0 0 0 0 0 0.00660066 0.14551455 0.83808381 0.009800980000000001 0 0 0 0 0 0 0 0 0.0047 0.9951 0.0002 0 0 0 0 0 0 0 0 0 0 1 0 0 0 0 0 0 0 0 0 0.0012 0.1305 0.8445 0.0238 0 0 0 0 0 0 0 0.0002 0.0321 0.9677 0 0.0699 0.8102 0.1199 0 0 0 0 0 0 0 0.0005000000000000001 0.0239 0.4369 0.5387 0 0 0 0 0 0 0 0 0.0004 0.9005 0.09909999999999999 0 0 0 0 0 0 0 0 0 0 0.997 0.003 0 0 0 0 0 0 0 0 0.0004 0.074 0.8589 0.0667 0 0 0 0 0 0 0 0.0001 0.0184 0.9815 0 0 0.04790479 0.95209521 0 0 0 0 0 0 0 0 0.0003 0.0239 0.9748 0.001 0 0 0 0 0 0 0 0 0.1288 0.8712 0 0 0 0 0 0 0 0 0 0 0.2336 0.7664 0 0 0 0 0 0 0 0 0.00010001 0.03730373 0.8028802900000001 0.15971597 0 0 0 0 0 0 0 0 0.01010101 0.98989899 0 0.0008999100000000002 0.008999100000000001 0.08879112 0.81861814 0.08269173 0 0 0 0 0 0 0.0002 0.0036 0.2467 0.7339 0.0156 0 0 0 0 0 0 0 0.01130113 0.57115712 0.41754175 0 0 0 0 0 0 0 0 0 0.00259974 0.99340066 0.0039996 0 0 0 0 0 0 0 0 0.007000000000000001 0.3517 0.6413 0 0 0 0 0 0 0 0 0.004200000000000002 0.9958 0 0 0 0.00050005 0.10111011 0.84778478 0.05060506 0 0 0 0 0 0 0 0.005000000000000001 0.3134 0.6811 0.0005000000000000001 0 0 0 0 0 0 0 0.0214 0.9354 0.0432 0 0 0 0 0 0 0 0 0 0.2469 0.7531 0 0 0 0 0 0 0 0 0.0003 0.0581 0.9416 0 0 0 0 0 0 0 0 0.0011 0.9989 0 0 0 0 0.00050005 0.07910791 0.90019002 0.02020202 0 0 0 0 0 0 0 0.007100710000000001 0.54935494 0.44334433 0.00020002 0 0 0 0 0 0 9.999e-05 0.05649435 0.93230677 0.01109889 0 0 0 0 0 0 0 0 0.002 0.9939 0.0041 0 0 0 0 0 0 0 0 0.006 0.994 0 0 0 0 0 0 0 0 0.0003 0.9997 0 0 0 0 0 0.0006000000000000003 0.07340000000000001 0.8393 0.0867 0 0 0 0 0 0 0 0.00910091 0.52835284 0.46254625 0 0 0 0 0 0 0 0.0004 0.143 0.8551 0.0015 0 0 0 0 0 0 0 0 0.0314 0.9686 0 0 0 0 0 0 0 0 0.0008 0.9992 0 0 0 0 0 0 0 0 0.0001 0.9999 0 0 0 0 0 0 0.00030003 0.09470947 0.8945894599999999 0.01040104 0 0 0 0 0 0 0 0.0216 0.8359 0.1425 0 0 0 0 0 0 0 0.0019998 0.35486451 0.64313569 0 0 0 0 0 0 0 0 0.0002 0.9998 0 0 0 0 0 0 0 0 0.0001 0.9999 0 0 0 0 0 0 0 0 0 1 0 0 0 0 0 0 0 0.002 0.09320000000000001 0.9048 0 0 0 0 0 0 0 0.0004 0.0355 0.9641 0 0 0 0 0 0 0 0.0001 0.0122 0.9877 0 0 0 0 0 0 0 0 0.0003 0.9997 0 0 0 0 0 0 0 0 0.0002 0.9998 0 0 0 0 0 0 0 0 0.0001 0.9999 0 0 0 0 0 0 0 0 0 0.0001 0.9999 0 0 0 0 0 0 0 0 0.0001 0.9999 0 0 0 0 0 0 0 0 0.0001 0.9999 0 0 0 0 0 0 0 0 0 1 0 0 0 0 0 0 0 0 0 1 0 0 0 0 0 0 0 0 0 1</probabilities>
		</cpt>
		<cpt id="R_MED_CV_EW">
			<state id="M_S00" label="F142" />
			<state id="M_S04" label="F143" />
			<state id="M_S08" label="F144" />
			<state id="M_S12" label="F145" />
			<state id="M_S16" label="F146" />
			<state id="M_S20" label="F147" />
			<state id="M_S24" label="F148" />
			<state id="M_S28" label="F149" />
			<state id="M_S32" label="F150" />
			<state id="M_S36" label="F151" />
			<state id="M_S40" label="F152" />
			<state id="M_S44" label="F153" />
			<state id="M_S48" label="F154" />
			<state id="M_S52" label="F155" />
			<state id="M_S56" label="F156" />
			<state id="M_S60" label="F157" />
			<state id="M_S64" label="F158" />
			<state id="M_S68" label="F159" />
			<state id="M_S72" label="F160" />
			<parents>R_MED_ALLCV_EW</parents>
			<probabilities>0 0 0 0 0 0 0 0 0 0 0 0.0006000000000000003 0.0168 0.1184 0.296 0.3227 0.1783 0.056 0.0112 0 0 0 0 0 0 0 0 0 0.0001 0.0005000000000000001 0.0155 0.1165 0.2969 0.3229 0.1782 0.0564 0.0114 0.0016 0 0 0 0 0 0 0 0 0 0.0006000000000000003 0.0039 0.0589 0.2434 0.3586 0.235 0.0808 0.0164 0.0022 0.0002 0 0 0 0 0 0 0 0.0007000000000000001 0.0176 0.1966 0.2515 0.2699 0.1688 0.06900000000000001 0.0203 0.0046 0.0009 0.0001 0 0 0 0 0 0 0 0.005600560000000001 0.09000900000000001 0.30563056 0.30933093 0.20392039 0.06730673 0.01520152 0.00260026 0.0004000400000000002 0 0 0 0 0 0 0 0 0.0006000000000000003 0.0496 0.2972 0.4059 0.2097 0.0258 0.009800000000000001 0.0013 0.0001 0 0 0 0 0 0 0 0 0 0.01789821 0.29457054 0.4469553 0.19018098 0.04339566 0.00659934 0.00029997 9.999e-05 0 0 0 0 0 0 0 0 0 0 0.0265 0.5431 0.3624 0.0622 0.0054 0.0004 0 0 0 0 0 0 0 0 0 0 0 0 0.12651265 0.76547655 0.10061006 0.0070007 0.0004000400000000002 0 0 0 0 0 0 0 0 0 0 0 0 0 0.9999 0.0001 0 0 0 0 0 0 0 0 0 0 0 0 0 0 0 0 0</probabilities>
		</cpt>
		<cpt id="R_LNLT1_APB_DE_REGEN">
			<state id="NO" label="F5632" />
			<state id="YES" label="F5633" />
			<probabilities>1 0</probabilities>
		</cpt>
		<cpt id="R_LNLLP_APB_DE_REGEN">
			<state id="NO" label="F936" />
			<state id="YES" label="F937" />
			<probabilities>1 0</probabilities>
		</cpt>
		<cpt id="R_LNLT1_LP_APB_DE_REGEN">
			<state id="NO" label="F828" />
			<state id="YES" label="F829" />
			<parents>R_LNLT1_APB_DE_REGEN R_LNLLP_APB_DE_REGEN</parents>
			<probabilities>1 0 0 1 0 1 0 1</probabilities>
		</cpt>
		<cpt id="R_LNLBE_APB_DE_REGEN">
			<state id="NO" label="F826" />
			<state id="YES" label="F827" />
			<probabilities>1 0</probabilities>
		</cpt>
		<cpt id="R_LNLT1_LP_BE_APB_DE_REGEN">
			<state id="NO" label="F770" />
			<state id="YES" label="F771" />
			<parents>R_LNLT1_LP_APB_DE_REGEN R_LNLBE_APB_DE_REGEN</parents>
			<probabilities>1 0 0 1 0 1 0 1</probabilities>
		</cpt>
		<cpt id="DIFFN_TIME">
			<state id="ACUTE" label="F928" />
			<state id="SUBACUTE" label="F929" />
			<state id="CHRONIC" label="F930" />
			<state id="OLD" label="F931" />
			<probabilities>0.01 0.25 0.65 0.09</probabilities>
		</cpt>
		<cpt id="R_DIFFN_APB_DE_REGEN">
			<state id="NO" label="F832" />
			<state id="YES" label="F833" />
			<parents>DIFFN_M_SEV_DIST DIFFN_TIME DIFFN_PATHO</parents>
			<probabilities>1 0 1 0 1 0 0 1 0 1 1 0 1 0 1 0 0 1 0 1 1 0 1 0 1 0 0 1 0 1 1 0 1 0 1 0 0 1 0 1 1 0 1 0 1 0 0 1 0 1 0.8 0.2 0.8 0.2 0.5 0.5 0 1 0 1 0.8 0.2 0.8 0.2 0.5 0.5 0 1 0 1 1 0 1 0 1 0 0 1 0 1 1 0 1 0 1 0 0 1 0 1 0.2 0.8 0.2 0.8 0.2 0.8 0 1 0 1 0.2 0.8 0.2 0.8 0.2 0.8 0 1 0 1 0.8 0.2 0.8 0.2 0.8 0.2 0 1 0 1 1 0 1 0 1 0 0 1 0 1 0.4 0.6 0.4 0.6 0.1 0.9 0 1 0 1 0.4 0.6 0.4 0.6 0.1 0.9 0 1 0 1 0.4 0.6 0.4 0.6 0.4 0.6 0 1 0 1</probabilities>
		</cpt>
		<cpt id="R_LNLW_MED_TIME">
			<state id="ACUTE" label="F932" />
			<state id="SUBACUTE" label="F933" />
			<state id="CHRONIC" label="F934" />
			<state id="OLD" label="F935" />
			<probabilities>0.05 0.33 0.6 0.02</probabilities>
		</cpt>
		<cpt id="R_LNLW_APB_DE_REGEN">
			<state id="NO" label="F830" />
			<state id="YES" label="F831" />
			<parents>R_LNLW_MED_SEV R_LNLW_MED_TIME R_LNLW_MED_PATHO</parents>
			<probabilities>1 0 1 0 1 0 0 1 0 1 1 0 1 0 1 0 0 1 0 1 1 0 1 0 1 0 0 1 0 1 1 0 1 0 1 0 0 1 0 1 1 0 1 0 1 0 0 1 0 1 0.8 0.2 0.8 0.2 0.5 0.5 0 1 0 1 0.8 0.2 0.8 0.2 0.5 0.5 0 1 0 1 1 0 1 0 1 0 0 1 0 1 1 0 1 0 1 0 0 1 0 1 0.2 0.8 0.2 0.8 0.2 0.8 0 1 0 1 0.2 0.8 0.2 0.8 0.2 0.8 0 1 0 1 0.8 0.2 0.8 0.2 0.8 0.2 0 1 0 1 1 0 1 0 1 0 0 1 0 1 0.4 0.6 0.4 0.6 0.1 0.9 0 1 0 1 0.4 0.6 0.4 0.6 0.1 0.9 0 1 0 1 0.4 0.6 0.4 0.6 0.4 0.6 0 1 0 1 1 0 1 0 1 0 0 1 0 1 1 0 1 0 1 0 0 1 0 1 1 0 1 0 1 0 0 1 0 1 1 0 1 0 1 0 0 1 0 1</probabilities>
		</cpt>
		<cpt id="R_DIFFN_LNLW_APB_DE_REGEN">
			<state id="NO" label="F768" />
			<state id="YES" label="F769" />
			<parents>R_DIFFN_APB_DE_REGEN R_LNLW_APB_DE_REGEN</parents>
			<probabilities>1 0 0 1 0 1 0 1</probabilities>
		</cpt>
		<cpt id="R_LNL_DIFFN_APB_DE_REGEN">
			<state id="NO" label="F684" />
			<state id="YES" label="F685" />
			<parents>R_LNLT1_LP_BE_APB_DE_REGEN R_DIFFN_LNLW_APB_DE_REGEN</parents>
			<probabilities>1 0 0 1 0 1 0 1</probabilities>
		</cpt>
		<cpt id="R_MYOP_APB_DE_REGEN">
			<state id="NO" label="F836" />
			<state id="YES" label="F837" />
			<probabilities>1 0</probabilities>
		</cpt>
		<cpt id="R_MYDY_APB_DE_REGEN">
			<state id="NO" label="F834" />
			<state id="YES" label="F835" />
			<probabilities>1 0</probabilities>
		</cpt>
		<cpt id="R_MYOP_MYDY_APB_DE_REGEN">
			<state id="NO" label="F682" />
			<state id="YES" label="F683" />
			<parents>R_MYOP_APB_DE_REGEN R_MYDY_APB_DE_REGEN</parents>
			<probabilities>1 0 0 1 0 1 0 1</probabilities>
		</cpt>
		<cpt id="R_APB_DE_REGEN">
			<state id="NO" label="F343" />
			<state id="YES" label="F344" />
			<parents>R_LNL_DIFFN_APB_DE_REGEN R_MYOP_MYDY_APB_DE_REGEN</parents>
			<probabilities>1 0 0 1 0 1 0 1</probabilities>
		</cpt>
		<cpt id="R_DE_REGEN_APB_NMT">
			<state id="NO" label="F656" />
			<state id="MOD_PRE" label="F657" />
			<state id="SEV_PRE" label="F658" />
			<state id="MLD_POST" label="F659" />
			<state id="MOD_POST" label="F660" />
			<state id="SEV_POST" label="F661" />
			<state id="MIXED" label="F662" />
			<parents>R_APB_DE_REGEN</parents>
			<probabilities>1 0 0 0 0 0 0 0.949 0.003 0.001 0.04 0.003 0.001 0.003</probabilities>
		</cpt>
		<cpt id="R_MYAS_APB_NMT">
			<state id="NO" label="F649" />
			<state id="MOD_PRE" label="F650" />
			<state id="SEV_PRE" label="F651" />
			<state id="MLD_POST" label="F652" />
			<state id="MOD_POST" label="F653" />
			<state id="SEV_POST" label="F654" />
			<state id="MIXED" label="F655" />
			<probabilities>1 0 0 0 0 0 0</probabilities>
		</cpt>
		<cpt id="R_APB_NMT">
			<state id="NO" label="F347" />
			<state id="MOD_PRE" label="F348" />
			<state id="SEV_PRE" label="F349" />
			<state id="MLD_POST" label="F350" />
			<state id="MOD_POST" label="F351" />
			<state id="SEV_POST" label="F352" />
			<state id="MIXED" label="F353" />
			<parents>R_DE_REGEN_APB_NMT R_MYAS_APB_NMT</parents>
			<probabilities>1 0 0 0 0 0 0 0 1 0 0 0 0 0 0 0 1 0 0 0 0 0 0 0 1 0 0 0 0 0 0 0 1 0 0 0 0 0 0 0 1 0 0 0 0 0 0 0 1 0 1 0 0 0 0 0 0 0 1 0 0 0 0 0 0 1 0 0 0 0 0 0 0 0 0 0 1 0 0 0 0 0 0 1 0 0 0 0 0 0 1 0 0 0 0 0 0 1 0 0 1 0 0 0 0 0 0 1 0 0 0 0 0 0 1 0 0 0 0 0 0 0 0 0 0 1 0 0 0 0 0 0 1 0 0 0 0 0 0 1 0 0 0 0 0 0 1 0 0 0 1 0 0 0 0 0 0 0 0 0 1 0 0 0 0 0 0 1 0 0 0 0 1 0 0 0 0 0 0 1 0 0 0 0 0 0 0 1 0 0 0 0 0 0 0 1 0 0 0 0 1 0 0 0 0 0 0 0 0 1 0 0 0 0 0 0 1 0 0 0 0 1 0 0 0 0 0 0 0 1 0 0 0 0 0 0 1 0 0 0 0 0 0 0 1 0 0 0 0 0 1 0 0 0 0 0 0 0 1 0 0 0 0 0 0 1 0 0 0 0 0 1 0 0 0 0 0 0 1 0 0 0 0 0 0 1 0 0 0 0 0 0 0 1 0 0 0 0 0 0 1 0 0 0 0 0 0 1 0 0 0 0 0 0 1 0 0 0 0 0 0 1 0 0 0 0 0 0 1 0 0 0 0 0 0 1 0 0 0 0 0 0 1</probabilities>
		</cpt>
		<cpt id="R_MYDY_APB_MUSIZE">
			<state id="V_SMALL" label="F820" />
			<state id="SMALL" label="F821" />
			<state id="NORMAL" label="F822" />
			<state id="INCR" label="F823" />
			<state id="LARGE" label="F824" />
			<state id="V_LARGE" label="F825" />
			<probabilities>0 0 1 0 0 0</probabilities>
		</cpt>
		<cpt id="R_MYOP_APB_MUSIZE">
			<state id="V_SMALL" label="F814" />
			<state id="SMALL" label="F815" />
			<state id="NORMAL" label="F816" />
			<state id="INCR" label="F817" />
			<state id="LARGE" label="F818" />
			<state id="V_LARGE" label="F819" />
			<probabilities>0 0 1 0 0 0</probabilities>
		</cpt>
		<cpt id="R_MYOP_MYDY_APB_MUSIZE">
			<state id="V_SMALL" label="F643" />
			<state id="SMALL" label="F644" />
			<state id="NORMAL" label="F645" />
			<state id="INCR" label="F646" />
			<state id="LARGE" label="F647" />
			<state id="V_LARGE" label="F648" />
			<parents>R_MYDY_APB_MUSIZE R_MYOP_APB_MUSIZE</parents>
			<probabilities>1 0 0 0 0 0 0.9983 0.0017 0 0 0 0 0.9857 0.0143 0 0 0 0 0.3673 0.6298 0.0029 0 0 0 0.01150115 0.86168617 0.12491249 0.00190019 0 0 0 0.1596 0.7368 0.1016 0.002 0 0.9983 0.0017 0 0 0 0 0.8667 0.1329 0.0004 0 0 0 0.01390139 0.96369637 0.02240224 0 0 0 0.0003 0.3514 0.6035 0.0443 0.0005000000000000001 0 0 0.0105 0.5726 0.3806 0.0359 0.0004 0 0 0.07920000000000001 0.4758 0.4066 0.0384 0.9857 0.0143 0 0 0 0 0.01390139 0.96369637 0.02240224 0 0 0 0 0 1 0 0 0 0 0 0.04060406 0.92779278 0.03160316 0 0 0 0 0.0319 0.9362 0.0319 0 0 0 0 0.0329 0.9671 0.3673 0.6298 0.0029 0 0 0 0.0003 0.3514 0.6035 0.0443 0.0005000000000000001 0 0 0 0.04060406 0.92779278 0.03160316 0 0 0 0.00039996 0.10988901 0.77982202 0.10988901 0 0 0 0.00030003 0.12341234 0.87628763 0 0 0 0 0.0028 0.9972 0.01150115 0.86168617 0.12491249 0.00190019 0 0 0 0.0105 0.5726 0.3806 0.0359 0.0004 0 0 0 0.0319 0.9362 0.0319 0 0 0 0.00030003 0.12341234 0.87628763 0 0 0 0 0.0028 0.9972 0 0 0 0 0.0001 0.9999 0 0.1596 0.7368 0.1016 0.002 0 0 0 0.07920000000000001 0.4758 0.4066 0.0384 0 0 0 0 0.0329 0.9671 0 0 0 0 0.0028 0.9972 0 0 0 0 0.0001 0.9999 0 0 0 0 0 1</probabilities>
		</cpt>
		<cpt id="R_LNLW_APB_MUSIZE">
			<state id="V_SMALL" label="F762" />
			<state id="SMALL" label="F763" />
			<state id="NORMAL" label="F764" />
			<state id="INCR" label="F765" />
			<state id="LARGE" label="F766" />
			<state id="V_LARGE" label="F767" />
			<parents>R_LNLW_MED_SEV R_LNLW_MED_TIME R_LNLW_MED_PATHO</parents>
			<probabilities>0 0 1 0 0 0 0 0 1 0 0 0 0 0 1 0 0 0 1 0 0 0 0 0 0 1 0 0 0 0 0 0 1 0 0 0 0 0 1 0 0 0 0 0 1 0 0 0 1 0 0 0 0 0 0 1 0 0 0 0 0 0 1 0 0 0 0 0 1 0 0 0 0 0 1 0 0 0 1 0 0 0 0 0 0 1 0 0 0 0 0 0 1 0 0 0 0 0 1 0 0 0 0 0 1 0 0 0 1 0 0 0 0 0 0 1 0 0 0 0 0 0 1 0 0 0 0 0 1 0 0 0 0 0 1 0 0 0 1 0 0 0 0 0 0 1 0 0 0 0 0 0 1 0 0 0 0 0 1 0 0 0 0 0 1 0 0 0 1 0 0 0 0 0 0 1 0 0 0 0 0 0 0.9 0.1 0 0 0 0 0.95 0.05 0 0 0 0 0.8 0.2 0 0 1 0 0 0 0 0 0 1 0 0 0 0 0 0 0.9 0.1 0 0 0 0 0.95 0.05 0 0 0 0 0.8 0.2 0 0 1 0 0 0 0 0 0 1 0 0 0 0 0 0 1 0 0 0 0 0 1 0 0 0 0 0 1 0 0 0 1 0 0 0 0 0 0 1 0 0 0 0 0 0 1 0 0 0 0 0 1 0 0 0 0 0 1 0 0 0 1 0 0 0 0 0 0 1 0 0 0 0 0 0 0.2 0.7 0.1 0 0 0 0.7 0.25 0.05 0 0 0 0 0.8 0.2 0 1 0 0 0 0 0 0 1 0 0 0 0 0 0 0.2 0.7 0.1 0 0 0 0.7 0.25 0.05 0 0 0 0 0.8 0.2 0 1 0 0 0 0 0 0 1 0 0 0 0 0 0 1 0 0 0 0 0 1 0 0 0 0 0 1 0 0 0 1 0 0 0 0 0 0 1 0 0 0 0 0 0 1 0 0 0 0 0 1 0 0 0 0 0 1 0 0 0 1 0 0 0 0 0 0 1 0 0 0 0 0 0 0 0.2 0.7 0.1 0 0 0 0.25 0.7 0.05 0 0 0 0.1 0.6 0.3 1 0 0 0 0 0 0 1 0 0 0 0 0 0 0 0.2 0.7 0.1 0 0 0 0.25 0.7 0.05 0 0 0 0.1 0.6 0.3 1 0 0 0 0 0 0 1 0 0 0 0 0 0 1 0 0 0 0 0 1 0 0 0 0 0 1 0 0 0 1 0 0 0 0 0 0 1 0 0 0 0 0 0 1 0 0 0 0 0 1 0 0 0 0 0 1 0 0 0 1 0 0 0 0 0 0 1 0 0 0 0 0 0 0 0.2 0.7 0.1 0 0 0 0.25 0.7 0.05 0 0 0 0.1 0.6 0.3 1 0 0 0 0 0 0 1 0 0 0 0 0 0 0 0.2 0.7 0.1 0 0 0 0.25 0.7 0.05 0 0 0 0.1 0.6 0.3 1 0 0 0 0 0 0 1 0 0 0 0</probabilities>
		</cpt>
		<cpt id="R_DIFFN_APB_MUSIZE">
			<state id="V_SMALL" label="F756" />
			<state id="SMALL" label="F757" />
			<state id="NORMAL" label="F758" />
			<state id="INCR" label="F759" />
			<state id="LARGE" label="F760" />
			<state id="V_LARGE" label="F761" />
			<parents>DIFFN_M_SEV_DIST DIFFN_TIME DIFFN_PATHO</parents>
			<probabilities>0 0 1 0 0 0 0 0 1 0 0 0 0 0 1 0 0 0 0 0 1 0 0 0 0 0 1 0 0 0 0 0 1 0 0 0 0 0 1 0 0 0 0 0 1 0 0 0 0 0 1 0 0 0 0 0 1 0 0 0 0 0 1 0 0 0 0 0 1 0 0 0 0 0 1 0 0 0 0 0 1 0 0 0 0 0 1 0 0 0 0 0 1 0 0 0 0 0 1 0 0 0 0 0 1 0 0 0 0 0 1 0 0 0 0 0 1 0 0 0 0 0 1 0 0 0 0 0 1 0 0 0 0 0 1 0 0 0 1 0 0 0 0 0 0 1 0 0 0 0 0 0 1 0 0 0 0 0 1 0 0 0 0 0 1 0 0 0 1 0 0 0 0 0 0 1 0 0 0 0 0 0 0.7 0.3 0 0 0 0 0.9 0.1 0 0 0 0 0.7 0.3 0 0 1 0 0 0 0 0 0 1 0 0 0 0 0 0 0.7 0.3 0 0 0 0 0.9 0.1 0 0 0 0 0.7 0.3 0 0 1 0 0 0 0 0 0 1 0 0 0 0 0 0 1 0 0 0 0 0 1 0 0 0 0 0 1 0 0 0 1 0 0 0 0 0 0 1 0 0 0 0 0 0 1 0 0 0 0 0 1 0 0 0 0 0 1 0 0 0 1 0 0 0 0 0 0 1 0 0 0 0 0 0 0 0.8 0.2 0 0 0 0.7 0.2 0.1 0 0 0 0 0.7 0.3 0 1 0 0 0 0 0 0 1 0 0 0 0 0 0 0 0.8 0.2 0 0 0 0.7 0.2 0.1 0 0 0 0 0.7 0.3 0 1 0 0 0 0 0 0 1 0 0 0 0 0 0 1 0 0 0 0 0 1 0 0 0 0 0 1 0 0 0 1 0 0 0 0 0 0 1 0 0 0 0 0 0 1 0 0 0 0 0 1 0 0 0 0 0 1 0 0 0 1 0 0 0 0 0 0 1 0 0 0 0 0 0 0 0 0.5 0.5 0 0 0 0.25 0.5 0.25 0 0 0 0 0.5 0.5 1 0 0 0 0 0 0 1 0 0 0 0 0 0 0 0 0.5 0.5 0 0 0 0.25 0.5 0.25 0 0 0 0 0.5 0.5 1 0 0 0 0 0 0 1 0 0 0 0</probabilities>
		</cpt>
		<cpt id="R_DIFFN_LNLW_APB_MUSIZE">
			<state id="V_SMALL" label="F718" />
			<state id="SMALL" label="F719" />
			<state id="NORMAL" label="F720" />
			<state id="INCR" label="F721" />
			<state id="LARGE" label="F722" />
			<state id="V_LARGE" label="F723" />
			<parents>R_LNLW_APB_MUSIZE R_DIFFN_APB_MUSIZE</parents>
			<probabilities>1 0 0 0 0 0 1 0 0 0 0 0 1 0 0 0 0 0 1 0 0 0 0 0 1 0 0 0 0 0 1 0 0 0 0 0 1 0 0 0 0 0 0 1 0 0 0 0 0 1 0 0 0 0 0 1 0 0 0 0 0 1 0 0 0 0 0 0.99939994 0.00050005 0.00010001 0 0 1 0 0 0 0 0 0 1 0 0 0 0 0 0 0.9981 0.0019 0 0 0 0 0.0019 0.9981 0 0 0 0 0 0 1 0 0 0 0 0 0 1 1 0 0 0 0 0 0 1 0 0 0 0 0 0 0.0019 0.9981 0 0 0 0 0 1 0 0 0 0 0 0 1 0 0 0 0 0 0 1 1 0 0 0 0 0 0 1 0 0 0 0 0 0 0 0 1 0 0 0 0 0 1 0 0 0 0 0 1 0 0 0 0 0 0 1 1 0 0 0 0 0 0 0.99939994 0.00050005 0.00010001 0 0 0 0 0 0 0 1 0 0 0 0 0 1 0 0 0 0 0 1 0 0 0 0 0 1</probabilities>
		</cpt>
		<cpt id="R_LNLBE_APB_MUSIZE">
			<state id="V_SMALL" label="F740" />
			<state id="SMALL" label="F741" />
			<state id="NORMAL" label="F742" />
			<state id="INCR" label="F743" />
			<state id="LARGE" label="F744" />
			<state id="V_LARGE" label="F745" />
			<probabilities>0 0 1 0 0 0</probabilities>
		</cpt>
		<cpt id="R_LNLLP_APB_MUSIZE">
			<state id="V_SMALL" label="F918" />
			<state id="SMALL" label="F919" />
			<state id="NORMAL" label="F920" />
			<state id="INCR" label="F921" />
			<state id="LARGE" label="F922" />
			<state id="V_LARGE" label="F923" />
			<probabilities>0 0 1 0 0 0</probabilities>
		</cpt>
		<cpt id="R_LNLT1_APB_MUSIZE">
			<state id="V_SMALL" label="F5626" />
			<state id="SMALL" label="F5627" />
			<state id="NORMAL" label="F5628" />
			<state id="INCR" label="F5629" />
			<state id="LARGE" label="F5630" />
			<state id="V_LARGE" label="F5631" />
			<probabilities>0 0 1 0 0 0</probabilities>
		</cpt>
		<cpt id="R_LNLT1_LP_APB_MUSIZE">
			<state id="V_SMALL" label="F734" />
			<state id="SMALL" label="F735" />
			<state id="NORMAL" label="F736" />
			<state id="INCR" label="F737" />
			<state id="LARGE" label="F738" />
			<state id="V_LARGE" label="F739" />
			<parents>R_LNLLP_APB_MUSIZE R_LNLT1_APB_MUSIZE</parents>
			<probabilities>1 0 0 0 0 0 1 0 0 0 0 0 1 0 0 0 0 0 1 0 0 0 0 0 1 0 0 0 0 0 1 0 0 0 0 0 1 0 0 0 0 0 0 1 0 0 0 0 0 1 0 0 0 0 0 1 0 0 0 0 0 1 0 0 0 0 0 0.99939994 0.00050005 0.00010001 0 0 1 0 0 0 0 0 0 1 0 0 0 0 0 0 1 0 0 0 0 0 0 1 0 0 0 0 0 0 1 0 0 0 0 0 0 1 1 0 0 0 0 0 0 1 0 0 0 0 0 0 0 1 0 0 0 0 0 1 0 0 0 0 0 0 1 0 0 0 0 0 0 1 1 0 0 0 0 0 0 1 0 0 0 0 0 0 0 0 1 0 0 0 0 0 1 0 0 0 0 0 1 0 0 0 0 0 0 1 1 0 0 0 0 0 0 0.99939994 0.00050005 0.00010001 0 0 0 0 0 0 0 1 0 0 0 0 0 1 0 0 0 0 0 1 0 0 0 0 0 1</probabilities>
		</cpt>
		<cpt id="R_LNLT1_LP_BE_APB_MUSIZE">
			<state id="V_SMALL" label="F712" />
			<state id="SMALL" label="F713" />
			<state id="NORMAL" label="F714" />
			<state id="INCR" label="F715" />
			<state id="LARGE" label="F716" />
			<state id="V_LARGE" label="F717" />
			<parents>R_LNLBE_APB_MUSIZE R_LNLT1_LP_APB_MUSIZE</parents>
			<probabilities>1 0 0 0 0 0 1 0 0 0 0 0 1 0 0 0 0 0 1 0 0 0 0 0 1 0 0 0 0 0 1 0 0 0 0 0 1 0 0 0 0 0 0 1 0 0 0 0 0 1 0 0 0 0 0 1 0 0 0 0 0 1 0 0 0 0 0 0.99939994 0.00050005 0.00010001 0 0 1 0 0 0 0 0 0 1 0 0 0 0 0 0 1 0 0 0 0 0 0 1 0 0 0 0 0 0 1 0 0 0 0 0 0 1 1 0 0 0 0 0 0 1 0 0 0 0 0 0 0 1 0 0 0 0 0 1 0 0 0 0 0 0 1 0 0 0 0 0 0 1 1 0 0 0 0 0 0 1 0 0 0 0 0 0 0 0 1 0 0 0 0 0 1 0 0 0 0 0 1 0 0 0 0 0 0 1 1 0 0 0 0 0 0 0.99939994 0.00050005 0.00010001 0 0 0 0 0 0 0 1 0 0 0 0 0 1 0 0 0 0 0 1 0 0 0 0 0 1</probabilities>
		</cpt>
		<cpt id="R_LNL_DIFFN_APB_MUSIZE">
			<state id="V_SMALL" label="F637552" />
			<state id="SMALL" label="F638552" />
			<state id="NORMAL" label="F639552" />
			<state id="INCR" label="F640552" />
			<state id="LARGE" label="F641" />
			<state id="V_LARGE" label="F642" />
			<parents>R_DIFFN_LNLW_APB_MUSIZE R_LNLT1_LP_BE_APB_MUSIZE</parents>
			<probabilities>1 0 0 0 0 0 1 0 0 0 0 0 1 0 0 0 0 0 1 0 0 0 0 0 1 0 0 0 0 0 1 0 0 0 0 0 1 0 0 0 0 0 0 1 0 0 0 0 0 1 0 0 0 0 0 1 0 0 0 0 0 1 0 0 0 0 0 0.99939994 0.00050005 0.00010001 0 0 1 0 0 0 0 0 0 1 0 0 0 0 0 0 0.9981 0.0019 0 0 0 0 0.0019 0.9981 0 0 0 0 0 0 1 0 0 0 0 0 0 1 1 0 0 0 0 0 0 1 0 0 0 0 0 0 0.0019 0.9981 0 0 0 0 0 1 0 0 0 0 0 0 1 0 0 0 0 0 0 1 1 0 0 0 0 0 0 1 0 0 0 0 0 0 0 0 1 0 0 0 0 0 1 0 0 0 0 0 1 0 0 0 0 0 0 1 1 0 0 0 0 0 0 0.99939994 0.00050005 0.00010001 0 0 0 0 0 0 0 1 0 0 0 0 0 1 0 0 0 0 0 1 0 0 0 0 0 1</probabilities>
		</cpt>
		<cpt id="R_APB_MUSIZE">
			<state id="V_SMALL" label="F243" />
			<state id="SMALL" label="F244" />
			<state id="NORMAL" label="F245" />
			<state id="INCR" label="F246" />
			<state id="LARGE" label="F247" />
			<state id="V_LARGE" label="F248" />
			<state id="OTHER" label="F249" />
			<parents>R_MYOP_MYDY_APB_MUSIZE R_LNL_DIFFN_APB_MUSIZE</parents>
			<probabilities>0.9791 0.0009 0 0 0 0 0.02 0.9637 0.0163 0 0 0 0 0.02 0.92219222 0.05780578 0 0 0 0 0.020002 0.39793979 0.56635664 0.01550155 0.00020002 0 0 0.020002 0.0435 0.7319 0.193 0.0114 0.0002 0 0.02 0.00120012 0.23172317 0.58825883 0.14741474 0.01120112 0.00020002 0.020002 0.9637 0.0163 0 0 0 0 0.02 0.7493 0.2257 0.004900000000000002 0.0001 0 0 0.02 0.0537 0.8568 0.0684 0.0011 0 0 0.02 0.00389961 0.38106189 0.50654935 0.08409158999999999 0.00429957 9.999e-05 0.019998 0 0.0395 0.5059 0.355 0.07580000000000001 0.0038 0.02 0 0.00110011 0.13571357 0.40254025 0.36313631 0.07750775 0.020002 0.92219222 0.05780578 0 0 0 0 0.020002 0.0537 0.8568 0.0684 0.0011 0 0 0.02 0 0 0.98 0 0 0 0.02 0 0 0.09080908 0.81858186 0.07060706 0 0.020002 0 0 0.0001 0.0721 0.8357 0.0721 0.02 0 0 0 0.0001 0.07779999999999999 0.9021 0.02 0.39793979 0.56635664 0.01550155 0.00020002 0 0 0.020002 0.00389961 0.38106189 0.50654935 0.08409158999999999 0.00429957 9.999e-05 0.019998 0 0 0.09080908 0.81858186 0.07060706 0 0.020002 0 0 0.00359964 0.16548345 0.64543546 0.16548345 0.019998 0 0 0 0.0034 0.1993 0.7773 0.02 0 0 0 0 0.01620162 0.96379638 0.020002 0.0435 0.7319 0.193 0.0114 0.0002 0 0.02 0 0.0395 0.5059 0.355 0.07580000000000001 0.0038 0.02 0 0 0.0001 0.0721 0.8357 0.0721 0.02 0 0 0 0.0034 0.1993 0.7773 0.02 0 0 0 0 0.01620162 0.96379638 0.020002 0 0 0 0 0.0011 0.9789 0.02 0.00120012 0.23172317 0.58825883 0.14741474 0.01120112 0.00020002 0.020002 0 0.00110011 0.13571357 0.40254025 0.36313631 0.07750775 0.020002 0 0 0 0.0001 0.07779999999999999 0.9021 0.02 0 0 0 0 0.01620162 0.96379638 0.020002 0 0 0 0 0.0011 0.9789 0.02 0 0 0 0 0.0001 0.9799 0.02</probabilities>
		</cpt>
		<cpt id="R_APB_EFFMUS">
			<state id="V_SMALL" label="F263" />
			<state id="SMALL" label="F264" />
			<state id="NORMAL" label="F265" />
			<state id="INCR" label="F266" />
			<state id="LARGE" label="F267" />
			<state id="V_LARGE" label="F268" />
			<state id="OTHER" label="F269" />
			<parents>R_APB_NMT R_APB_MUSIZE</parents>
			<probabilities>0.9683 0.0117 0 0 0 0 0.02 0.0164 0.9421 0.0215 0 0 0 0.02 0 0 0.97369737 0.006300630000000002 0 0 0.020002 0 0 0.008200000000000001 0.9646 0.0072 0 0.02 0 0 0 0.0072 0.9656 0.0072 0.02 0 0 0 0 0.0072 0.9728 0.02 0.1111 0.2284 0.2388 0.1875 0.1354 0.0788 0.02 0.9794 0.0006000000000000003 0 0 0 0 0.02 0.8182 0.1616 0.0002 0 0 0 0.02 0.0007000700000000002 0.94039404 0.03890389 0 0 0 0.020002 0 0.0571 0.8829 0.04 0 0 0.02 0 0.0001 0.3198 0.6276 0.0325 0 0.02 0 0 0.0034 0.2908 0.6521 0.0337 0.02 0.24267573 0.30486951 0.20687931 0.12458754 0.06949305 0.03149685 0.019998 0.9799 0.0001 0 0 0 0 0.02 0.9738 0.006200000000000002 0 0 0 0 0.02 0.7833 0.1966 0.0001 0 0 0 0.02 0.0541 0.9055 0.0203 0.0001 0 0 0.02 0.0004 0.4664 0.4912 0.0219 0.0001 0 0.02 0 0.01269746 0.62637473 0.32423515 0.01659668 9.998e-05 0.019996 0.4236 0.3196 0.1381 0.06279999999999999 0.0267 0.0092 0.02 0.9742 0.005800000000000001 0 0 0 0 0.02 0.0329 0.9359 0.0112 0 0 0 0.02 0 9.999e-05 0.97830217 0.00159984 0 0 0.019998 0 0 0.03260326 0.94569457 0.00170017 0 0.020002 0 0 0 0.0287 0.9496 0.0017 0.02 0 0 0 0 0.0287 0.9513 0.02 0.1227 0.2392 0.2382 0.1813 0.127 0.0716 0.02 0.9789 0.0011 0 0 0 0 0.02 0.3885 0.59 0.0015 0 0 0 0.02 0 0.3781 0.6016 0.0003 0 0 0.02 0 0 0.7931 0.1868 0.0001 0 0.02 0 0 0.0071 0.7665 0.2063 0.0001 0.02 0 0 0 0.006200000000000002 0.7673 0.2065 0.02 0.17768223 0.27767223 0.22747725 0.15348465 0.09559044 0.04809519 0.019998 0.9799 0.0001 0 0 0 0 0.02 0.9362 0.0438 0 0 0 0 0.02 0.01149885 0.9653034700000001 0.00319968 0 0 0 0.019998 0 0.439 0.5362 0.0048 0 0 0.02 0 0.00150015 0.7018701899999999 0.27382738 0.002800280000000001 0 0.020002 0 0 0.03839616 0.64913509 0.28947105 0.0029997 0.019998 0.2958 0.3186 0.1878 0.1033 0.0527 0.0218 0.02 0.7927 0.1721 0.0135 0.0016 0.0001 0 0.02 0.4929507 0.37036296 0.09059093999999999 0.02169783 0.00389961 0.0004999500000000002 0.019998 0.15051505 0.39773977 0.27152715 0.11721172 0.03610361 0.00690069 0.020002 0.0391 0.2318 0.3318 0.2294 0.1131 0.0348 0.02 0.006500000000000002 0.0866 0.2598 0.2877 0.2273 0.1121 0.02 0.0007998400000000001 0.02239552 0.14087183 0.24985003 0.31623675 0.24985003 0.019996 0.21972197 0.26492649 0.20142014 0.14061406 0.09640964 0.05690569 0.020002</probabilities>
		</cpt>
		<cpt id="R_LNLW_MED_BLOCK">
			<state id="NO" label="F663571" />
			<state id="MILD" label="F664" />
			<state id="MOD" label="F665" />
			<state id="SEV" label="F666" />
			<state id="TOTAL" label="F667" />
			<parents>R_LNLW_MED_SEV R_LNLW_MED_PATHO</parents>
			<probabilities>1 0 0 0 0 1 0 0 0 0 1 0 0 0 0 1 0 0 0 0 1 0 0 0 0 1 0 0 0 0 0 0.5 0.5 0 0 1 0 0 0 0 1 0 0 0 0 1 0 0 0 0 0.6 0.4 0 0 0 0 0.5 0.5 0 0 1 0 0 0 0 1 0 0 0 0 1 0 0 0 0 0.25 0.5 0.25 0 0 0 0 0.4 0.5 0.1 1 0 0 0 0 1 0 0 0 0 1 0 0 0 0 0.2 0.2 0.2 0.2 0.2 0 0 0 0 1 0.2 0.2 0.2 0.2 0.2 1 0 0 0 0 1 0 0 0 0</probabilities>
		</cpt>
		<cpt id="R_MED_BLOCK_WA">
			<state id="NO" label="F538" />
			<state id="MILD" label="F539" />
			<state id="MOD" label="F540" />
			<state id="SEV" label="F541" />
			<state id="TOTAL" label="F542" />
			<parents>R_DIFFN_MED_BLOCK R_LNLW_MED_BLOCK</parents>
			<probabilities>1 0 0 0 0 0.0077 0.9923 0 0 0 0.0007000000000000001 0.0234 0.9759 0 0 0.0019 0.006 0.0588 0.9333 0 0 0 0 0 1 0.0077 0.9923 0 0 0 0.0001 0.498 0.5019 0 0 0 0.0032 0.9968 0 0 0.001 0.0033 0.0376 0.9581 0 0 0 0 0 1 0.0007000000000000001 0.0234 0.9759 0 0 0 0.0032 0.9968 0 0 0 0.0007000000000000001 0.4328 0.5665 0 0.0003 0.0011 0.0159 0.9827 0 0 0 0 0 1 0.0019 0.006 0.0588 0.9333 0 0.001 0.0033 0.0376 0.9581 0 0.0003 0.0011 0.0159 0.9827 0 0.00030003 0.00110011 0.01250125 0.98609861 0 0 0 0 0 1 0 0 0 0 1 0 0 0 0 1 0 0 0 0 1 0 0 0 0 1 0 0 0 0 1</probabilities>
		</cpt>
		<cpt id="R_APB_MULOSS">
			<state id="NO" label="F254" />
			<state id="MILD" label="F255" />
			<state id="MOD" label="F256" />
			<state id="SEV" label="F257" />
			<state id="TOTAL" label="F258" />
			<state id="OTHER" label="F259" />
			<parents>R_MED_BLOCK_WA R_APB_MALOSS</parents>
			<probabilities>0.98 0 0 0 0 0.02 0.0167 0.9613 0.002 0 0 0.02 0.00019998 0.05349465 0.92370763 0.00259974 0 0.019998 0 0.00030003 0.04810481 0.93159316 0 0.020002 0 0 0 0 0.98 0.02 0.1427 0.2958 0.4254 0.1161 0 0.02 0.9746 0.0054 0 0 0 0.02 0.00340034 0.9529953 0.02360236 0 0 0.020002 0 0.02340234 0.94509451 0.01150115 0 0.020002 0 0.00010001 0.0270027 0.95289529 0 0.020002 0 0 0 0 0.98 0.02 0.1157 0.2677 0.4444 0.1522 0 0.02 0.0664 0.9136 0 0 0 0.02 0.0002 0.2725 0.7073 0 0 0.02 0 0.0048 0.7523 0.2229 0 0.02 0 0 0.0091 0.9709 0 0.02 0 0 0 0 0.98 0.02 0.06939306000000001 0.20107989 0.45265473 0.25687431 0 0.019998 0.016 0.1801 0.7138 0.0701 0 0.02 0.0009 0.0263 0.4192 0.5336 0 0.02 0 0.00130013 0.06370637 0.9149915 0 0.020002 0 0.0001 0.008699999999999999 0.9712 0 0.02 0 0 0 0 0.98 0.02 0.0173 0.0696 0.2854 0.6077 0 0.02 0 0 0 0 0.98 0.02 0 0 0 0 0.98 0.02 0 0 0 0 0.98 0.02 0 0 0 0 0.98 0.02 0 0 0 0 0.98 0.02 0 0 0 0 0.98 0.02</probabilities>
		</cpt>
		<cpt id="R_APB_ALLAMP_WA">
			<state id="ZERO" label="F188" />
			<state id="A0_01" label="F189" />
			<state id="A0_10" label="F190" />
			<state id="A0_30" label="F191" />
			<state id="A0_70" label="F192" />
			<state id="A1_00" label="F193" />
			<state id="A2_00" label="F194" />
			<state id="A4_00" label="F195" />
			<state id="A8_00" label="F196" />
			<parents>R_APB_EFFMUS R_APB_MULOSS</parents>
			<probabilities>0.00260026 0.36873687 0.60756076 0.02080208 0.00030003 0 0 0 0 0.0409 0.8924 0.06610000000000001 0.0006000000000000003 0 0 0 0 0 0.2926 0.7043 0.0031 0 0 0 0 0 0 0.781 0.2189 0.0001 0 0 0 0 0 0 0.9907 0.009299999999999999 0 0 0 0 0 0 0 0.35956404 0.51474853 0.09409059 0.0239976 0.00459954 0.0019998 0.00079992 0.00019998 0 0 0.0002 0.4149 0.4809 0.08019999999999999 0.0218 0.002 0 0 0 0.01 0.77 0.2049 0.0128 0.0022 0.0001 0 0 0.0091 0.4203 0.5312 0.038 0.0012 0.0002 0 0 0 0.26692669 0.71617162 0.01660166 0.00030003 0 0 0 0 0 0.9858 0.0142 0 0 0 0 0 0 0 0.13358664 0.38546145 0.26977302 0.13078692 0.04009599 0.02189781 0.01269873 0.00439956 0.00129987 0 0 0 0 0.0215 0.9785 0 0 0 0 0 0 0.2489 0.7398 0.0113 0 0 0 0 0 0.30946905 0.68073193 0.009499050000000002 0.00029997 0 0 0 9.999e-05 0.10278972 0.87921208 0.01779822 9.999e-05 0 0 0 0 0.9865 0.0135 0 0 0 0 0 0 0 0.009599999999999999 0.0788 0.2992 0.2816 0.1319 0.0873 0.0689 0.0313 0.0114 0 0 0 0 0.0018 0.0536 0.8696 0.075 0 0 0 0 0.00420042 0.34683468 0.53485349 0.11371137 0.0004000400000000002 0 0 0 0.018 0.6298 0.2744 0.0746 0.0032 0 0 0 0.00440044 0.81118112 0.17621762 0.00730073 0.0009000900000000001 0 0 0 0.982 0.018 0 0 0 0 0 0 0 0.00260052 0.02890578 0.20404081 0.26575315 0.15943189 0.11992398 0.1190238 0.06841368 0.03190638 0 0 0 0 0 0 0.0736 0.8528 0.0736 0 0 0 0 0.0064 0.08550000000000001 0.788 0.1197 0.0004 0 0 0.00010001 0.10461046 0.42814281 0.35683568 0.10711071 0.00320032 0 0 9.999e-05 0.4129587 0.49655034 0.07189281 0.01729827 0.00119988 0 0 0.9779 0.0221 0 0 0 0 0 0 0 0.0004999500000000002 0.008399159999999999 0.11818818 0.21387861 0.1629837 0.13818618 0.16908309 0.11988801 0.06889310999999999 0 0 0 0 0 0 0.0001 0.0794 0.9205 0 0 0 0 0 0.00029997 0.11648835 0.76672333 0.11648835 0 0 0 0.00250025 0.09780978 0.24982498 0.5323532399999999 0.11411141 0.00340034 0 0 0.07810781 0.51965197 0.2610261 0.11671167 0.02340234 0.00110011 0 0.973 0.027 0 0 0 0 0 0 0 0.0001 0.0021 0.0586 0.1473 0.1427 0.1363 0.2057 0.1798 0.1274 0.0003 0.006 0.105 0.205 0.1633 0.141 0.1771 0.1279 0.07439999999999999 0.00190019 0.0230023 0.190019 0.26232623 0.16291629 0.12441244 0.12641264 0.0740074 0.0350035 0.01440144 0.09930993 0.30283028 0.27022702 0.12431243 0.08210821 0.06520652 0.03020302 0.01140114 0.1169 0.3697 0.2867 0.1411 0.0431 0.0234 0.0133 0.0045 0.0013 0.9370063 0.06289371000000001 9.999e-05 0 0 0 0 0 0 0.05210521 0.16081608 0.22722272 0.20132013 0.10661066 0.07920792 0.08310831 0.05590559 0.03370337</probabilities>
		</cpt>
		<cpt id="R_MED_AMP_WA">
			<state id="MV_000" label="F171" />
			<state id="MV_13" label="F172" />
			<state id="MV_18" label="F173" />
			<state id="MV_25" label="F174" />
			<state id="MV_35" label="F175" />
			<state id="MV_5" label="F176" />
			<state id="MV_71" label="F177" />
			<state id="MV1" label="F178" />
			<state id="MV1_4" label="F179" />
			<state id="MV2" label="F180" />
			<state id="MV2_8" label="F181" />
			<state id="MV4" label="F182" />
			<state id="MV5_6" label="F183" />
			<state id="MV8" label="F184" />
			<state id="MV11_3" label="F185" />
			<state id="MV16" label="F186" />
			<state id="MV22_6" label="F187" />
			<parents>R_APB_ALLAMP_WA</parents>
			<probabilities>1 0 0 0 0 0 0 0 0 0 0 0 0 0 0 0 0 0.00030003 0.2850285 0.23462346 0.17811781 0.12451245 0.08030803 0.04760476 0.02610261 0.01320132 0.00610061 0.00260026 0.0010001 0.0004000400000000002 0.00010001 0 0 0 0 0.01350135 0.03690369 0.07940794 0.13531353 0.18181818 0.19321932 0.16221622 0.10771077 0.05640564 0.02340234 0.00760076 0.0020002 0.0004000400000000002 0.00010001 0 0 0 0 9.999e-05 0.0005999400000000002 0.00359964 0.01649835 0.05349465 0.12328767 0.20127987 0.23347665 0.19218078 0.11208879 0.04649535 0.01369863 0.00279972 0.00039996 0 0 0 0 0 0 0.00010001 0.0010001 0.00690069 0.03090309 0.09260926 0.18551855 0.24962496 0.2250225 0.13581358 0.05490549 0.01490149 0.00270027 0 0 0 0 0 0 0 0.00030003 0.00310031 0.0190019 0.07230723 0.17361736 0.26222622 0.24972497 0.14971497 0.05670567 0.01330133 0 0 0 0 0 0 0 0 0.0002 0.0017 0.009299999999999999 0.0355 0.0964 0.186 0.2545 0.2471 0.1693 0 0 0 0 0 0 0 0 0 0 0.0004 0.0029 0.0155 0.0599 0.1641 0.3182 0.439 0 0 0 0 0 0 0 0 0 0 0 0.00010001 0.00150015 0.01150115 0.06310631 0.24452445 0.67926793</probabilities>
		</cpt>
		<cpt id="R_MED_LD_WA">
			<state id="NO" label="F550" />
			<state id="MILD" label="F551" />
			<state id="MOD" label="F552" />
			<state id="SEV" label="F553" />
			<parents>R_LNLW_MED_SEV R_LNLW_MED_PATHO</parents>
			<probabilities>1 0 0 0 1 0 0 0 1 0 0 0 1 0 0 0 1 0 0 0 0 1 0 0 0.5 0.5 0 0 1 0 0 0 1 0 0 0 1 0 0 0 0 0 1 0 0.25 0.5 0.25 0 0.5 0.5 0 0 1 0 0 0 1 0 0 0 0 0 0 1 0.05 0.3 0.5 0.15 0 1 0 0 1 0 0 0 1 0 0 0 0.25 0.25 0.25 0.25 0.25 0.25 0.25 0.25 0.25 0.25 0.25 0.25 0.25 0.25 0.25 0.25 0.25 0.25 0.25 0.25</probabilities>
		</cpt>
		<cpt id="R_MED_RD_WA">
			<state id="NO" label="F547" />
			<state id="MOD" label="F548" />
			<state id="SEV" label="F549" />
			<parents>R_LNLW_MED_PATHO</parents>
			<probabilities>1 0 0 1 0 0 1 0 0 0 0 1 0 1 0</probabilities>
		</cpt>
		<cpt id="R_MED_RDLDDEL">
			<state id="MS3_1" label="F490" />
			<state id="MS3_9" label="F491" />
			<state id="MS4_7" label="F492" />
			<state id="MS10_1" label="F493" />
			<state id="MS20_1" label="F494" />
			<parents>R_MED_LD_WA R_MED_RD_WA</parents>
			<probabilities>1 0 0 0 0 0.0019 0.5256999999999999 0.4724 0 0 0.0002 0.0304 0.9694 0 0 0.0964 0.7981 0.1055 0 0 0.00019998 0.04149585 0.95830417 0 0 0.0001 0.0142 0.9857 0 0 0.0032 0.127 0.8698 0 0 0.0001 0.0144 0.9855 0 0 0 0.008999999999999999 0.9808 0.0102 0 0.0009000900000000001 0.002800280000000001 0.01470147 0.98159816 0 0.00019998 0.0005999400000000002 0.003699630000000001 0.99550045 0 0 0.0002 0.0012 0.9984 0.0002</probabilities>
		</cpt>
		<cpt id="R_LNLBE_MED_DIFSLOW">
			<state id="NO" label="F668" />
			<state id="MILD" label="F669" />
			<state id="MOD" label="F670" />
			<state id="SEV" label="F671" />
			<probabilities>1 0 0 0</probabilities>
		</cpt>
		<cpt id="R_MED_DIFSLOW_WA">
			<state id="NO" label="F543" />
			<state id="MILD" label="F544" />
			<state id="MOD" label="F545" />
			<state id="SEV" label="F546" />
			<parents>R_LNLBE_MED_DIFSLOW R_DIFFN_MED_DIFSLOW</parents>
			<probabilities>1 0 0 0 0.01319868 0.98620138 0.0005999400000000002 0 0 0.01810181 0.98189819 0 0 0.0003 0.0252 0.9745 0.01319868 0.98620138 0.0005999400000000002 0 0.0001 0.09520000000000001 0.9046999999999999 0 0 0.0009 0.588 0.4111 0 0 0.00440044 0.9955995600000001 0 0.01810181 0.98189819 0 0 0.0009 0.588 0.4111 0 0 0.002 0.998 0 0 0.0006000000000000003 0.9994 0 0.0003 0.0252 0.9745 0 0 0.00440044 0.9955995600000001 0 0 0.0006000000000000003 0.9994 0 0 0.0005000000000000001 0.9995000000000001</probabilities>
		</cpt>
		<cpt id="R_MED_DCV_WA">
			<state id="M_S60" label="F481" />
			<state id="M_S52" label="F482" />
			<state id="M_S44" label="F483" />
			<state id="M_S36" label="F484" />
			<state id="M_S28" label="F485" />
			<state id="M_S20" label="F486" />
			<state id="M_S14" label="F487" />
			<state id="M_S08" label="F488" />
			<state id="M_S00" label="F489" />
			<parents>R_APB_MALOSS R_MED_DIFSLOW_WA</parents>
			<probabilities>1 0 0 0 0 0 0 0 0 0.008 0.168 0.7407 0.0833 0 0 0 0 0 0.0006998600000000001 0.00589882 0.0614877 0.30063987 0.55258948 0.07818435999999999 0.0004999000000000001 0 0 0.0001 0.0003 0.0018 0.011 0.067 0.2945 0.5047 0.1206 0 0.1136 0.8864 0 0 0 0 0 0 0 0.0008999100000000002 0.03679632 0.55764424 0.40245975 0.00219978 0 0 0 0 0.0002 0.0018 0.0263 0.1887 0.5884 0.1916 0.003 0 0 0 0.00010001 0.0009000900000000001 0.005900590000000001 0.04220422 0.23562356 0.52255226 0.19271927 0 0.0006000000000000003 0.0764 0.8866000000000001 0.0364 0 0 0 0 0 0 0.0007000700000000002 0.05250525 0.57125713 0.37523752 0.00030003 0 0 0 0 0.0001 0.0024 0.0358 0.316 0.5741000000000001 0.0716 0 0 0 0 0.0001 0.0012 0.0121 0.1131 0.4415 0.432 0 0 0 0.0655 0.9298999999999999 0.0046 0 0 0 0 0 0 0.0007000000000000001 0.0745 0.8859 0.0389 0 0 0 0 0 9.999e-05 0.00319968 0.07809219000000001 0.59464054 0.32356764 0.00039996 0 0 0 0 0.00020002 0.002800280000000001 0.04390439 0.29172917 0.66136614 0 0 0 0 0 0 0 0 0 1 0 0 0 0 0 0 0 0 1 0 0 0 0 0 0 0 0 1 0 0 0 0 0 0 0 0 1 0.1523 0.2904 0.3678 0.1726 0.0169 0 0 0 0 0.0168 0.0618 0.2223 0.4015 0.2803 0.0172 0.0001 0 0 0.0009999000000000004 0.00469953 0.0279972 0.11838816 0.36466353 0.39226077 0.09069093 0.00029997 0 0 0.0002 0.0011 0.0057 0.0332 0.1704 0.4424 0.347 0</probabilities>
		</cpt>
		<cpt id="R_MED_ALLDEL_WA">
			<state id="MS0_0" label="F216" />
			<state id="MS0_4" label="F217" />
			<state id="MS0_8" label="F218" />
			<state id="MS1_6" label="F219" />
			<state id="MS3_2" label="F220" />
			<state id="MS6_4" label="F221" />
			<state id="MS12_8" label="F222" />
			<state id="MS25_6" label="F223" />
			<state id="INFIN" label="F224" />
			<parents>R_MED_RDLDDEL R_MED_DCV_WA</parents>
			<probabilities>0.9996 0.0004 0 0 0 0 0 0 0 0.5607 0.4393 0 0 0 0 0 0 0 0.006900000000000001 0.7963 0.1968 0 0 0 0 0 0 0 0.0184 0.9806 0.001 0 0 0 0 0 0 0.0001 0.0179 0.982 0 0 0 0 0 0 0.0002 0.003 0.1393 0.8575 0 0 0 0 0 0 0 0.0006000000000000003 0.8145 0.1849 0 0 0 0 0 0 0.0004000400000000002 0.01130113 0.59735974 0.39093909 0 0 0 0 0 0 0 0 0 0 1 0.05119488 0.22907709 0.56624338 0.15348465 0 0 0 0 0 0.01929807 0.12868713 0.49285071 0.35916408 0 0 0 0 0 0.0027 0.0328 0.2398 0.7246 0.0001 0 0 0 0 0.00010001 0.00330033 0.05470547 0.93819382 0.00370037 0 0 0 0 0 0.00019998 0.004799520000000002 0.50394961 0.49105089 0 0 0 0 0 0 0.0003 0.0188 0.9804 0.0005000000000000001 0 0 0 0 0 0 0 0.0494 0.9506 0 0 0 0 0 0 0.00010001 0.00340034 0.2990299 0.69746975 0 0 0 0 0 0 0 0 0 0 1 0.0001 0.003500000000000001 0.06320000000000001 0.9326 0.0006000000000000003 0 0 0 0 0 0.0011 0.0283 0.9651 0.005500000000000001 0 0 0 0 0 0.0002 0.0075 0.8889 0.1034 0 0 0 0 0 0 0.00030003 0.1850185 0.81468147 0 0 0 0 0 0 0 0.0032 0.9968 0 0 0 0 0 0 0 0.00150015 0.93139314 0.06710671 0 0 0 0 0 0 0 0.001 0.999 0 0 0 0 0 0 0 0.0007000000000000001 0.1112 0.8881 0 0 0 0 0 0 0 0 0 0 1 0.00129987 0.0019998 0.00439956 0.01869813 0.12128787 0.74792521 0.10438956 0 0 0.0010001 0.00160016 0.00370037 0.01610161 0.10931093 0.74217422 0.12611261 0 0 0.00079992 0.00119988 0.00279972 0.01249875 0.09159084000000001 0.72352765 0.16758324 0 0 0.0004999500000000002 0.00079992 0.00179982 0.008699129999999999 0.07029297 0.68023198 0.23767623 0 0 0.0002 0.0004 0.0009 0.0047 0.044 0.5737 0.3761 0 0 0.0001 0.0001 0.0002 0.0013 0.015 0.3152 0.6681 0 0 0 0 0 0.0001 0.0017 0.0786 0.9196 0 0 0 0 0 0 0.00010001 0.009400940000000003 0.9593959399999999 0.03110311 0 0 0 0 0 0 0 0 0 1 0.00010001 0.00010001 0.00030003 0.0009000900000000001 0.004500450000000001 0.04340434 0.5767576800000001 0.37393739 0 0.0001 0.0001 0.0002 0.0008 0.0041 0.0399 0.5568 0.398 0 0.0001 0.0001 0.0002 0.0007000000000000001 0.0034 0.0348 0.5239 0.4368 0 0.0001 0.0001 0.0001 0.0005000000000000001 0.0027 0.0287 0.4783 0.4895 0 0 0 0.00010001 0.00030003 0.00180018 0.0210021 0.40724072 0.56955696 0 0 0 0 0.00010002 0.0008001600000000003 0.01110222 0.28045609 0.70754151 0 0 0 0 0 0.0002 0.003500000000000001 0.138 0.8583 0 0 0 0 0 0 0.00030003 0.02530253 0.9743974399999999 0 0 0 0 0 0 0 0 0 1</probabilities>
		</cpt>
		<cpt id="R_MED_LAT_WA">
			<state id="MS2_3" label="F197" />
			<state id="MS2_7" label="F198" />
			<state id="MS3_1" label="F199" />
			<state id="MS3_5" label="F200" />
			<state id="MS3_9" label="F201" />
			<state id="MS4_3" label="F202" />
			<state id="MS4_7" label="F203" />
			<state id="MS5_3" label="F204" />
			<state id="MS5_9" label="F205" />
			<state id="MS6_5" label="F206" />
			<state id="MS7_1" label="F207" />
			<state id="MS8_0" label="F208" />
			<state id="MS9_0" label="F209" />
			<state id="MS10_0" label="F210" />
			<state id="MS12_0" label="F211" />
			<state id="MS14_0" label="F212" />
			<state id="MS16_0" label="F213" />
			<state id="MS18_0" label="F214" />
			<state id="INFIN" label="F215" />
			<parents>R_MED_ALLDEL_WA</parents>
			<probabilities>0.005900590000000001 0.13261326 0.50325033 0.32263226 0.0350035 0.00060006 0 0 0 0 0 0 0 0 0 0 0 0 0 0.0006999300000000002 0.01959804 0.1689831 0.42545745 0.31276872 0.06719327999999999 0.005299470000000001 0 0 0 0 0 0 0 0 0 0 0 0 0 0.0007000000000000001 0.0194 0.1669 0.4202 0.3089 0.0829 0.001 0 0 0 0 0 0 0 0 0 0 0 0 0 0.0010001 0.01090109 0.06350635 0.19471947 0.39343934 0.29212921 0.04280428 0.00150015 0 0 0 0 0 0 0 0 0 0.0001 0.0003 0.0011 0.0034 0.008999999999999999 0.021 0.0528 0.137 0.2128 0.2375 0.1826 0.1229 0.0179 0.0016 0 0 0 0 0 9.999e-05 0.00019998 0.00039996 0.00079992 0.00139986 0.00249975 0.005099490000000002 0.0119988 0.02149785 0.03539646 0.08919108000000001 0.13978602 0.18288171 0.28117188 0.1889811 0.03589641 0.00259974 9.999e-05 0 0.0002 0.0002 0.0003 0.0004 0.0005000000000000001 0.0007000000000000001 0.0012 0.0022 0.0032 0.0047 0.0109 0.0176 0.028 0.0629 0.1563 0.2269 0.2569 0.2269 0 0.00079992 0.0008999100000000002 0.00109989 0.00119988 0.00139986 0.00169983 0.00249975 0.003699630000000001 0.00459954 0.005599440000000001 0.01059894 0.01559844 0.02139786 0.04329567 0.10068993 0.16488351 0.25357464 0.36646335 0 0 0 0 0 0 0 0 0 0 0 0 0 0 0 0 0 0 0 1</probabilities>
		</cpt>
		<cpt id="R_APB_VOL_ACT">
			<state id="NORMAL" label="F231" />
			<state id="REDUCED" label="F232" />
			<state id="V_RED" label="F233" />
			<state id="ABSENT" label="F234" />
			<probabilities>1 0 0 0</probabilities>
		</cpt>
		<cpt id="R_APB_FORCE">
			<state id="x5" label="F225" />
			<state id="x4" label="F226" />
			<state id="x3" label="F227" />
			<state id="x2" label="F228" />
			<state id="x1" label="F229" />
			<state id="x0" label="F230" />
			<parents>R_APB_VOL_ACT R_APB_ALLAMP_WA</parents>
			<probabilities>0 0 0 0.00409959 0.19078092 0.80511949 0.00159984 0.01859814 0.09359064 0.26787321 0.36586341 0.25247475 0.01490149 0.23542354 0.53315332 0.20152015 0.01490149 0.00010001 0.1538 0.6493 0.1936 0.0033 0 0 0.6667 0.3291 0.004200000000000002 0 0 0 0.94689469 0.05310531 0 0 0 0 0.9782 0.0218 0 0 0 0 0.9971 0.0029 0 0 0 0 0.9996 0.0004 0 0 0 0 0 0 0 0.001 0.0578 0.9412 0.0002 0.0034 0.026 0.1312 0.3333 0.5059 0.0009 0.0256 0.18 0.4308 0.3036 0.0591 0.009800000000000001 0.1589 0.4714 0.3101 0.0485 0.0013 0.05370537 0.42044204 0.45484548 0.0690069 0.0020002 0 0.11731173 0.56585659 0.3010301 0.01570157 0.00010001 0 0.41015898 0.47935206 0.1069893 0.00349965 0 0 0.7017 0.2755 0.0226 0.0002 0 0 0.8804 0.1161 0.003500000000000001 0 0 0 0 0 0 9.999e-05 0.01259874 0.98730127 0 0.0003 0.0044 0.0446 0.2226 0.7281 0 0.0005000000000000001 0.0128 0.1328 0.4061 0.4478 0.0001 0.004900000000000002 0.0751 0.3632 0.429 0.1277 0.00050005 0.02730273 0.24332433 0.50135014 0.21182118 0.01570157 0.00120012 0.06020602 0.38623862 0.45424542 0.09540954 0.00270027 0.02560256 0.2470247 0.48384838 0.21742174 0.02560256 0.00050005 0.1171 0.4443 0.3699 0.0654 0.0033 0 0.32706729 0.4879512 0.17268273 0.0119988 0.00029997 0 0 0 0 0 0.005900590000000001 0.99409941 0 0 0.0005000000000000001 0.009800000000000001 0.1058 0.8839 0 0 0.0003 0.0091 0.1181 0.8725000000000001 0 0 0.0008 0.0215 0.1873 0.7904 0 9.999e-05 0.00249975 0.04719528 0.27557244 0.6746325399999999 0 0.0001 0.0044 0.0713 0.3326 0.5916 0 0.0020002 0.02790279 0.18121812 0.41124112 0.37763776 0.0004 0.0107 0.0847 0.3035 0.3988 0.2019 0.0030003 0.04260426 0.19481948 0.38493849 0.29292929 0.08170817</probabilities>
		</cpt>
		<cpt id="R_APB_MUSCLE_VOL">
			<state id="ATROPHIC" label="F235" />
			<state id="NORMAL" label="F236" />
			<parents>R_APB_MUSIZE R_APB_MALOSS</parents>
			<probabilities>0.9896 0.0104 0.9976 0.0024 0.999 0.001 0.9995000000000001 0.0005000000000000001 0.9989 0.0011 0.9363 0.06370000000000001 0.8137 0.1863 0.9603 0.0397 0.9893 0.0107 0.9969 0.0031 0.9984 0.0016 0.8403 0.1597 0.0209 0.9791 0.5185 0.4815 0.9588 0.0412 0.9953 0.0047 0.9984 0.0016 0.6534 0.3466 0.008999999999999999 0.991 0.1087 0.8913 0.6377 0.3623 0.9518 0.0482 0.9975000000000001 0.002500000000000001 0.4689 0.5311 0.003 0.997 0.0278 0.9722 0.2716 0.7284 0.8234 0.1766 0.9965000000000001 0.003500000000000001 0.3174 0.6826 0.0004 0.9996 0.0046 0.9954 0.0779 0.9221 0.5986 0.4014 0.9956 0.0044 0.1948 0.8052 0.4212 0.5788 0.5185 0.4815 0.6336000000000001 0.3664 0.7685 0.2315 0.9857 0.0143 0.5681 0.4319</probabilities>
		</cpt>
		<cpt id="R_APB_MVA_RECRUIT">
			<state id="FULL" label="F250" />
			<state id="REDUCED" label="F251" />
			<state id="DISCRETE" label="F252" />
			<state id="NO_UNITS" label="F253" />
			<parents>R_APB_MULOSS R_APB_VOL_ACT</parents>
			<probabilities>0.9295 0.07049999999999999 0 0 0.1707 0.7 0.1293 0 0.0038 0.174 0.8222 0 0 0 0 1 0.4821 0.5165 0.0014 0 0.0366 0.5168 0.4466 0 0.0005000000000000001 0.0594 0.9401 0 0 0 0 1 0.06610000000000001 0.7993 0.1346 0 0.0043 0.1788 0.8169 0 0.0001 0.0205 0.9794 0 0 0 0 1 0.00149985 0.13658634 0.86191381 0 0.00029997 0.03479652 0.96490351 0 0 0.0061 0.9939 0 0 0 0 1 0 0 0 1 0 0 0 1 0 0 0 1 0 0 0 1 0.2639736 0.43435656 0.30166983 0 0.1146 0.3465 0.5389 0 0.036 0.2144 0.7496 0 0 0 0 1</probabilities>
		</cpt>
		<cpt id="R_APB_MVA_AMP">
			<state id="INCR" label="F260" />
			<state id="NORMAL" label="F261" />
			<state id="REDUCED" label="F262" />
			<parents>R_APB_EFFMUS</parents>
			<probabilities>0 0.04 0.96 0.01 0.15 0.84 0.05 0.9 0.05 0.5 0.49 0.01 0.85 0.15 0 0.96 0.04 0 0.33 0.34 0.33</probabilities>
		</cpt>
		<cpt id="R_APB_TA_CONCL">
			<state id="x_5ABOVE" label="F270" />
			<state id="x2_5ABOVE" label="F271" />
			<state id="NORMAL" label="F272" />
			<state id="x2_5BELOW" label="F273" />
			<state id="x_5BELOW" label="F274" />
			<parents>R_APB_EFFMUS</parents>
			<probabilities>0 0 0.005000000000000001 0.045 0.95 0 0 0.05 0.9 0.05 0 0.03 0.9399999999999999 0.03 0 0.195 0.6 0.2 0.005000000000000001 0 0.48 0.5 0.02 0 0 0.8 0.195 0.005000000000000001 0 0 0.2 0.2 0.2 0.2 0.2</probabilities>
		</cpt>
		<cpt id="R_APB_MUPAMP">
			<state id="V_SMALL" label="F295" />
			<state id="SMALL" label="F296" />
			<state id="NORMAL" label="F297" />
			<state id="INCR" label="F298" />
			<state id="LARGE" label="F299" />
			<state id="V_LARGE" label="F300" />
			<state id="OTHER" label="F301" />
			<parents>R_APB_EFFMUS</parents>
			<probabilities>0.782 0.195 0.003 0 0 0 0.02 0.10431043 0.77107711 0.10431043 0.00030003 0 0 0.020002 0 0 0.98 0 0 0 0.02 0 0.00029997 0.10108989 0.7471252900000001 0.13148685 0 0.019998 0 0 0.0024 0.1528 0.7968 0.028 0.02 0 0 0 0.0028 0.0968 0.8804 0.02 0.1328 0.1932 0.2189 0.1932 0.1726 0.0693 0.02</probabilities>
		</cpt>
		<cpt id="R_APB_QUAN_MUPAMP">
			<state id="UV34" label="F275" />
			<state id="UV44" label="F276" />
			<state id="UV58" label="F277" />
			<state id="UV74" label="F278" />
			<state id="UV94" label="F279" />
			<state id="UV122" label="F280" />
			<state id="UV156" label="F281" />
			<state id="UV200" label="F282" />
			<state id="UV260" label="F283" />
			<state id="UV330" label="F284" />
			<state id="UV420" label="F285" />
			<state id="UV540" label="F286" />
			<state id="UV700" label="F287" />
			<state id="UV900" label="F288" />
			<state id="UV1150" label="F289" />
			<state id="UV1480" label="F290" />
			<state id="UV1900" label="F291" />
			<state id="UV2440" label="F292" />
			<state id="UV3130" label="F293" />
			<state id="UV4020" label="F294" />
			<parents>R_APB_MUPAMP</parents>
			<probabilities>0.00080024 0.00370111 0.01350405 0.03811143 0.08352506 0.14254276 0.18955687 0.19635891 0.1583475 0.09942983 0.04861458 0.01850555 0.00550165 0.00130039 0.00020006 0 0 0 0 0 0 0.00010002 0.0008001600000000003 0.003700740000000001 0.0135027 0.03810762 0.0835167 0.14252851 0.18953791 0.19633927 0.15833167 0.09941988 0.04860972 0.0185037 0.0055011 0.00130026 0.00020004 0 0 0 0 0 0 0 0 0.00050005 0.00370037 0.01870187 0.06390638999999999 0.14751475 0.23022302 0.24312431 0.17371737 0.0840084 0.02750275 0.00610061 0.0009000900000000001 0.00010001 0 0 0 0 0 0 0 0.0001 0.0008 0.0037 0.0135 0.0381 0.0835 0.1426 0.1896 0.1963 0.1583 0.09950000000000001 0.0487 0.0185 0.005500000000000001 0.0013 0 0 0 0 0 0 0 0.0001 0.0008 0.0038 0.0136 0.0383 0.08409999999999999 0.1435 0.1909 0.1977 0.1594 0.1001 0.049 0.0187 0 0 0 0 0 0 0 0 0 0.0001 0.0006000000000000003 0.0024 0.008200000000000001 0.0232 0.0542 0.1041 0.1645 0.2137 0.2283 0.2007 0.0045 0.007800000000000001 0.0127 0.0197 0.0289 0.0403 0.0531 0.0664 0.07870000000000001 0.0883 0.0939 0.0946 0.09030000000000001 0.08169999999999999 0.07000000000000001 0.0569 0.0438 0.0319 0.0221 0.0144</probabilities>
		</cpt>
		<cpt id="R_APB_QUAL_MUPAMP">
			<state id="V_RED" label="F302" />
			<state id="REDUCED" label="F303" />
			<state id="NORMAL" label="F304" />
			<state id="INCR" label="F305" />
			<state id="V_INCR" label="F306" />
			<parents>R_APB_MUPAMP</parents>
			<probabilities>0.4289 0.5209 0.0499 0.0003 0 0.06469999999999999 0.5494 0.3679 0.018 0 0 0.04790479 0.87538754 0.07670767000000001 0 0 0.008699129999999999 0.28377162 0.67793221 0.02959704 0 0.0002 0.0376 0.6283 0.3339 0 0 0.001 0.0788 0.9202 0.096 0.1884 0.283 0.3014 0.1312</probabilities>
		</cpt>
		<cpt id="R_APB_MUPDUR">
			<state id="V_SMALL" label="F326" />
			<state id="SMALL" label="F327" />
			<state id="NORMAL" label="F328" />
			<state id="INCR" label="F329" />
