<?xml version="1.0" encoding="ISO-8859-1"?>
<smile version="1.0" id="pathfinder" numsamples="10000" discsamples="10000">
	<nodes>
		<cpt id="Fault">
			<state id="AIDS_early" label="F64" />
			<state id="AILD" label="F65" />
			<state id="ALIP" label="F66" />
			<state id="Cat_scratch_disease" label="F67" />
			<state id="Dermatopathic_laden" label="F68" />
			<state id="Florid_follic_hyperp" label="F69" />
			<state id="GLH_hyaline_vacular" label="F70" />
			<state id="GLH_plasma_cell_type" label="F71" />
			<state id="Granulomatous_laden" label="F72" />
			<state id="Histiocytosis_x" label="F73" />
			<state id="Infectious_mono" label="F74" />
			<state id="Leprosy" label="F75" />
			<state id="Lymphangiographic" label="F76" />
			<state id="Mantle_zone_hyperl" label="F77" />
			<state id="Necrotizing_kikuchi" label="F78" />
			<state id="Necrotiz_nonKikuchi" label="F79" />
			<state id="Rheumatoid_arthritis" label="F80" />
			<state id="Sarcoidosis" label="F81" />
			<state id="SHML" label="F82" />
			<state id="Sinus_hyperplasia" label="F83" />
			<state id="Syphilis" label="F84" />
			<state id="Toxoplasmosis" label="F85" />
			<state id="Tuberculosis" label="F86" />
			<state id="Viral_NOS" label="F87" />
			<state id="Whipple_s_disease" label="F88" />
			<state id="L_H_nodular_HD" label="F89" />
			<state id="L_H_diffuse_HD" label="F90" />
			<state id="Nodular_sclerosis" label="F91" />
			<state id="Cellular_phase_NSHD" label="F92" />
			<state id="Syncytial_NSHD" label="F93" />
			<state id="Mixed_cellularity_HD" label="F94" />
			<state id="Interfollicular_HD" label="F95" />
			<state id="Diffuse_fibrosis_HD" label="F96" />
			<state id="Reticular_type_HD" label="F97" />
			<state id="Small_cleaved__fol" label="F98" />
			<state id="Mixed__fol" label="F99" />
			<state id="Large_cell__fol" label="F100" />
			<state id="Small_noncleaved_fol" label="F101" />
			<state id="Small_lymphocytic" label="F102" />
			<state id="Plasmacytoid_lyctic" label="F103" />
			<state id="Mantle_zone" label="F104" />
			<state id="Small_cleaved__dif" label="F105" />
			<state id="Mixed__fcc_dif" label="F106" />
			<state id="Large_cell__dif" label="F107" />
			<state id="B_immunoblastic" label="F108" />
			<state id="T_immunob_mix" label="F109" />
			<state id="IBL_like_T_cell_lym" label="F110" />
			<state id="Japanese_ATL" label="F111" />
			<state id="Lymphoblastic" label="F112" />
			<state id="Small_noncleaved_dif" label="F113" />
			<state id="True_histiocytic" label="F114" />
			<state id="Malig_histiocytosis" label="F115" />
			<state id="Multiple_myeloma" label="F116" />
			<state id="Mycosis_fungoides" label="F117" />
			<state id="AML" label="F118" />
			<state id="Hairy_cell_leukemia" label="F119" />
			<state id="Carcinoma" label="F120" />
			<state id="Melanoma" label="F121" />
			<state id="Em_plasmacytoma" label="F122" />
			<state id="Kaposis_sarcoma" label="F123" />
			<state id="Mast_cell_disease" label="F124" />
			<state id="AIDS_involutionary" label="F125" />
			<state id="T_immunob_lrg" label="F126" />
			<probabilities>0.02075119 0.00103756 0.0103756 0.00363146 0.0103756 0.03112679 0.00435775 0.00207512 0.01556339 0.00415024 0.007262920000000001 0.00622536 0.0103756 0.0129695 0.008300480000000001 0.01328076 0.00207512 0.00207512 0.00124507 0.01556339 0.0025939 0.007262920000000001 0.008300480000000001 0.0103756 0.00207512 0.0103756 0.00415024 0.08300477000000001 0.0051878 0.00415024 0.05187798 0.00415024 0.0051878 0.0051878 0.10375597 0.05706578 0.03112679 0.0051878 0.02075119 0.0103756 0.0103756 0.00415024 0.0103756 0.13488276 0.01556339 0.02075119 0.01556339 0.00103756 0.0103756 0.06225358 0.0016601 0.0016601 0.00207512 0.00622536 0.0025939 0.00020751 0.02075119 0.008300480000000001 0.00332019 0.008300480000000001 0.00311268 0.02075119 0.02075119</probabilities>
		</cpt>
		<cpt id="F1">
			<state id="Absent" label="F127" />
			<state id="Present" label="F128" />
			<parents>Fault</parents>
			<probabilities>1 0 1 0 1 0 1 0 1 0 1 0 1 0 1 0 1 0 1 0 1 0 1 0 1 0 1 0 1 0 1 0 1 0 1 0 1 0 1 0 1 0 1 0 0.1 0.9 1 0 1 0 1 0 1 0 1 0 1 0 1 0 1 0 1 0 1 0 1 0 1 0 1 0 1 0 1 0 1 0 1 0 1 0 1 0 1 0 1 0 1 0 1 0 1 0 1 0 1 0 1 0 1 0 1 0 1 0 1 0 1 0 1 0 1 0 1 0 1 0 1 0 1 0 1 0 1 0</probabilities>
		</cpt>
		<cpt id="F97">
			<state id="Absent" label="F129" />
			<state id="Present" label="F130" />
			<parents>Fault</parents>
			<probabilities>0 1 0.99 0.01 0.9 0.1 0.01 0.99 0.01 0.99 0 1 0 1 0 1 0.01 0.99 0.01 0.99 0.01 0.99 0.9 0.1 0.01 0.99 0 1 0.01 0.99 0.01 0.99 0 1 0.9 0.1 0.01 0.99 0.01 0.99 0 1 0 1 0.9 0.1 0.01 0.99 0.01 0.99 0.99 0.01 0.99 0.01 0.8 0.2 0.8 0.2 0.8 0.2 0.8 0.2 0 1 0.999 0.001 0.999 0.001 0 1 0 1 0 1 0 1 0.95 0.05 0.999 0.001 0.01 0.99 0.999 0.001 0.999 0.001 0.999 0.001 0.999 0.001 0.8 0.2 0.999 0.001 0.999 0.001 0.95 0.05 0.999 0.001 0.999 0.001 0.999 0.001 0.2 0.8 0.2 0.8 0.2 0.8 0.2 0.8 0.2 0.8 0.2 0.8 0.99 0.01 0.99 0.01 0.99 0.01 0.05 0.95 0.999 0.001</probabilities>
		</cpt>
		<cpt id="F2">
			<state id="NA" label="F131" />
			<state id="No" label="F132" />
			<state id="Yes" label="F133" />
			<parents>Fault F97</parents>
			<probabilities>1 0 0 0 0.99 0.01 1 0 0 0 0.3 0.7 1 0 0 0 0.99 0.01 1 0 0 0 0.99 0.01 1 0 0 0 0.99 0.01 1 0 0 0 0.99 0.01 1 0 0 0 0 1 1 0 0 0 0.99 0.01 1 0 0 0 0.99 0.01 1 0 0 0 0.99 0.01 1 0 0 0 0.99 0.01 1 0 0 0 0.99 0.01 1 0 0 0 0.99 0.01 1 0 0 0 0.05 0.95 1 0 0 0 0.99 0.01 1 0 0 0 0.99 0.01 1 0 0 0 0.99 0.01 1 0 0 0 0.99 0.01 1 0 0 0 0.99 0.01 1 0 0 0 0.99 0.01 1 0 0 0 0.99 0.01 1 0 0 0 0.99 0.01 1 0 0 0 0.99 0.01 1 0 0 0 0.99 0.01 1 0 0 0 0.99 0.01 1 0 0 0 0.99 0.01 1 0 0 0 0.99 0.01 1 0 0 0 0.99 0.01 1 0 0 0 0.99 0.01 1 0 0 0 0.99 0.01 1 0 0 0 0.99 0.01 1 0 0 0 0.99 0.01 1 0 0 0 0.99 0.01 1 0 0 0 0.99 0.01 1 0 0 0 0.99999 1e-05 1 0 0 0 0.99999 1e-05 1 0 0 0 0.99999 1e-05 1 0 0 0 0.99999 1e-05 1 0 0 0 0.99 0.01 1 0 0 0 0.99 0.01 1 0 0 0 0.01 0.99 1 0 0 0 0.99 0.01 1 0 0 0 0.99 0.01 1 0 0 0 0.99 0.01 1 0 0 0 0.99 0.01 1 0 0 0 0.99 0.01 1 0 0 0 0.3 0.7 1 0 0 0 0.99 0.01 1 0 0 0 0.99 0.01 1 0 0 0 0.99 0.01 1 0 0 0 0.99 0.01 1 0 0 0 0.99 0.01 1 0 0 0 0.99 0.01 1 0 0 0 0.99 0.01 1 0 0 0 0.99 0.01 1 0 0 0 0.99 0.01 1 0 0 0 0.99 0.01 1 0 0 0 0.99 0.01 1 0 0 0 0.99 0.01 1 0 0 0 0.01 0.99 1 0 0 0 0.99 0.01 1 0 0 0 0.01 0.99 1 0 0 0 0.99 0.01</probabilities>
		</cpt>
		<cpt id="F78">
			<state id="NA" label="F134" />
			<state id="No" label="F135" />
			<state id="Yes" label="F136" />
			<parents>Fault F97</parents>
			<probabilities>1 0 0 0 0.65 0.35 1 0 0 0 0.999 0.001 1 0 0 0 0.999 0.001 1 0 0 0 0.999 0.001 1 0 0 0 0.999 0.001 1 0 0 0 0.98 0.02 1 0 0 0 0.999 0.001 1 0 0 0 0.999 0.001 1 0 0 0 0.999 0.001 1 0 0 0 0.999 0.001 1 0 0 0 0.999 0.001 1 0 0 0 0.999 0.001 1 0 0 0 0.999 0.001 1 0 0 0 0.999 0.001 1 0 0 0 0.999 0.001 1 0 0 0 0.999 0.001 1 0 0 0 0.999 0.001 1 0 0 0 0.999 0.001 1 0 0 0 0.999 0.001 1 0 0 0 0.999 0.001 1 0 0 0 0.999 0.001 1 0 0 0 0.999 0.001 1 0 0 0 0.999 0.001 1 0 0 0 0.999 0.001 1 0 0 0 0.999 0.001 1 0 0 0 0.999 0.001 1 0 0 0 0.999 0.001 1 0 0 0 0.999 0.001 1 0 0 0 0.999 0.001 1 0 0 0 0.999 0.001 1 0 0 0 0.999 0.001 1 0 0 0 0.999 0.001 1 0 0 0 0.999 0.001 1 0 0 0 0.999 0.001 1 0 0 0 0.999 0.001 1 0 0 0 0.999 0.001 1 0 0 0 0.999 0.001 1 0 0 0 0.999 0.001 1 0 0 0 0.999 0.001 1 0 0 0 0.999 0.001 1 0 0 0 0.999 0.001 1 0 0 0 0.999 0.001 1 0 0 0 0.999 0.001 1 0 0 0 0.999 0.001 1 0 0 0 0.999 0.001 1 0 0 0 0.999 0.001 1 0 0 0 0.999 0.001 1 0 0 0 0.999 0.001 1 0 0 0 0.999 0.001 1 0 0 0 0.999 0.001 1 0 0 0 0.999 0.001 1 0 0 0 0.999 0.001 1 0 0 0 0.999 0.001 1 0 0 0 0.999 0.001 1 0 0 0 0.999 0.001 1 0 0 0 0.999 0.001 1 0 0 0 0.999 0.001 1 0 0 0 0.999 0.001 1 0 0 0 0.999 0.001 1 0 0 0 0.999 0.001 1 0 0 0 0.999 0.001 1 0 0 0 0.9 0.1 1 0 0 0 0.999 0.001</probabilities>
		</cpt>
		<cpt id="F3">
			<state id="NA" label="F137" />
			<state id="No" label="F138" />
			<state id="Yes" label="F139" />
			<parents>Fault F97 F78</parents>
			<probabilities>1 0 0 1 0 0 1 0 0 1 0 0 0 0.8 0.2 0 0.7 0.3 1 0 0 1 0 0 1 0 0 1 0 0 0 0.99990001 9.999e-05 0 0.99990001 9.999e-05 1 0 0 1 0 0 1 0 0 1 0 0 0 0.99990001 9.999e-05 0 0.99990001 9.999e-05 1 0 0 1 0 0 1 0 0 1 0 0 0 0.99990001 9.999e-05 0 0.99990001 9.999e-05 1 0 0 1 0 0 1 0 0 1 0 0 0 0.99990001 9.999e-05 0 0.99990001 9.999e-05 1 0 0 1 0 0 1 0 0 1 0 0 0 0.95 0.05 0 0.9 0.1 1 0 0 1 0 0 1 0 0 1 0 0 0 0.99990001 9.999e-05 0 0.99990001 9.999e-05 1 0 0 1 0 0 1 0 0 1 0 0 0 0.99990001 9.999e-05 0 0.99990001 9.999e-05 1 0 0 1 0 0 1 0 0 1 0 0 0 0.99990001 9.999e-05 0 0.99990001 9.999e-05 1 0 0 1 0 0 1 0 0 1 0 0 0 0.99990001 9.999e-05 0 0.99990001 9.999e-05 1 0 0 1 0 0 1 0 0 1 0 0 0 0.99990001 9.999e-05 0 0.99990001 9.999e-05 1 0 0 1 0 0 1 0 0 1 0 0 0 0.99990001 9.999e-05 0 0.99990001 9.999e-05 1 0 0 1 0 0 1 0 0 1 0 0 0 0.99990001 9.999e-05 0 0.99990001 9.999e-05 1 0 0 1 0 0 1 0 0 1 0 0 0 0.99990001 9.999e-05 0 0.99990001 9.999e-05 1 0 0 1 0 0 1 0 0 1 0 0 0 0.99990001 9.999e-05 0 0.99990001 9.999e-05 1 0 0 1 0 0 1 0 0 1 0 0 0 0.99990001 9.999e-05 0 0.99990001 9.999e-05 1 0 0 1 0 0 1 0 0 1 0 0 0 0.99990001 9.999e-05 0 0.99990001 9.999e-05 1 0 0 1 0 0 1 0 0 1 0 0 0 0.99990001 9.999e-05 0 0.99990001 9.999e-05 1 0 0 1 0 0 1 0 0 1 0 0 0 0.99990001 9.999e-05 0 0.99990001 9.999e-05 1 0 0 1 0 0 1 0 0 1 0 0 0 0.99990001 9.999e-05 0 0.99990001 9.999e-05 1 0 0 1 0 0 1 0 0 1 0 0 0 0.99990001 9.999e-05 0 0.99990001 9.999e-05 1 0 0 1 0 0 1 0 0 1 0 0 0 0.99990001 9.999e-05 0 0.99990001 9.999e-05 1 0 0 1 0 0 1 0 0 1 0 0 0 0.99990001 9.999e-05 0 0.99990001 9.999e-05 1 0 0 1 0 0 1 0 0 1 0 0 0 0.99990001 9.999e-05 0 0.99990001 9.999e-05 1 0 0 1 0 0 1 0 0 1 0 0 0 0.99990001 9.999e-05 0 0.99990001 9.999e-05 1 0 0 1 0 0 1 0 0 1 0 0 0 0.99990001 9.999e-05 0 0.99990001 9.999e-05 1 0 0 1 0 0 1 0 0 1 0 0 0 0.99990001 9.999e-05 0 0.99990001 9.999e-05 1 0 0 1 0 0 1 0 0 1 0 0 0 0.99990001 9.999e-05 0 0.99990001 9.999e-05 1 0 0 1 0 0 1 0 0 1 0 0 0 0.99990001 9.999e-05 0 0.99990001 9.999e-05 1 0 0 1 0 0 1 0 0 1 0 0 0 0.99990001 9.999e-05 0 0.99990001 9.999e-05 1 0 0 1 0 0 1 0 0 1 0 0 0 0.99990001 9.999e-05 0 0.99990001 9.999e-05 1 0 0 1 0 0 1 0 0 1 0 0 0 0.99990001 9.999e-05 0 0.99990001 9.999e-05 1 0 0 1 0 0 1 0 0 1 0 0 0 0.99990001 9.999e-05 0 0.99990001 9.999e-05 1 0 0 1 0 0 1 0 0 1 0 0 0 0.99990001 9.999e-05 0 0.99990001 9.999e-05 1 0 0 1 0 0 1 0 0 1 0 0 0 0.99990001 9.999e-05 0 0.99990001 9.999e-05 1 0 0 1 0 0 1 0 0 1 0 0 0 0.99990001 9.999e-05 0 0.99990001 9.999e-05 1 0 0 1 0 0 1 0 0 1 0 0 0 0.99990001 9.999e-05 0 0.99990001 9.999e-05 1 0 0 1 0 0 1 0 0 1 0 0 0 0.99990001 9.999e-05 0 0.99990001 9.999e-05 1 0 0 1 0 0 1 0 0 1 0 0 0 0.99990001 9.999e-05 0 0.99990001 9.999e-05 1 0 0 1 0 0 1 0 0 1 0 0 0 0.99990001 9.999e-05 0 0.99990001 9.999e-05 1 0 0 1 0 0 1 0 0 1 0 0 0 0.99990001 9.999e-05 0 0.99990001 9.999e-05 1 0 0 1 0 0 1 0 0 1 0 0 0 0.99990001 9.999e-05 0 0.99990001 9.999e-05 1 0 0 1 0 0 1 0 0 1 0 0 0 0.99990001 9.999e-05 0 0.99990001 9.999e-05 1 0 0 1 0 0 1 0 0 1 0 0 0 0.99990001 9.999e-05 0 0.99990001 9.999e-05 1 0 0 1 0 0 1 0 0 1 0 0 0 0.99990001 9.999e-05 0 0.99990001 9.999e-05 1 0 0 1 0 0 1 0 0 1 0 0 0 0.99990001 9.999e-05 0 0.99990001 9.999e-05 1 0 0 1 0 0 1 0 0 1 0 0 0 0.99990001 9.999e-05 0 0.99990001 9.999e-05 1 0 0 1 0 0 1 0 0 1 0 0 0 0.99990001 9.999e-05 0 0.99990001 9.999e-05 1 0 0 1 0 0 1 0 0 1 0 0 0 0.99990001 9.999e-05 0 0.99990001 9.999e-05 1 0 0 1 0 0 1 0 0 1 0 0 0 0.99990001 9.999e-05 0 0.99990001 9.999e-05 1 0 0 1 0 0 1 0 0 1 0 0 0 0.99990001 9.999e-05 0 0.99990001 9.999e-05 1 0 0 1 0 0 1 0 0 1 0 0 0 0.99990001 9.999e-05 0 0.99990001 9.999e-05 1 0 0 1 0 0 1 0 0 1 0 0 0 0.99990001 9.999e-05 0 0.99990001 9.999e-05 1 0 0 1 0 0 1 0 0 1 0 0 0 0.99990001 9.999e-05 0 0.99990001 9.999e-05 1 0 0 1 0 0 1 0 0 1 0 0 0 0.99990001 9.999e-05 0 0.99990001 9.999e-05 1 0 0 1 0 0 1 0 0 1 0 0 0 0.99990001 9.999e-05 0 0.99990001 9.999e-05 1 0 0 1 0 0 1 0 0 1 0 0 0 0.99990001 9.999e-05 0 0.99990001 9.999e-05 1 0 0 1 0 0 1 0 0 1 0 0 0 0.99990001 9.999e-05 0 0.99990001 9.999e-05 1 0 0 1 0 0 1 0 0 1 0 0 0 0.99990001 9.999e-05 0 0.99990001 9.999e-05 1 0 0 1 0 0 1 0 0 1 0 0 0 0.99990001 9.999e-05 0 0.99990001 9.999e-05 1 0 0 1 0 0 1 0 0 1 0 0 0 0.99990001 9.999e-05 0 0.99990001 9.999e-05 1 0 0 1 0 0 1 0 0 1 0 0 0 0.95 0.05 0 0.9 0.1 1 0 0 1 0 0 1 0 0 1 0 0 0 0.99990001 9.999e-05 0 0.99990001 9.999e-05</probabilities>
		</cpt>
		<cpt id="F4">
			<state id="NA" label="F140" />
			<state id="No" label="F141" />
			<state id="Yes" label="F142" />
			<parents>Fault F97</parents>
			<probabilities>1 0 0 0 0.01 0.99 1 0 0 0 0.999 0.001 1 0 0 0 0.999 0.001 1 0 0 0 0.9 0.1 1 0 0 0 0.99 0.01 1 0 0 0 0.95 0.05 1 0 0 0 1 0 1 0 0 0 0.8 0.2 1 0 0 0 0.99 0.01 1 0 0 0 0.999 0.001 1 0 0 0 0.9 0.1 1 0 0 0 0.999 0.001 1 0 0 0 0.999 0.001 1 0 0 0 0.98 0.02 1 0 0 0 0.9 0.1 1 0 0 0 0.9 0.1 1 0 0 0 0.8 0.2 1 0 0 0 0.999 0.001 1 0 0 0 0.999 0.001 1 0 0 0 0.999 0.001 1 0 0 0 0.99 0.01 1 0 0 0 0.99 0.01 1 0 0 0 0.999 0.001 1 0 0 0 0.9 0.1 1 0 0 0 0.999 0.001 1 0 0 0 0.999 0.001 1 0 0 0 0.999 0.001 1 0 0 0 0.99 0.01 1 0 0 0 0.99 0.01 1 0 0 0 0.99 0.01 1 0 0 0 0.99 0.01 1 0 0 0 0.99 0.01 1 0 0 0 0.999 0.001 1 0 0 0 0.999 0.001 1 0 0 0 1 0 1 0 0 0 1 0 1 0 0 0 1 0 1 0 0 0 1 0 1 0 0 0 0.99999 1e-05 1 0 0 0 0.99999 1e-05 1 0 0 0 0.9 0.1 1 0 0 0 0.99999 1e-05 1 0 0 0 0.99999 1e-05 1 0 0 0 0.99999 1e-05 1 0 0 0 0.99999 1e-05 1 0 0 0 0.99999 1e-05 1 0 0 0 0.99999 1e-05 1 0 0 0 0.99999 1e-05 1 0 0 0 0.99999 1e-05 1 0 0 0 0.99999 1e-05 1 0 0 0 0.99999 1e-05 1 0 0 0 0.99999 1e-05 1 0 0 0 0.999 0.001 1 0 0 0 0.999 0.001 1 0 0 0 0.999 0.001 1 0 0 0 0.999 0.001 1 0 0 0 0.999 0.001 1 0 0 0 0.999 0.001 1 0 0 0 0.999 0.001 1 0 0 0 0.8 0.2 1 0 0 0 0.999 0.001 1 0 0 0 0.9 0.1 1 0 0 0 0.99999 1e-05</probabilities>
		</cpt>
		<cpt id="F5">
			<state id="NA" label="F143" />
			<state id="None" label="F144" />
			<state id="One" label="F145" />
			<state id="More_than_one" label="F146" />
			<parents>Fault F2 F97</parents>
			<probabilities>1 0 0 0 1 0 0 0 1 0 0 0 0 0.99890011 0.0009999000000000004 9.999e-05 1 0 0 0 0 0.98901099 0.009990010000000001 0.0009990000000000005 1 0 0 0 1 0 0 0 1 0 0 0 0 0.99890011 0.0009999000000000004 9.999e-05 1 0 0 0 0 0.98901099 0.009990010000000001 0.0009990000000000005 1 0 0 0 1 0 0 0 1 0 0 0 0 0.99890011 0.0009999000000000004 9.999e-05 1 0 0 0 0 0.98901099 0.009990010000000001 0.0009990000000000005 1 0 0 0 1 0 0 0 1 0 0 0 0 0.99890011 0.0009999000000000004 9.999e-05 1 0 0 0 0 0.98901099 0.009990010000000001 0.0009990000000000005 1 0 0 0 1 0 0 0 1 0 0 0 0 0.99890011 0.0009999000000000004 9.999e-05 1 0 0 0 0 0.98901099 0.009990010000000001 0.0009990000000000005 1 0 0 0 1 0 0 0 1 0 0 0 0 0.99890011 0.0009999000000000004 9.999e-05 1 0 0 0 0 0.98901099 0.009990010000000001 0.0009990000000000005 1 0 0 0 1 0 0 0 1 0 0 0 0.25 0.25 0.25 0.25 1 0 0 0 0 0.0009990000000000005 0.2997003 0.6993007 1 0 0 0 1 0 0 0 1 0 0 0 0 0.99890011 0.0009999000000000004 9.999e-05 1 0 0 0 0 0.98901099 0.009990010000000001 0.0009990000000000005 1 0 0 0 1 0 0 0 1 0 0 0 0 0.99890011 0.0009999000000000004 9.999e-05 1 0 0 0 0 0.98901099 0.009990010000000001 0.0009990000000000005 1 0 0 0 1 0 0 0 1 0 0 0 0 0.99890011 0.0009999000000000004 9.999e-05 1 0 0 0 0 0.98901099 0.009990010000000001 0.0009990000000000005 1 0 0 0 1 0 0 0 1 0 0 0 0 0.99890011 0.0009999000000000004 9.999e-05 1 0 0 0 0 0.98901099 0.009990010000000001 0.0009990000000000005 1 0 0 0 1 0 0 0 1 0 0 0 0 0.99890011 0.0009999000000000004 9.999e-05 1 0 0 0 0 0.98901099 0.009990010000000001 0.0009990000000000005 1 0 0 0 1 0 0 0 1 0 0 0 0 0.99890011 0.0009999000000000004 9.999e-05 1 0 0 0 0 0.98901099 0.009990010000000001 0.0009990000000000005 1 0 0 0 1 0 0 0 1 0 0 0 0 0.99403579 0.00497018 0.0009940400000000005 1 0 0 0 0 0.9399999999999999 0.05 0.01 1 0 0 0 1 0 0 0 1 0 0 0 0 0.99890011 0.0009999000000000004 9.999e-05 1 0 0 0 0 0.98901099 0.009990010000000001 0.0009990000000000005 1 0 0 0 1 0 0 0 1 0 0 0 0 0.99890011 0.0009999000000000004 9.999e-05 1 0 0 0 0 0.98901099 0.009990010000000001 0.0009990000000000005 1 0 0 0 1 0 0 0 1 0 0 0 0 0.99890011 0.0009999000000000004 9.999e-05 1 0 0 0 0 0.98901099 0.009990010000000001 0.0009990000000000005 1 0 0 0 1 0 0 0 1 0 0 0 0 0.99890011 0.0009999000000000004 9.999e-05 1 0 0 0 0 0.98901099 0.009990010000000001 0.0009990000000000005 1 0 0 0 1 0 0 0 1 0 0 0 0 0.99890011 0.0009999000000000004 9.999e-05 1 0 0 0 0 0.98901099 0.009990010000000001 0.0009990000000000005 1 0 0 0 1 0 0 0 1 0 0 0 0 0.99890011 0.0009999000000000004 9.999e-05 1 0 0 0 0 0.98901099 0.009990010000000001 0.0009990000000000005 1 0 0 0 1 0 0 0 1 0 0 0 0 0.99890011 0.0009999000000000004 9.999e-05 1 0 0 0 0 0.98901099 0.009990010000000001 0.0009990000000000005 1 0 0 0 1 0 0 0 1 0 0 0 0 0.99890011 0.0009999000000000004 9.999e-05 1 0 0 0 0 0.98901099 0.009990010000000001 0.0009990000000000005 1 0 0 0 1 0 0 0 1 0 0 0 0 0.99890011 0.0009999000000000004 9.999e-05 1 0 0 0 0 0.98901099 0.009990010000000001 0.0009990000000000005 1 0 0 0 1 0 0 0 1 0 0 0 0 0.99890011 0.0009999000000000004 9.999e-05 1 0 0 0 0 0.98901099 0.009990010000000001 0.0009990000000000005 1 0 0 0 1 0 0 0 1 0 0 0 0 0.99890011 0.0009999000000000004 9.999e-05 1 0 0 0 0 0.98901099 0.009990010000000001 0.0009990000000000005 1 0 0 0 1 0 0 0 1 0 0 0 0 0.99890011 0.0009999000000000004 9.999e-05 1 0 0 0 0 0.98901099 0.009990010000000001 0.0009990000000000005 1 0 0 0 1 0 0 0 1 0 0 0 0 0.99890011 0.0009999000000000004 9.999e-05 1 0 0 0 0 0.98901099 0.009990010000000001 0.0009990000000000005 1 0 0 0 1 0 0 0 1 0 0 0 0 0.99890011 0.0009999000000000004 9.999e-05 1 0 0 0 0 0.98901099 0.009990010000000001 0.0009990000000000005 1 0 0 0 1 0 0 0 1 0 0 0 0 0.99890011 0.0009999000000000004 9.999e-05 1 0 0 0 0 0.98901099 0.009990010000000001 0.0009990000000000005 1 0 0 0 1 0 0 0 1 0 0 0 0 0.99890011 0.0009999000000000004 9.999e-05 1 0 0 0 0 0.98901099 0.009990010000000001 0.0009990000000000005 1 0 0 0 1 0 0 0 1 0 0 0 0 0.99890011 0.0009999000000000004 9.999e-05 1 0 0 0 0 0.98901099 0.009990010000000001 0.0009990000000000005 1 0 0 0 1 0 0 0 1 0 0 0 0 0.99890011 0.0009999000000000004 9.999e-05 1 0 0 0 0 0.98901099 0.009990010000000001 0.0009990000000000005 1 0 0 0 1 0 0 0 1 0 0 0 0 0.99890011 0.0009999000000000004 9.999e-05 1 0 0 0 0 0.98901099 0.009990010000000001 0.0009990000000000005 1 0 0 0 1 0 0 0 1 0 0 0 0 0.99890011 0.0009999000000000004 9.999e-05 1 0 0 0 0 0.98901099 0.009990010000000001 0.0009990000000000005 1 0 0 0 1 0 0 0 1 0 0 0 0 0.9999 0.0001 0 1 0 0 0 0 0.999 0.001 0 1 0 0 0 1 0 0 0 1 0 0 0 0 0.9999 0.0001 0 1 0 0 0 0 0.999 0.001 0 1 0 0 0 1 0 0 0 1 0 0 0 0 0.9999 0.0001 0 1 0 0 0 0 0.999 0.001 0 1 0 0 0 1 0 0 0 1 0 0 0 0 0.9999 0.0001 0 1 0 0 0 0 0.999 0.001 0 1 0 0 0 1 0 0 0 1 0 0 0 0 0.99890011 0.0009999000000000004 9.999e-05 1 0 0 0 0 0.98901099 0.009990010000000001 0.0009990000000000005 1 0 0 0 1 0 0 0 1 0 0 0 0 0.99890011 0.0009999000000000004 9.999e-05 1 0 0 0 0 0.98901099 0.009990010000000001 0.0009990000000000005 1 0 0 0 1 0 0 0 1 0 0 0 0 0.99890011 0.0009999000000000004 9.999e-05 1 0 0 0 0 0.98901099 0.009990010000000001 0.0009990000000000005 1 0 0 0 1 0 0 0 1 0 0 0 0 0.99890011 0.0009999000000000004 9.999e-05 1 0 0 0 0 0.98901099 0.009990010000000001 0.0009990000000000005 1 0 0 0 1 0 0 0 1 0 0 0 0 0.99890011 0.0009999000000000004 9.999e-05 1 0 0 0 0 0.98901099 0.009990010000000001 0.0009990000000000005 1 0 0 0 1 0 0 0 1 0 0 0 0 0.99890011 0.0009999000000000004 9.999e-05 1 0 0 0 0 0.98901099 0.009990010000000001 0.0009990000000000005 1 0 0 0 1 0 0 0 1 0 0 0 0 0.99890011 0.0009999000000000004 9.999e-05 1 0 0 0 0 0.98901099 0.009990010000000001 0.0009990000000000005 1 0 0 0 1 0 0 0 1 0 0 0 0 0.99890011 0.0009999000000000004 9.999e-05 1 0 0 0 0 0.98901099 0.009990010000000001 0.0009990000000000005 1 0 0 0 1 0 0 0 1 0 0 0 0 0.99890011 0.0009999000000000004 9.999e-05 1 0 0 0 0 0.98901099 0.009990010000000001 0.0009990000000000005 1 0 0 0 1 0 0 0 1 0 0 0 0 0.99890011 0.0009999000000000004 9.999e-05 1 0 0 0 0 0.98901099 0.009990010000000001 0.0009990000000000005 1 0 0 0 1 0 0 0 1 0 0 0 0 0.99890011 0.0009999000000000004 9.999e-05 1 0 0 0 0 0.98901099 0.009990010000000001 0.0009990000000000005 1 0 0 0 1 0 0 0 1 0 0 0 0 0.99890011 0.0009999000000000004 9.999e-05 1 0 0 0 0 0.98901099 0.009990010000000001 0.0009990000000000005 1 0 0 0 1 0 0 0 1 0 0 0 0 0.99890011 0.0009999000000000004 9.999e-05 1 0 0 0 0 0.98901099 0.009990010000000001 0.0009990000000000005 1 0 0 0 1 0 0 0 1 0 0 0 0 0.99890011 0.0009999000000000004 9.999e-05 1 0 0 0 0 0.98901099 0.009990010000000001 0.0009990000000000005 1 0 0 0 1 0 0 0 1 0 0 0 0 0.99890011 0.0009999000000000004 9.999e-05 1 0 0 0 0 0.98901099 0.009990010000000001 0.0009990000000000005 1 0 0 0 1 0 0 0 1 0 0 0 0 0.99890011 0.0009999000000000004 9.999e-05 1 0 0 0 0 0.98901099 0.009990010000000001 0.0009990000000000005 1 0 0 0 1 0 0 0 1 0 0 0 0 0.99890011 0.0009999000000000004 9.999e-05 1 0 0 0 0 0.98901099 0.009990010000000001 0.0009990000000000005 1 0 0 0 1 0 0 0 1 0 0 0 0 0.99890011 0.0009999000000000004 9.999e-05 1 0 0 0 0 0.98901099 0.009990010000000001 0.0009990000000000005 1 0 0 0 1 0 0 0 1 0 0 0 0 0.99890011 0.0009999000000000004 9.999e-05 1 0 0 0 0 0.98901099 0.009990010000000001 0.0009990000000000005 1 0 0 0 1 0 0 0 1 0 0 0 0 0.99890011 0.0009999000000000004 9.999e-05 1 0 0 0 0 0.98901099 0.009990010000000001 0.0009990000000000005 1 0 0 0 1 0 0 0 1 0 0 0 0 0.99890011 0.0009999000000000004 9.999e-05 1 0 0 0 0 0.98901099 0.009990010000000001 0.0009990000000000005 1 0 0 0 1 0 0 0 1 0 0 0 0 0.99304866 0.00496524 0.0019861 1 0 0 0 0 0.93 0.05 0.02 1 0 0 0 1 0 0 0 1 0 0 0 0 0.99890011 0.0009999000000000004 9.999e-05 1 0 0 0 0 0.98901099 0.009990010000000001 0.0009990000000000005 1 0 0 0 1 0 0 0 1 0 0 0 0 0.99304866 0.00496524 0.0019861 1 0 0 0 0 0.93 0.05 0.02 1 0 0 0 1 0 0 0 1 0 0 0 0 0.99890011 0.0009999000000000004 9.999e-05 1 0 0 0 0 0.98901099 0.009990010000000001 0.0009990000000000005</probabilities>
		</cpt>
		<cpt id="F53">
			<state id="Absent" label="F147" />
			<state id="Focal__non_extensive_" label="F148" />
			<state id="Multifocal__non_extensive_" label="F149" />
			<state id="Extensive" label="F150" />
			<parents>Fault</parents>
			<probabilities>0.3 0.4 0.29 0.01 0.69993001 0.289971 0.009999000000000001 9.999e-05 0.69993001 0.289971 0.009999000000000001 9.999e-05 0.3 0.4 0.29 0.01 0.05 0.3 0.55 0.1 0.69993001 0.289971 0.009999000000000001 9.999e-05 0.94108421 0.0490148 0.009802959999999999 9.802999999999999e-05 0.94108421 0.0490148 0.009802959999999999 9.802999999999999e-05 0.5 0.45 0.04 0.01 0.94108421 0.0490148 0.009802959999999999 9.802999999999999e-05 0.3 0.4 0.29 0.01 0.3 0.4 0.29 0.01 0.94108421 0.0490148 0.009802959999999999 9.802999999999999e-05 0.94108421 0.0490148 0.009802959999999999 9.802999999999999e-05 0.5 0.45 0.04 0.01 0.5 0.45 0.04 0.01 0.94108421 0.0490148 0.009802959999999999 9.802999999999999e-05 0.94108421 0.0490148 0.009802959999999999 9.802999999999999e-05 0.94108421 0.0490148 0.009802959999999999 9.802999999999999e-05 0.94108421 0.0490148 0.009802959999999999 9.802999999999999e-05 0.69993001 0.289971 0.009999000000000001 9.999e-05 0.94108421 0.0490148 0.009802959999999999 9.802999999999999e-05 0.94108421 0.0490148 0.009802959999999999 9.802999999999999e-05 0.3 0.4 0.29 0.01 0.94108421 0.0490148 0.009802959999999999 9.802999999999999e-05 0.94108421 0.0490148 0.009802959999999999 9.802999999999999e-05 0.94108421 0.0490148 0.009802959999999999 9.802999999999999e-05 0.94108421 0.0490148 0.009802959999999999 9.802999999999999e-05 0.94108421 0.0490148 0.009802959999999999 9.802999999999999e-05 0.94108421 0.0490148 0.009802959999999999 9.802999999999999e-05 0.94108421 0.0490148 0.009802959999999999 9.802999999999999e-05 0.94108421 0.0490148 0.009802959999999999 9.802999999999999e-05 0.94108421 0.0490148 0.009802959999999999 9.802999999999999e-05 0.94108421 0.0490148 0.009802959999999999 9.802999999999999e-05 0.94108421 0.0490148 0.009802959999999999 9.802999999999999e-05 0.94108421 0.0490148 0.009802959999999999 9.802999999999999e-05 0.94108421 0.0490148 0.009802959999999999 9.802999999999999e-05 0.94108421 0.0490148 0.009802959999999999 9.802999999999999e-05 0.94108421 0.0490148 0.009802959999999999 9.802999999999999e-05 0.94108421 0.0490148 0.009802959999999999 9.802999999999999e-05 0.94108421 0.0490148 0.009802959999999999 9.802999999999999e-05 0.94108421 0.0490148 0.009802959999999999 9.802999999999999e-05 0.94108421 0.0490148 0.009802959999999999 9.802999999999999e-05 0.94108421 0.0490148 0.009802959999999999 9.802999999999999e-05 0.94108421 0.0490148 0.009802959999999999 9.802999999999999e-05 0.94108421 0.0490148 0.009802959999999999 9.802999999999999e-05 0.5 0.45 0.04 0.01 0.5 0.45 0.04 0.01 0.94108421 0.0490148 0.009802959999999999 9.802999999999999e-05 0.94108421 0.0490148 0.009802959999999999 9.802999999999999e-05 0.94108421 0.0490148 0.009802959999999999 9.802999999999999e-05 0.94108421 0.0490148 0.009802959999999999 9.802999999999999e-05 0.94108421 0.0490148 0.009802959999999999 9.802999999999999e-05 0.01 0.05 0.6899999999999999 0.25 0.94108421 0.0490148 0.009802959999999999 9.802999999999999e-05 0.94108421 0.0490148 0.009802959999999999 9.802999999999999e-05 0.94108421 0.0490148 0.009802959999999999 9.802999999999999e-05 0.3 0.4 0.29 0.01 0.94108421 0.0490148 0.009802959999999999 9.802999999999999e-05 0.3 0.4 0.29 0.01 0.94108421 0.0490148 0.009802959999999999 9.802999999999999e-05 0.3 0.4 0.29 0.01 0.94108421 0.0490148 0.009802959999999999 9.802999999999999e-05</probabilities>
		</cpt>
		<cpt id="F6">
			<state id="Absent" label="F151" />
			<state id="Slight" label="F152" />
			<state id="Moderate" label="F153" />
			<state id="Marked" label="F154" />
			<parents>Fault F53</parents>
			<probabilities>0.95 0.05 0 0 0.75 0.25 0 0 0.4995005 0.44955045 0.04995005 0.0009990000000000005 0 0.05 0.4 0.55 0.95 0.05 0 0 0.75 0.25 0 0 0.4995005 0.44955045 0.04995005 0.0009990000000000005 0 0.05 0.4 0.55 0.95 0.05 0 0 0.75 0.25 0 0 0.4995005 0.44955045 0.04995005 0.0009990000000000005 0 0.05 0.4 0.55 0.95 0.05 0 0 0.75 0.25 0 0 0.4995005 0.44955045 0.04995005 0.0009990000000000005 0 0.05 0.4 0.55 0 0.0009990000000000005 0.24975025 0.74925075 0.25 0.75 0 0 0 0.3996004 0.5994006 0.0009990000000000005 0 0.01 0.4 0.59 0.95 0.05 0 0 0.75 0.25 0 0 0.4995005 0.44955045 0.04995005 0.0009990000000000005 0 0.05 0.4 0.55 0.95 0.05 0 0 0.75 0.25 0 0 0.4995005 0.44955045 0.04995005 0.0009990000000000005 0 0.05 0.4 0.55 0.95 0.05 0 0 0.75 0.25 0 0 0.4995005 0.44955045 0.04995005 0.0009990000000000005 0 0.05 0.4 0.55 0.95 0.05 0 0 0.75 0.25 0 0 0.4995005 0.44955045 0.04995005 0.0009990000000000005 0 0.05 0.4 0.55 0 0.05 0.35 0.6 0 0.04 0.36 0.6 0 0.01 0.4 0.59 0 0.00537634 0.1344086 0.86021505 0.95 0.05 0 0 0.75 0.25 0 0 0.4995005 0.44955045 0.04995005 0.0009990000000000005 0 0.05 0.4 0.55 0.95 0.05 0 0 0.75 0.25 0 0 0.4995005 0.44955045 0.04995005 0.0009990000000000005 0 0.05 0.4 0.55 0.95 0.05 0 0 0.75 0.25 0 0 0.4995005 0.44955045 0.04995005 0.0009990000000000005 0 0.05 0.4 0.55 0.95 0.05 0 0 0.75 0.25 0 0 0.4995005 0.44955045 0.04995005 0.0009990000000000005 0 0.05 0.4 0.55 0.95 0.05 0 0 0.75 0.25 0 0 0.4995005 0.44955045 0.04995005 0.0009990000000000005 0 0.05 0.4 0.55 0.95 0.05 0 0 0.75 0.25 0 0 0.4995005 0.44955045 0.04995005 0.0009990000000000005 0 0.05 0.4 0.55 0.95 0.05 0 0 0.75 0.25 0 0 0.4995005 0.44955045 0.04995005 0.0009990000000000005 0 0.05 0.4 0.55 0.95 0.05 0 0 0.75 0.25 0 0 0.4995005 0.44955045 0.04995005 0.0009990000000000005 0 0.05 0.4 0.55 0.95 0.05 0 0 0.75 0.25 0 0 0.4995005 0.44955045 0.04995005 0.0009990000000000005 0 0.05 0.4 0.55 0.95 0.05 0 0 0.75 0.25 0 0 0.4995005 0.44955045 0.04995005 0.0009990000000000005 0 0.05 0.4 0.55 0.95 0.05 0 0 0.75 0.25 0 0 0.4995005 0.44955045 0.04995005 0.0009990000000000005 0 0.05 0.4 0.55 0.95 0.05 0 0 0.75 0.25 0 0 0.4995005 0.44955045 0.04995005 0.0009990000000000005 0 0.05 0.4 0.55 0.95 0.05 0 0 0.75 0.25 0 0 0.4995005 0.44955045 0.04995005 0.0009990000000000005 0 0.05 0.4 0.55 0.95 0.05 0 0 0.75 0.25 0 0 0.4995005 0.44955045 0.04995005 0.0009990000000000005 0 0.05 0.4 0.55 0.95 0.05 0 0 0.75 0.25 0 0 0.4995005 0.44955045 0.04995005 0.0009990000000000005 0 0.05 0.4 0.55 0.95 0.05 0 0 0.75 0.25 0 0 0.4995005 0.44955045 0.04995005 0.0009990000000000005 0 0.05 0.4 0.55 0.95 0.05 0 0 0.75 0.25 0 0 0.4995005 0.44955045 0.04995005 0.0009990000000000005 0 0.05 0.4 0.55 0.95 0.05 0 0 0.75 0.25 0 0 0.4995005 0.44955045 0.04995005 0.0009990000000000005 0 0.05 0.4 0.55 0.95 0.05 0 0 0.75 0.25 0 0 0.4995005 0.44955045 0.04995005 0.0009990000000000005 0 0.05 0.4 0.55 0.95 0.05 0 0 0.75 0.25 0 0 0.4995005 0.44955045 0.04995005 0.0009990000000000005 0 0.05 0.4 0.55 0.95 0.05 0 0 0.75 0.25 0 0 0.4995005 0.44955045 0.04995005 0.0009990000000000005 0 0.05 0.4 0.55 0.95 0.05 0 0 0.75 0.25 0 0 0.4995005 0.44955045 0.04995005 0.0009990000000000005 0 0.05 0.4 0.55 0.95 0.05 0 0 0.75 0.25 0 0 0.4995005 0.44955045 0.04995005 0.0009990000000000005 0 0.05 0.4 0.55 0.95 0.05 0 0 0.75 0.25 0 0 0.4995005 0.44955045 0.04995005 0.0009990000000000005 0 0.05 0.4 0.55 0.95 0.05 0 0 0.75 0.25 0 0 0.4995005 0.44955045 0.04995005 0.0009990000000000005 0 0.05 0.4 0.55 0.95 0.05 0 0 0.75 0.25 0 0 0.4995005 0.44955045 0.04995005 0.0009990000000000005 0 0.05 0.4 0.55 0.95 0.05 0 0 0.75 0.25 0 0 0.4995005 0.44955045 0.04995005 0.0009990000000000005 0 0.05 0.4 0.55 0.95 0.05 0 0 0.75 0.25 0 0 0.4995005 0.44955045 0.04995005 0.0009990000000000005 0 0.05 0.4 0.55 0.95 0.05 0 0 0.75 0.25 0 0 0.4995005 0.44955045 0.04995005 0.0009990000000000005 0 0.05 0.4 0.55 0.95 0.05 0 0 0.75 0.25 0 0 0.4995005 0.44955045 0.04995005 0.0009990000000000005 0 0.05 0.4 0.55 0.95 0.05 0 0 0.75 0.25 0 0 0.4995005 0.44955045 0.04995005 0.0009990000000000005 0 0.05 0.4 0.55 0.95 0.05 0 0 0.75 0.25 0 0 0.4995005 0.44955045 0.04995005 0.0009990000000000005 0 0.05 0.4 0.55 0.95 0.05 0 0 0.75 0.25 0 0 0.4995005 0.44955045 0.04995005 0.0009990000000000005 0 0.05 0.4 0.55 0.95 0.05 0 0 0.75 0.25 0 0 0.4995005 0.44955045 0.04995005 0.0009990000000000005 0 0.05 0.4 0.55 0.95 0.05 0 0 0.75 0.25 0 0 0.4995005 0.44955045 0.04995005 0.0009990000000000005 0 0.05 0.4 0.55 0.95 0.05 0 0 0.75 0.25 0 0 0.4995005 0.44955045 0.04995005 0.0009990000000000005 0 0.05 0.4 0.55 0.95 0.05 0 0 0.75 0.25 0 0 0.4995005 0.44955045 0.04995005 0.0009990000000000005 0 0.05 0.4 0.55 0.95 0.05 0 0 0.75 0.25 0 0 0.4995005 0.44955045 0.04995005 0.0009990000000000005 0 0.05 0.4 0.55 0.95 0.05 0 0 0.75 0.25 0 0 0.4995005 0.44955045 0.04995005 0.0009990000000000005 0 0.05 0.4 0.55 0.95 0.05 0 0 0.75 0.25 0 0 0.4995005 0.44955045 0.04995005 0.0009990000000000005 0 0.05 0.4 0.55 0.95 0.05 0 0 0.75 0.25 0 0 0.4995005 0.44955045 0.04995005 0.0009990000000000005 0 0.05 0.4 0.55 0.95 0.05 0 0 0.75 0.25 0 0 0.4995005 0.44955045 0.04995005 0.0009990000000000005 0 0.05 0.4 0.55 0.95 0.05 0 0 0.75 0.25 0 0 0.4995005 0.44955045 0.04995005 0.0009990000000000005 0 0.05 0.4 0.55 0.95 0.05 0 0 0.75 0.25 0 0 0.4995005 0.44955045 0.04995005 0.0009990000000000005 0 0.05 0.4 0.55 0.95 0.05 0 0 0.75 0.25 0 0 0.4995005 0.44955045 0.04995005 0.0009990000000000005 0 0.05 0.4 0.55 0.95 0.05 0 0 0.75 0.25 0 0 0.4995005 0.44955045 0.04995005 0.0009990000000000005 0 0.05 0.4 0.55 0.95 0.05 0 0 0.75 0.25 0 0 0.4995005 0.44955045 0.04995005 0.0009990000000000005 0 0.05 0.4 0.55 0.95 0.05 0 0 0.75 0.25 0 0 0.4995005 0.44955045 0.04995005 0.0009990000000000005 0 0.05 0.4 0.55 0.95 0.05 0 0 0.75 0.25 0 0 0.4995005 0.44955045 0.04995005 0.0009990000000000005 0 0.05 0.4 0.55 0.95 0.05 0 0 0.75 0.25 0 0 0.4995005 0.44955045 0.04995005 0.0009990000000000005 0 0.05 0.4 0.55 0.95 0.05 0 0 0.75 0.25 0 0 0.4995005 0.44955045 0.04995005 0.0009990000000000005 0 0.05 0.4 0.55 0.95 0.05 0 0 0.75 0.25 0 0 0.4995005 0.44955045 0.04995005 0.0009990000000000005 0 0.05 0.4 0.55 0.95 0.05 0 0 0.75 0.25 0 0 0.4995005 0.44955045 0.04995005 0.0009990000000000005 0 0.05 0.4 0.55</probabilities>
		</cpt>
		<cpt id="F7">
			<state id="Absent" label="F155" />
			<state id="Rare" label="F156" />
			<state id="Focal" label="F157" />
			<state id="Multifocal" label="F158" />
			<state id="Extensive" label="F159" />
			<parents>Fault</parents>
			<probabilities>0.97902098 0.01998002 0.0009990000000000005 0 0 0.97902098 0.01998002 0.0009990000000000005 0 0 0.97902098 0.01998002 0.0009990000000000005 0 0 0.97902098 0.01998002 0.0009990000000000005 0 0 0.4995005 0.3996004 0.09990010000000001 0.0009990000000000005 0 0.97902098 0.01998002 0.0009990000000000005 0 0 0.97902098 0.01998002 0.0009990000000000005 0 0 0.97902098 0.01998002 0.0009990000000000005 0 0 0.6993007 0.1998002 0.09990010000000001 0.0009990000000000005 0 0.97902098 0.01998002 0.0009990000000000005 0 0 0.97902098 0.01998002 0.0009990000000000005 0 0 0.01 0.54 0.25 0.15 0.05 0 0.01 0.09 0.6 0.3 0.97902098 0.01998002 0.0009990000000000005 0 0 0.97902098 0.01998002 0.0009990000000000005 0 0 0.97902098 0.01998002 0.0009990000000000005 0 0 0.97902098 0.01998002 0.0009990000000000005 0 0 0.97902098 0.01998002 0.0009990000000000005 0 0 0.97902098 0.01998002 0.0009990000000000005 0 0 0.97902098 0.01998002 0.0009990000000000005 0 0 0.97902098 0.01998002 0.0009990000000000005 0 0 0.97902098 0.01998002 0.0009990000000000005 0 0 0.8991009 0.08991009 0.009990010000000001 0.0009990000000000005 0 0.97902098 0.01998002 0.0009990000000000005 0 0 0 0.01 0.09 0.6 0.3 0.97902098 0.01998002 0.0009990000000000005 0 0 0.97902098 0.01998002 0.0009990000000000005 0 0 0.9399999999999999 0.03 0.02 0.01 0 0.9399999999999999 0.03 0.02 0.01 0 0.97902098 0.01998002 0.0009990000000000005 0 0 0.97902098 0.01998002 0.0009990000000000005 0 0 0.97902098 0.01998002 0.0009990000000000005 0 0 0.97902098 0.01998002 0.0009990000000000005 0 0 0.97902098 0.01998002 0.0009990000000000005 0 0 0.97902098 0.01998002 0.0009990000000000005 0 0 0.97902098 0.01998002 0.0009990000000000005 0 0 0.97902098 0.01998002 0.0009990000000000005 0 0 0.97902098 0.01998002 0.0009990000000000005 0 0 0.97902098 0.01998002 0.0009990000000000005 0 0 0.97902098 0.01998002 0.0009990000000000005 0 0 0.97902098 0.01998002 0.0009990000000000005 0 0 0.97902098 0.01998002 0.0009990000000000005 0 0 0.97902098 0.01998002 0.0009990000000000005 0 0 0.97902098 0.01998002 0.0009990000000000005 0 0 0.97902098 0.01998002 0.0009990000000000005 0 0 0.97902098 0.01998002 0.0009990000000000005 0 0 0.97902098 0.01998002 0.0009990000000000005 0 0 0.97902098 0.01998002 0.0009990000000000005 0 0 0.97902098 0.01998002 0.0009990000000000005 0 0 0.97902098 0.01998002 0.0009990000000000005 0 0 0.97902098 0.01998002 0.0009990000000000005 0 0 0.97902098 0.01998002 0.0009990000000000005 0 0 0.97902098 0.01998002 0.0009990000000000005 0 0 0.97902098 0.01998002 0.0009990000000000005 0 0 0.97902098 0.01998002 0.0009990000000000005 0 0 0.97902098 0.01998002 0.0009990000000000005 0 0 0.97902098 0.01998002 0.0009990000000000005 0 0 0.97902098 0.01998002 0.0009990000000000005 0 0 0.97902098 0.01998002 0.0009990000000000005 0 0 0.97902098 0.01998002 0.0009990000000000005 0 0 0.97902098 0.01998002 0.0009990000000000005 0 0 0.97902098 0.01998002 0.0009990000000000005 0 0 0.97902098 0.01998002 0.0009990000000000005 0 0</probabilities>
		</cpt>
		<cpt id="F56">
			<state id="Absent" label="F160" />
			<state id="Focal__non_extensive_" label="F161" />
			<state id="Multifocal__non_extensive_" label="F162" />
			<state id="Extensive" label="F163" />
			<parents>Fault</parents>
			<probabilities>0.98901099 0.009990010000000001 0.0009990000000000005 0 0.98901099 0.009990010000000001 0.0009990000000000005 0 0.98901099 0.009990010000000001 0.0009990000000000005 0 0 0.4 0.59 0.01 0.98901099 0.009990010000000001 0.0009990000000000005 0 0.98901099 0.009990010000000001 0.0009990000000000005 0 0.98901099 0.009990010000000001 0.0009990000000000005 0 0.98901099 0.009990010000000001 0.0009990000000000005 0 0.7 0.25 0.04 0.01 0.05 0.75 0.19 0.01 0.8991009 0.08991009 0.009990010000000001 0.0009990000000000005 0.65555556 0.27777778 0.05555556 0.01111111 0.98901099 0.009990010000000001 0.0009990000000000005 0 0.98901099 0.009990010000000001 0.0009990000000000005 0 0 0.2 0.75 0.05 0 0.2 0.75 0.05 0.98901099 0.009990010000000001 0.0009990000000000005 0 0.98901099 0.009990010000000001 0.0009990000000000005 0 0.98901099 0.009990010000000001 0.0009990000000000005 0 0.98901099 0.009990010000000001 0.0009990000000000005 0 0.98901099 0.009990010000000001 0.0009990000000000005 0 0.98901099 0.009990010000000001 0.0009990000000000005 0 0.01 0.1 0.3 0.59 0.8991009 0.08991009 0.009990010000000001 0.0009990000000000005 0.98901099 0.009990010000000001 0.0009990000000000005 0 0.98900111 0.009989909999999999 0.0009989900000000004 9.989999999999999e-06 0.98900111 0.009989909999999999 0.0009989900000000004 9.989999999999999e-06 0.49 0.2 0.3 0.01 0.49 0.2 0.3 0.01 0.49 0.2 0.3 0.01 0.84158416 0.12871287 0.01980198 0.00990099 0.84158416 0.12871287 0.01980198 0.00990099 0.92 0.05 0.02 0.01 0.92 0.05 0.02 0.01 0.993 0.001 0.001 0.005000000000000001 0.993 0.001 0.001 0.005000000000000001 0.993 0.001 0.001 0.005000000000000001 0.993 0.001 0.001 0.005000000000000001 0.944 0.05 0.005000000000000001 0.001 0.944 0.05 0.005000000000000001 0.001 0.98900111 0.009989909999999999 0.0009989900000000004 9.989999999999999e-06 0.944 0.05 0.005000000000000001 0.001 0.944 0.05 0.005000000000000001 0.001 0.83 0.1 0.05 0.02 0.83 0.1 0.05 0.02 0.83 0.1 0.05 0.02 0.944 0.05 0.005000000000000001 0.001 0.83 0.1 0.05 0.02 0.83 0.1 0.05 0.02 0.83 0.1 0.05 0.02 0.83 0.1 0.05 0.02 0.944 0.05 0.005000000000000001 0.001 0.98901099 0.009990010000000001 0.0009990000000000005 0 0.98901099 0.009990010000000001 0.0009990000000000005 0 0.98901099 0.009990010000000001 0.0009990000000000005 0 0.98901099 0.009990010000000001 0.0009990000000000005 0 0.84 0.1 0.05 0.01 0.98901099 0.009990010000000001 0.0009990000000000005 0 0.98901099 0.009990010000000001 0.0009990000000000005 0 0.98901099 0.009990010000000001 0.0009990000000000005 0 0.7992008 0.14985015 0.04995005 0.0009990000000000005 0.98901099 0.009990010000000001 0.0009990000000000005 0 0.83 0.1 0.05 0.02</probabilities>
		</cpt>
		<cpt id="F8">
			<state id="Absent_to_slight___5__" label="F164" />
			<state id="Moderate__5_50__" label="F165" />
			<state id="Marked___50__" label="F166" />
			<parents>Fault F53 F56</parents>
			<probabilities>0.95 0.05 0 0.91542289 0.07960199 0.00497512 0.8 0.2 0 0.8 0.2 0 0.9047619 0.08571429 0.009523810000000001 0.885 0.1 0.015 0.79 0.17 0.04 0.9047619 0.08571429 0.009523810000000001 0.75 0.2 0.05 0.755 0.23 0.015 0.64 0.28 0.08 0.75 0.2 0.05 0.55 0.2 0.25 0.52 0.23 0.25 0.35 0.35 0.3 0 0.1 0.9 0.95 0.05 0 0.91542289 0.07960199 0.00497512 0.8 0.2 0 0.8 0.2 0 0.9047619 0.08571429 0.009523810000000001 0.885 0.1 0.015 0.79 0.17 0.04 0.9047619 0.08571429 0.009523810000000001 0.75 0.2 0.05 0.755 0.23 0.015 0.64 0.28 0.08 0.75 0.2 0.05 0.55 0.2 0.25 0.52 0.23 0.25 0.35 0.35 0.3 0 0.1 0.9 0.95 0.05 0 0.91542289 0.07960199 0.00497512 0.8 0.2 0 0.8 0.2 0 0.9047619 0.08571429 0.009523810000000001 0.885 0.1 0.015 0.79 0.17 0.04 0.9047619 0.08571429 0.009523810000000001 0.75 0.2 0.05 0.755 0.23 0.015 0.64 0.28 0.08 0.75 0.2 0.05 0.55 0.2 0.25 0.52 0.23 0.25 0.35 0.35 0.3 0 0.1 0.9 0.95 0.05 0 0.91542289 0.07960199 0.00497512 0.8 0.2 0 0.8 0.2 0 0.9047619 0.08571429 0.009523810000000001 0.885 0.1 0.015 0.79 0.17 0.04 0.9047619 0.08571429 0.009523810000000001 0.75 0.2 0.05 0.755 0.23 0.015 0.64 0.28 0.08 0.75 0.2 0.05 0.55 0.2 0.25 0.52 0.23 0.25 0.35 0.35 0.3 0 0.1 0.9 0 0.001 0.999 0 0.001 0.999 0 0.01 0.99 0 0.1 0.9 0.95 0.04 0.01 0.915 0.07000000000000001 0.015 0.84 0.12 0.04 0.95 0.04 0.01 0.8 0.15 0.05 0.265 0.72 0.015 0.6899999999999999 0.23 0.08 0.8 0.15 0.05 0.6 0.15 0.25 0.57 0.18 0.25 0.4 0.3 0.3 0 0.1 0.9 0.95 0.05 0 0.91542289 0.07960199 0.00497512 0.8 0.2 0 0.8 0.2 0 0.9047619 0.08571429 0.009523810000000001 0.885 0.1 0.015 0.79 0.17 0.04 0.9047619 0.08571429 0.009523810000000001 0.75 0.2 0.05 0.755 0.23 0.015 0.64 0.28 0.08 0.75 0.2 0.05 0.55 0.2 0.25 0.52 0.23 0.25 0.35 0.35 0.3 0 0.1 0.9 0.99 0.01 0 0.95454545 0.04040404 0.00505051 0.99 0.01 0 0.99 0.01 0 0.95 0.04 0.01 0.915 0.07000000000000001 0.015 0.84 0.12 0.04 0.95 0.04 0.01 0.8 0.15 0.05 0.265 0.72 0.015 0.6899999999999999 0.23 0.08 0.8 0.15 0.05 0.6 0.15 0.25 0.57 0.18 0.25 0.4 0.3 0.3 0 0.1 0.9 0.99 0.01 0 0.95454545 0.04040404 0.00505051 0.99 0.01 0 0.99 0.01 0 0.95 0.04 0.01 0.915 0.07000000000000001 0.015 0.84 0.12 0.04 0.95 0.04 0.01 0.8 0.15 0.05 0.265 0.72 0.015 0.6899999999999999 0.23 0.08 0.8 0.15 0.05 0.6 0.15 0.25 0.57 0.18 0.25 0.4 0.3 0.3 0 0.1 0.9 0.5 0.49 0.01 0.49 0.495 0.015 0.5 0.45 0.05 0.5 0.45 0.05 0.48 0.5 0.02 0.525 0.45 0.025 0.5 0.45 0.05 0.48 0.5 0.02 0.3 0.65 0.05 0.275 0.67 0.055 0.19 0.73 0.08 0.34285714 0.61904762 0.03809524 0.05 0.65 0.3 0.05 0.65 0.3 0.04 0.61 0.35 0 0.1 0.9 0.99 0.01 0 0.95454545 0.04040404 0.00505051 0.99 0.01 0 0.99 0.01 0 0.95 0.04 0.01 0.915 0.07000000000000001 0.015 0.84 0.12 0.04 0.95 0.04 0.01 0.8 0.15 0.05 0.265 0.72 0.015 0.6899999999999999 0.23 0.08 0.8 0.15 0.05 0.6 0.15 0.25 0.57 0.18 0.25 0.4 0.3 0.3 0 0.1 0.9 0.95 0.05 0 0.91542289 0.07960199 0.00497512 0.8 0.2 0 0.8 0.2 0 0.9047619 0.08571429 0.009523810000000001 0.885 0.1 0.015 0.79 0.17 0.04 0.9047619 0.08571429 0.009523810000000001 0.75 0.2 0.05 0.755 0.23 0.015 0.64 0.28 0.08 0.75 0.2 0.05 0.55 0.2 0.25 0.52 0.23 0.25 0.35 0.35 0.3 0 0.1 0.9 0.79 0.2 0.01 0.755 0.23 0.015 0.79 0.2 0.01 0.79 0.2 0.01 0.74 0.24 0.02 0.725 0.25 0.025 0.7 0.25 0.05 0.74 0.24 0.02 0.6 0.34 0.06 0.5649999999999999 0.37 0.065 0.49 0.42 0.09 0.61 0.34 0.05 0.49 0.25 0.26 0.46 0.28 0.26 0.29 0.4 0.31 0 0.1 0.9 0.99 0.01 0 0.95454545 0.04040404 0.00505051 0.99 0.01 0 0.99 0.01 0 0.95 0.04 0.01 0.915 0.07000000000000001 0.015 0.84 0.12 0.04 0.95 0.04 0.01 0.8 0.15 0.05 0.265 0.72 0.015 0.6899999999999999 0.23 0.08 0.8 0.15 0.05 0.6 0.15 0.25 0.57 0.18 0.25 0.4 0.3 0.3 0 0.1 0.9 0.99 0.01 0 0.95454545 0.04040404 0.00505051 0.99 0.01 0 0.99 0.01 0 0.95 0.04 0.01 0.915 0.07000000000000001 0.015 0.84 0.12 0.04 0.95 0.04 0.01 0.8 0.15 0.05 0.265 0.72 0.015 0.6899999999999999 0.23 0.08 0.8 0.15 0.05 0.6 0.15 0.25 0.57 0.18 0.25 0.4 0.3 0.3 0 0.1 0.9 0.33333333 0.33333333 0.33333333 0.2 0.75 0.05 0.13 0.8 0.07000000000000001 0.38 0.6 0.02 0.33333333 0.33333333 0.33333333 0.15 0.79 0.06 0.05 0.87 0.08 0.33 0.64 0.03 0.33333333 0.33333333 0.33333333 0.05 0.85 0.1 0.02 0.86 0.12 0.18 0.75 0.07000000000000001 0.33333333 0.33333333 0.33333333 0.02 0.68 0.3 0.01 0.67 0.32 0.00497512 0.72636816 0.26865672 0.33333333 0.33333333 0.33333333 0.2 0.75 0.05 0.13 0.8 0.07000000000000001 0.38 0.6 0.02 0.33333333 0.33333333 0.33333333 0.15 0.79 0.06 0.05 0.87 0.08 0.33 0.64 0.03 0.33333333 0.33333333 0.33333333 0.05 0.85 0.1 0.02 0.86 0.12 0.18 0.75 0.07000000000000001 0.33333333 0.33333333 0.33333333 0.02 0.68 0.3 0.01 0.67 0.32 0.00497512 0.72636816 0.26865672 0.99 0.01 0 0.95454545 0.04040404 0.00505051 0.99 0.01 0 0.99 0.01 0 0.95 0.04 0.01 0.915 0.07000000000000001 0.015 0.84 0.12 0.04 0.95 0.04 0.01 0.8 0.15 0.05 0.265 0.72 0.015 0.6899999999999999 0.23 0.08 0.8 0.15 0.05 0.6 0.15 0.25 0.57 0.18 0.25 0.4 0.3 0.3 0 0.1 0.9 0.99 0.01 0 0.95454545 0.04040404 0.00505051 0.99 0.01 0 0.99 0.01 0 0.95 0.04 0.01 0.915 0.07000000000000001 0.015 0.84 0.12 0.04 0.95 0.04 0.01 0.8 0.15 0.05 0.265 0.72 0.015 0.6899999999999999 0.23 0.08 0.8 0.15 0.05 0.6 0.15 0.25 0.57 0.18 0.25 0.4 0.3 0.3 0 0.1 0.9 0 0.2 0.8 0 0.2 0.8 0 0.2 0.8 0 0.2 0.8 0 0.2 0.8 0 0.2 0.8 0 0.2 0.8 0 0.25 0.75 0 0.15 0.85 0 0.15 0.85 0 0.15 0.85 0 0.2 0.8 0 0.1 0.9 0 0.1 0.9 0 0.05 0.95 0 0.02 0.98 0.01 0.5 0.49 0.01 0.5 0.49 0.01 0.5 0.49 0.01 0.5 0.49 0.01 0.49 0.5 0.01 0.49 0.5 0.01 0.5 0.49 0.01 0.54 0.45 0.0009990000000000005 0.44955045 0.54945055 0.0009990000000000005 0.44955045 0.54945055 0.0009990000000000005 0.44955045 0.54945055 0.0009990000000000005 0.4995005 0.4995005 9.999e-05 0.249975 0.74992501 9.999e-05 0.249975 0.74992501 9.999e-05 0.19998 0.79992001 0.01 0.05 0.9399999999999999 0.95 0.05 0 0.91542289 0.07960199 0.00497512 0.8 0.2 0 0.8 0.2 0 0.9047619 0.08571429 0.009523810000000001 0.885 0.1 0.015 0.79 0.17 0.04 0.9047619 0.08571429 0.009523810000000001 0.75 0.2 0.05 0.755 0.23 0.015 0.64 0.28 0.08 0.75 0.2 0.05 0.55 0.2 0.25 0.52 0.23 0.25 0.35 0.35 0.3 0 0.1 0.9 0.99 0.01 0 0.95454545 0.04040404 0.00505051 0.99 0.01 0 0.99 0.01 0 0.95 0.04 0.01 0.915 0.07000000000000001 0.015 0.84 0.12 0.04 0.95 0.04 0.01 0.8 0.15 0.05 0.265 0.72 0.015 0.6899999999999999 0.23 0.08 0.8 0.15 0.05 0.6 0.15 0.25 0.57 0.18 0.25 0.4 0.3 0.3 0 0.1 0.9 0.99 0.01 0 0.95454545 0.04040404 0.00505051 0.99 0.01 0 0.99 0.01 0 0.95 0.04 0.01 0.915 0.07000000000000001 0.015 0.84 0.12 0.04 0.95 0.04 0.01 0.8 0.15 0.05 0.265 0.72 0.015 0.6899999999999999 0.23 0.08 0.8 0.15 0.05 0.6 0.15 0.25 0.57 0.18 0.25 0.4 0.3 0.3 0 0.1 0.9 0.95 0.05 0 0.91542289 0.07960199 0.00497512 0.8 0.2 0 0.8 0.2 0 0.9047619 0.08571429 0.009523810000000001 0.885 0.1 0.015 0.79 0.17 0.04 0.9047619 0.08571429 0.009523810000000001 0.75 0.2 0.05 0.755 0.23 0.015 0.64 0.28 0.08 0.75 0.2 0.05 0.55 0.2 0.25 0.52 0.23 0.25 0.35 0.35 0.3 0 0.1 0.9 0.99 0.01 0 0.95454545 0.04040404 0.00505051 0.99 0.01 0 0.99 0.01 0 0.95 0.04 0.01 0.915 0.07000000000000001 0.015 0.84 0.12 0.04 0.95 0.04 0.01 0.8 0.15 0.05 0.265 0.72 0.015 0.6899999999999999 0.23 0.08 0.8 0.15 0.05 0.6 0.15 0.25 0.57 0.18 0.25 0.4 0.3 0.3 0 0.1 0.9 0.99 0.01 0 0.95454545 0.04040404 0.00505051 0.99 0.01 0 0.99 0.01 0 0.95 0.04 0.01 0.915 0.07000000000000001 0.015 0.84 0.12 0.04 0.95 0.04 0.01 0.8 0.15 0.05 0.265 0.72 0.015 0.6899999999999999 0.23 0.08 0.8 0.15 0.05 0.6 0.15 0.25 0.57 0.18 0.25 0.4 0.3 0.3 0 0.1 0.9 0.99 0.01 0 0.95454545 0.04040404 0.00505051 0.99 0.01 0 0.99 0.01 0 0.95 0.04 0.01 0.915 0.07000000000000001 0.015 0.84 0.12 0.04 0.95 0.04 0.01 0.8 0.15 0.05 0.265 0.72 0.015 0.6899999999999999 0.23 0.08 0.8 0.15 0.05 0.6 0.15 0.25 0.57 0.18 0.25 0.4 0.3 0.3 0 0.1 0.9 0.99 0.01 0 0.95454545 0.04040404 0.00505051 0.99 0.01 0 0.99 0.01 0 0.95 0.04 0.01 0.915 0.07000000000000001 0.015 0.84 0.12 0.04 0.95 0.04 0.01 0.8 0.15 0.05 0.265 0.72 0.015 0.6899999999999999 0.23 0.08 0.8 0.15 0.05 0.6 0.15 0.25 0.57 0.18 0.25 0.4 0.3 0.3 0 0.1 0.9 0.99 0.01 0 0.95454545 0.04040404 0.00505051 0.99 0.01 0 0.99 0.01 0 0.95 0.04 0.01 0.915 0.07000000000000001 0.015 0.84 0.12 0.04 0.95 0.04 0.01 0.8 0.15 0.05 0.265 0.72 0.015 0.6899999999999999 0.23 0.08 0.8 0.15 0.05 0.6 0.15 0.25 0.57 0.18 0.25 0.4 0.3 0.3 0 0.1 0.9 0.99 0.01 0 0.95454545 0.04040404 0.00505051 0.99 0.01 0 0.99 0.01 0 0.95 0.04 0.01 0.915 0.07000000000000001 0.015 0.84 0.12 0.04 0.95 0.04 0.01 0.8 0.15 0.05 0.265 0.72 0.015 0.6899999999999999 0.23 0.08 0.8 0.15 0.05 0.6 0.15 0.25 0.57 0.18 0.25 0.4 0.3 0.3 0 0.1 0.9 0.99 0.01 0 0.95454545 0.04040404 0.00505051 0.99 0.01 0 0.99 0.01 0 0.95 0.04 0.01 0.915 0.07000000000000001 0.015 0.84 0.12 0.04 0.95 0.04 0.01 0.8 0.15 0.05 0.265 0.72 0.015 0.6899999999999999 0.23 0.08 0.8 0.15 0.05 0.6 0.15 0.25 0.57 0.18 0.25 0.4 0.3 0.3 0 0.1 0.9 0.99 0.01 0 0.95454545 0.04040404 0.00505051 0.99 0.01 0 0.99 0.01 0 0.95 0.04 0.01 0.915 0.07000000000000001 0.015 0.84 0.12 0.04 0.95 0.04 0.01 0.8 0.15 0.05 0.265 0.72 0.015 0.6899999999999999 0.23 0.08 0.8 0.15 0.05 0.6 0.15 0.25 0.57 0.18 0.25 0.4 0.3 0.3 0 0.1 0.9 0.99 0.01 0 0.95454545 0.04040404 0.00505051 0.99 0.01 0 0.99 0.01 0 0.95 0.04 0.01 0.915 0.07000000000000001 0.015 0.84 0.12 0.04 0.95 0.04 0.01 0.8 0.15 0.05 0.265 0.72 0.015 0.6899999999999999 0.23 0.08 0.8 0.15 0.05 0.6 0.15 0.25 0.57 0.18 0.25 0.4 0.3 0.3 0 0.1 0.9 0.99 0.01 0 0.95454545 0.04040404 0.00505051 0.99 0.01 0 0.99 0.01 0 0.95 0.04 0.01 0.915 0.07000000000000001 0.015 0.84 0.12 0.04 0.95 0.04 0.01 0.8 0.15 0.05 0.265 0.72 0.015 0.6899999999999999 0.23 0.08 0.8 0.15 0.05 0.6 0.15 0.25 0.57 0.18 0.25 0.4 0.3 0.3 0 0.1 0.9 0.99 0.01 0 0.95454545 0.04040404 0.00505051 0.99 0.01 0 0.99 0.01 0 0.95 0.04 0.01 0.915 0.07000000000000001 0.015 0.84 0.12 0.04 0.95 0.04 0.01 0.8 0.15 0.05 0.265 0.72 0.015 0.6899999999999999 0.23 0.08 0.8 0.15 0.05 0.6 0.15 0.25 0.57 0.18 0.25 0.4 0.3 0.3 0 0.1 0.9 0.99 0.01 0 0.95454545 0.04040404 0.00505051 0.99 0.01 0 0.99 0.01 0 0.95 0.04 0.01 0.915 0.07000000000000001 0.015 0.84 0.12 0.04 0.95 0.04 0.01 0.8 0.15 0.05 0.265 0.72 0.015 0.6899999999999999 0.23 0.08 0.8 0.15 0.05 0.6 0.15 0.25 0.57 0.18 0.25 0.4 0.3 0.3 0 0.1 0.9 0.99 0.01 0 0.95454545 0.04040404 0.00505051 0.99 0.01 0 0.99 0.01 0 0.95 0.04 0.01 0.915 0.07000000000000001 0.015 0.84 0.12 0.04 0.95 0.04 0.01 0.8 0.15 0.05 0.265 0.72 0.015 0.6899999999999999 0.23 0.08 0.8 0.15 0.05 0.6 0.15 0.25 0.57 0.18 0.25 0.4 0.3 0.3 0 0.1 0.9 0.99 0.01 0 0.95454545 0.04040404 0.00505051 0.99 0.01 0 0.99 0.01 0 0.95 0.04 0.01 0.915 0.07000000000000001 0.015 0.84 0.12 0.04 0.95 0.04 0.01 0.8 0.15 0.05 0.265 0.72 0.015 0.6899999999999999 0.23 0.08 0.8 0.15 0.05 0.6 0.15 0.25 0.57 0.18 0.25 0.4 0.3 0.3 0 0.1 0.9 0.99 0.01 0 0.95454545 0.04040404 0.00505051 0.99 0.01 0 0.99 0.01 0 0.95 0.04 0.01 0.915 0.07000000000000001 0.015 0.84 0.12 0.04 0.95 0.04 0.01 0.8 0.15 0.05 0.265 0.72 0.015 0.6899999999999999 0.23 0.08 0.8 0.15 0.05 0.6 0.15 0.25 0.57 0.18 0.25 0.4 0.3 0.3 0 0.1 0.9 0.99 0.01 0 0.95454545 0.04040404 0.00505051 0.99 0.01 0 0.99 0.01 0 0.95 0.04 0.01 0.915 0.07000000000000001 0.015 0.84 0.12 0.04 0.95 0.04 0.01 0.8 0.15 0.05 0.265 0.72 0.015 0.6899999999999999 0.23 0.08 0.8 0.15 0.05 0.6 0.15 0.25 0.57 0.18 0.25 0.4 0.3 0.3 0 0.1 0.9 0.99 0.01 0 0.95454545 0.04040404 0.00505051 0.99 0.01 0 0.99 0.01 0 0.95 0.04 0.01 0.915 0.07000000000000001 0.015 0.84 0.12 0.04 0.95 0.04 0.01 0.8 0.15 0.05 0.265 0.72 0.015 0.6899999999999999 0.23 0.08 0.8 0.15 0.05 0.6 0.15 0.25 0.57 0.18 0.25 0.4 0.3 0.3 0 0.1 0.9 0.99 0.01 0 0.95454545 0.04040404 0.00505051 0.99 0.01 0 0.99 0.01 0 0.95 0.04 0.01 0.915 0.07000000000000001 0.015 0.84 0.12 0.04 0.95 0.04 0.01 0.8 0.15 0.05 0.265 0.72 0.015 0.6899999999999999 0.23 0.08 0.8 0.15 0.05 0.6 0.15 0.25 0.57 0.18 0.25 0.4 0.3 0.3 0 0.1 0.9 0.99 0.01 0 0.95454545 0.04040404 0.00505051 0.99 0.01 0 0.99 0.01 0 0.95 0.04 0.01 0.915 0.07000000000000001 0.015 0.84 0.12 0.04 0.95 0.04 0.01 0.8 0.15 0.05 0.265 0.72 0.015 0.6899999999999999 0.23 0.08 0.8 0.15 0.05 0.6 0.15 0.25 0.57 0.18 0.25 0.4 0.3 0.3 0 0.1 0.9 0.99 0.01 0 0.95454545 0.04040404 0.00505051 0.99 0.01 0 0.99 0.01 0 0.95 0.04 0.01 0.915 0.07000000000000001 0.015 0.84 0.12 0.04 0.95 0.04 0.01 0.8 0.15 0.05 0.265 0.72 0.015 0.6899999999999999 0.23 0.08 0.8 0.15 0.05 0.6 0.15 0.25 0.57 0.18 0.25 0.4 0.3 0.3 0 0.1 0.9 0.99 0.01 0 0.95454545 0.04040404 0.00505051 0.99 0.01 0 0.99 0.01 0 0.95 0.04 0.01 0.915 0.07000000000000001 0.015 0.84 0.12 0.04 0.95 0.04 0.01 0.8 0.15 0.05 0.265 0.72 0.015 0.6899999999999999 0.23 0.08 0.8 0.15 0.05 0.6 0.15 0.25 0.57 0.18 0.25 0.4 0.3 0.3 0 0.1 0.9 0.99 0.01 0 0.95454545 0.04040404 0.00505051 0.99 0.01 0 0.99 0.01 0 0.95 0.04 0.01 0.915 0.07000000000000001 0.015 0.84 0.12 0.04 0.95 0.04 0.01 0.8 0.15 0.05 0.265 0.72 0.015 0.6899999999999999 0.23 0.08 0.8 0.15 0.05 0.6 0.15 0.25 0.57 0.18 0.25 0.4 0.3 0.3 0 0.1 0.9 0.95 0.05 0 0.91542289 0.07960199 0.00497512 0.8 0.2 0 0.8 0.2 0 0.9047619 0.08571429 0.009523810000000001 0.885 0.1 0.015 0.79 0.17 0.04 0.9047619 0.08571429 0.009523810000000001 0.75 0.2 0.05 0.755 0.23 0.015 0.64 0.28 0.08 0.75 0.2 0.05 0.55 0.2 0.25 0.52 0.23 0.25 0.35 0.35 0.3 0 0.1 0.9 0.95 0.05 0 0.91542289 0.07960199 0.00497512 0.8 0.2 0 0.8 0.2 0 0.9047619 0.08571429 0.009523810000000001 0.885 0.1 0.015 0.79 0.17 0.04 0.9047619 0.08571429 0.009523810000000001 0.75 0.2 0.05 0.755 0.23 0.015 0.64 0.28 0.08 0.75 0.2 0.05 0.55 0.2 0.25 0.52 0.23 0.25 0.35 0.35 0.3 0 0.1 0.9 0.99 0.01 0 0.95454545 0.04040404 0.00505051 0.99 0.01 0 0.99 0.01 0 0.95 0.04 0.01 0.915 0.07000000000000001 0.015 0.84 0.12 0.04 0.95 0.04 0.01 0.8 0.15 0.05 0.265 0.72 0.015 0.6899999999999999 0.23 0.08 0.8 0.15 0.05 0.6 0.15 0.25 0.57 0.18 0.25 0.4 0.3 0.3 0 0.1 0.9 0.99 0.01 0 0.95454545 0.04040404 0.00505051 0.99 0.01 0 0.99 0.01 0 0.95 0.04 0.01 0.915 0.07000000000000001 0.015 0.84 0.12 0.04 0.95 0.04 0.01 0.8 0.15 0.05 0.265 0.72 0.015 0.6899999999999999 0.23 0.08 0.8 0.15 0.05 0.6 0.15 0.25 0.57 0.18 0.25 0.4 0.3 0.3 0 0.1 0.9 0.99 0.01 0 0.95454545 0.04040404 0.00505051 0.99 0.01 0 0.99 0.01 0 0.95 0.04 0.01 0.915 0.07000000000000001 0.015 0.84 0.12 0.04 0.95 0.04 0.01 0.8 0.15 0.05 0.265 0.72 0.015 0.6899999999999999 0.23 0.08 0.8 0.15 0.05 0.6 0.15 0.25 0.57 0.18 0.25 0.4 0.3 0.3 0 0.1 0.9 0.99 0.01 0 0.95454545 0.04040404 0.00505051 0.99 0.01 0 0.99 0.01 0 0.95 0.04 0.01 0.915 0.07000000000000001 0.015 0.84 0.12 0.04 0.95 0.04 0.01 0.8 0.15 0.05 0.265 0.72 0.015 0.6899999999999999 0.23 0.08 0.8 0.15 0.05 0.6 0.15 0.25 0.57 0.18 0.25 0.4 0.3 0.3 0 0.1 0.9 0.99 0.01 0 0.95454545 0.04040404 0.00505051 0.99 0.01 0 0.99 0.01 0 0.95 0.04 0.01 0.915 0.07000000000000001 0.015 0.84 0.12 0.04 0.95 0.04 0.01 0.8 0.15 0.05 0.265 0.72 0.015 0.6899999999999999 0.23 0.08 0.8 0.15 0.05 0.6 0.15 0.25 0.57 0.18 0.25 0.4 0.3 0.3 0 0.1 0.9 0.99 0.01 0 0.95454545 0.04040404 0.00505051 0.99 0.01 0 0.99 0.01 0 0.95 0.04 0.01 0.915 0.07000000000000001 0.015 0.84 0.12 0.04 0.95 0.04 0.01 0.8 0.15 0.05 0.265 0.72 0.015 0.6899999999999999 0.23 0.08 0.8 0.15 0.05 0.6 0.15 0.25 0.57 0.18 0.25 0.4 0.3 0.3 0 0.1 0.9 0.99 0.01 0 0.95454545 0.04040404 0.00505051 0.99 0.01 0 0.99 0.01 0 0.95 0.04 0.01 0.915 0.07000000000000001 0.015 0.84 0.12 0.04 0.95 0.04 0.01 0.8 0.15 0.05 0.265 0.72 0.015 0.6899999999999999 0.23 0.08 0.8 0.15 0.05 0.6 0.15 0.25 0.57 0.18 0.25 0.4 0.3 0.3 0 0.1 0.9 0.99 0.01 0 0.95454545 0.04040404 0.00505051 0.99 0.01 0 0.99 0.01 0 0.95 0.04 0.01 0.915 0.07000000000000001 0.015 0.84 0.12 0.04 0.95 0.04 0.01 0.8 0.15 0.05 0.265 0.72 0.015 0.6899999999999999 0.23 0.08 0.8 0.15 0.05 0.6 0.15 0.25 0.57 0.18 0.25 0.4 0.3 0.3 0 0.1 0.9 0.99 0.01 0 0.95454545 0.04040404 0.00505051 0.99 0.01 0 0.99 0.01 0 0.95 0.04 0.01 0.915 0.07000000000000001 0.015 0.84 0.12 0.04 0.95 0.04 0.01 0.8 0.15 0.05 0.265 0.72 0.015 0.6899999999999999 0.23 0.08 0.8 0.15 0.05 0.6 0.15 0.25 0.57 0.18 0.25 0.4 0.3 0.3 0 0.1 0.9 0.95 0.05 0 0.91542289 0.07960199 0.00497512 0.8 0.2 0 0.8 0.2 0 0.9047619 0.08571429 0.009523810000000001 0.885 0.1 0.015 0.79 0.17 0.04 0.9047619 0.08571429 0.009523810000000001 0.75 0.2 0.05 0.755 0.23 0.015 0.64 0.28 0.08 0.75 0.2 0.05 0.55 0.2 0.25 0.52 0.23 0.25 0.35 0.35 0.3 0 0.1 0.9 0.99 0.01 0 0.95454545 0.04040404 0.00505051 0.99 0.01 0 0.99 0.01 0 0.95 0.04 0.01 0.915 0.07000000000000001 0.015 0.84 0.12 0.04 0.95 0.04 0.01 0.8 0.15 0.05 0.265 0.72 0.015 0.6899999999999999 0.23 0.08 0.8 0.15 0.05 0.6 0.15 0.25 0.57 0.18 0.25 0.4 0.3 0.3 0 0.1 0.9 0.95 0.05 0 0.91542289 0.07960199 0.00497512 0.8 0.2 0 0.8 0.2 0 0.9047619 0.08571429 0.009523810000000001 0.885 0.1 0.015 0.79 0.17 0.04 0.9047619 0.08571429 0.009523810000000001 0.75 0.2 0.05 0.755 0.23 0.015 0.64 0.28 0.08 0.75 0.2 0.05 0.55 0.2 0.25 0.52 0.23 0.25 0.35 0.35 0.3 0 0.1 0.9 0.99 0.01 0 0.95454545 0.04040404 0.00505051 0.99 0.01 0 0.99 0.01 0 0.95 0.04 0.01 0.915 0.07000000000000001 0.015 0.84 0.12 0.04 0.95 0.04 0.01 0.8 0.15 0.05 0.265 0.72 0.015 0.6899999999999999 0.23 0.08 0.8 0.15 0.05 0.6 0.15 0.25 0.57 0.18 0.25 0.4 0.3 0.3 0 0.1 0.9 0.95 0.05 0 0.91542289 0.07960199 0.00497512 0.8 0.2 0 0.8 0.2 0 0.9047619 0.08571429 0.009523810000000001 0.885 0.1 0.015 0.79 0.17 0.04 0.9047619 0.08571429 0.009523810000000001 0.75 0.2 0.05 0.755 0.23 0.015 0.64 0.28 0.08 0.75 0.2 0.05 0.55 0.2 0.25 0.52 0.23 0.25 0.35 0.35 0.3 0 0.1 0.9 0.99 0.01 0 0.95454545 0.04040404 0.00505051 0.99 0.01 0 0.99 0.01 0 0.95 0.04 0.01 0.915 0.07000000000000001 0.015 0.84 0.12 0.04 0.95 0.04 0.01 0.8 0.15 0.05 0.265 0.72 0.015 0.6899999999999999 0.23 0.08 0.8 0.15 0.05 0.6 0.15 0.25 0.57 0.18 0.25 0.4 0.3 0.3 0 0.1 0.9</probabilities>
		</cpt>
		<cpt id="F9">
			<state id="Absent" label="F167" />
			<state id="Rare" label="F168" />
			<state id="Focal_SS_pattern" label="F169" />
			<state id="Multifocal_SS_pattern" label="F170" />
			<state id="Extensive_SS_pattern" label="F171" />
			<parents>Fault</parents>
			<probabilities>0.8991009 0.09990010000000001 0.0009990000000000005 0 0 0.8991009 0.09990010000000001 0.0009990000000000005 0 0 0.8991009 0.09990010000000001 0.0009990000000000005 0 0 0.74183976 0.24727992 0.009891199999999999 0.0009891200000000002 0 0.8991009 0.09990010000000001 0.0009990000000000005 0 0 0.8991009 0.09990010000000001 0.0009990000000000005 0 0 0.8991009 0.09990010000000001 0.0009990000000000005 0 0 0.8991009 0.09990010000000001 0.0009990000000000005 0 0 0.8991009 0.09990010000000001 0.0009990000000000005 0 0 0.8991009 0.09990010000000001 0.0009990000000000005 0 0 0.68931069 0.24975025 0.04995005 0.009990010000000001 0.0009990000000000005 0.8991009 0.09990010000000001 0.0009990000000000005 0 0 0.8991009 0.09990010000000001 0.0009990000000000005 0 0 0.8991009 0.09990010000000001 0.0009990000000000005 0 0 0.74183976 0.24727992 0.009891199999999999 0.0009891200000000002 0 0.74183976 0.24727992 0.009891199999999999 0.0009891200000000002 0 0.8991009 0.09990010000000001 0.0009990000000000005 0 0 0.8991009 0.09990010000000001 0.0009990000000000005 0 0 0.8991009 0.09990010000000001 0.0009990000000000005 0 0 0.8991009 0.09990010000000001 0.0009990000000000005 0 0 0.8991009 0.09990010000000001 0.0009990000000000005 0 0 0.8991009 0.09990010000000001 0.0009990000000000005 0 0 0.8991009 0.09990010000000001 0.0009990000000000005 0 0 0.74183976 0.24727992 0.009891199999999999 0.0009891200000000002 0 0.8991009 0.09990010000000001 0.0009990000000000005 0 0 0.8991009 0.09990010000000001 0.0009990000000000005 0 0 0.8991009 0.09990010000000001 0.0009990000000000005 0 0 0.8991009 0.09990010000000001 0.0009990000000000005 0 0 0.8991009 0.09990010000000001 0.0009990000000000005 0 0 0.8991009 0.09990010000000001 0.0009990000000000005 0 0 0.8991009 0.09990010000000001 0.0009990000000000005 0 0 0.8991009 0.09990010000000001 0.0009990000000000005 0 0 0.8991009 0.09990010000000001 0.0009990000000000005 0 0 0.8991009 0.09990010000000001 0.0009990000000000005 0 0 0.8991009 0.09990010000000001 0.0009990000000000005 0 0 0.8991009 0.09990010000000001 0.0009990000000000005 0 0 0.8991009 0.09990010000000001 0.0009990000000000005 0 0 0.8991009 0.09990010000000001 0.0009990000000000005 0 0 0.8991009 0.09990010000000001 0.0009990000000000005 0 0 0.8991009 0.09990010000000001 0.0009990000000000005 0 0 0.8991009 0.09990010000000001 0.0009990000000000005 0 0 0.86820084 0.07322176 0.05230126 0.00523013 0.00104603 0.8991009 0.09990010000000001 0.0009990000000000005 0 0 0.65 0.15 0.1 0.05 0.05 0.59 0.15 0.12 0.07000000000000001 0.07000000000000001 0.68 0.1 0.1 0.07000000000000001 0.05 0.8991009 0.09990010000000001 0.0009990000000000005 0 0 0.68 0.1 0.1 0.07000000000000001 0.05 0.7 0.05 0.05 0.1 0.1 0.0009990000000000005 0.009990010000000001 0.04995005 0.1998002 0.73926074 0.68 0.1 0.1 0.07000000000000001 0.05 0.8991009 0.09990010000000001 0.0009990000000000005 0 0 0.8991009 0.09990010000000001 0.0009990000000000005 0 0 0.8991009 0.09990010000000001 0.0009990000000000005 0 0 0.68 0.1 0.1 0.07000000000000001 0.05 0.8991009 0.09990010000000001 0.0009990000000000005 0 0 0.8991009 0.09990010000000001 0.0009990000000000005 0 0 0.8991009 0.09990010000000001 0.0009990000000000005 0 0 0.8991009 0.09990010000000001 0.0009990000000000005 0 0 0.8991009 0.09990010000000001 0.0009990000000000005 0 0 0.8991009 0.09990010000000001 0.0009990000000000005 0 0 0.8991009 0.09990010000000001 0.0009990000000000005 0 0 0.68 0.1 0.1 0.07000000000000001 0.05</probabilities>
		</cpt>
		<cpt id="F10">
			<state id="Absent" label="F172" />
			<state id="Present" label="F173" />
			<parents>Fault</parents>
			<probabilities>1 0 1 0 1 0 1 0 1 0 1 0 1 0 1 0 1 0 1 0 1 0 1 0 1 0 1 0 1 0 1 0 1 0 1 0 1 0 1 0 1 0 1 0 1 0 1 0 1 0 1 0 1 0 1 0 1 0 1 0 1 0 1 0 1 0 1 0 1 0 1 0 1 0 1 0 1 0 1 0 1 0 1 0 1 0 1 0 1 0 1 0 1 0 1 0 1 0 1 0 1 0 1 0 1 0 1 0 1 0 1 0 0 1 1 0 1 0 1 0 1 0 1 0 1 0</probabilities>
		</cpt>
		<cpt id="F55">
			<state id="Absent" label="F174" />
			<state id="Rare___3_" label="F175" />
			<state id="Present__3_20_" label="F176" />
			<state id="Many___20_" label="F177" />
			<parents>Fault</parents>
			<probabilities>0.999 0.001 0 0 0.999 0.001 0 0 0.999 0.001 0 0 0.999 0.001 0 0 0.999 0.001 0 0 0.999 0.001 0 0 0.999 0.001 0 0 0.999 0.001 0 0 0.999 0.001 0 0 0.999 0.001 0 0 0.98 0.02 0 0 0.999 0.001 0 0 0.999 0.001 0 0 0.999 0.001 0 0 0.999 0.001 0 0 0.999 0.001 0 0 0.999 0.001 0 0 0.999 0.001 0 0 0.999 0.001 0 0 0.999 0.001 0 0 0.999 0.001 0 0 0.999 0.001 0 0 0.999 0.001 0 0 0.98 0.02 0 0 0.999 0.001 0 0 0.8 0.19 0.01 0 0.8 0.19 0.01 0 0.3 0.49 0.2 0.01 0.3 0.49 0.2 0.01 0.3 0.49 0.2 0.01 0.39 0.5 0.1 0.01 0.6993007 0.24975025 0.04995005 0.0009990000000000005 0.7 0.15 0.1 0.05 0.7 0.15 0.1 0.05 0.999 0.001 0 0 0.999 0.001 0 0 0.999 0.001 0 0 0.999 0.001 0 0 0.999 0.001 0 0 0.999 0.001 0 0 0.999 0.001 0 0 0.999 0.001 0 0 0.999 0.001 0 0 0.999 0.001 0 0 0.9 0.09 0.01 0 0.999 0.001 0 0 0.999 0.001 0 0 0.9 0.09 0.01 0 0.999 0.001 0 0 0.999 0.001 0 0 0.999 0.001 0 0 0.999 0.001 0 0 0.79 0.15 0.05 0.01 0.999 0.001 0 0 0.999 0.001 0 0 0.999 0.001 0 0 0.999 0.001 0 0 0.999 0.001 0 0 0.999 0.001 0 0 0.999 0.001 0 0 0.999 0.001 0 0 0.999 0.001 0 0 0.999 0.001 0 0</probabilities>
		</cpt>
		<cpt id="F52">
			<state id="Absent" label="F178" />
			<state id="Rare___3_" label="F179" />
			<state id="Present__3_20_" label="F180" />
			<state id="Many___20_" label="F181" />
			<parents>Fault F55</parents>
			<probabilities>0.9999 0.0001 0 0 0.9999 0.0001 0 0 0.25 0.25 0.25 0.25 0.25 0.25 0.25 0.25 0.98 0.02 0 0 0.98 0.02 0 0 0.97 0.03 0 0 0.25 0.25 0.25 0.25 0.9999 0.0001 0 0 0.9999 0.0001 0 0 0.25 0.25 0.25 0.25 0.25 0.25 0.25 0.25 0.9999 0.0001 0 0 0.9999 0.0001 0 0 0.25 0.25 0.25 0.25 0.25 0.25 0.25 0.25 0.9999 0.0001 0 0 0.9999 0.0001 0 0 0.25 0.25 0.25 0.25 0.25 0.25 0.25 0.25 0.9999 0.0001 0 0 0.9999 0.0001 0 0 0.25 0.25 0.25 0.25 0.25 0.25 0.25 0.25 0.98 0.02 0 0 0.98 0.02 0 0 0.25 0.25 0.25 0.25 0.25 0.25 0.25 0.25 0.98 0.02 0 0 0.98 0.02 0 0 0.25 0.25 0.25 0.25 0.25 0.25 0.25 0.25 0.9999 0.0001 0 0 0.9999 0.0001 0 0 0.25 0.25 0.25 0.25 0.25 0.25 0.25 0.25 0.9999 0.0001 0 0 0.9999 0.0001 0 0 0.25 0.25 0.25 0.25 0.25 0.25 0.25 0.25 0.9490509499999999 0.04995005 0.0009990000000000005 0 0.9490509499999999 0.04995005 0.0009990000000000005 0 0.25 0.25 0.25 0.25 0.25 0.25 0.25 0.25 0.9999 0.0001 0 0 0.9999 0.0001 0 0 0.25 0.25 0.25 0.25 0.25 0.25 0.25 0.25 0.9999 0.0001 0 0 0.9999 0.0001 0 0 0.25 0.25 0.25 0.25 0.25 0.25 0.25 0.25 0.9999 0.0001 0 0 0.9999 0.0001 0 0 0.25 0.25 0.25 0.25 0.25 0.25 0.25 0.25 0.99 0.01 0 0 0.99 0.01 0 0 0.25 0.25 0.25 0.25 0.25 0.25 0.25 0.25 0.99 0.01 0 0 0.99 0.01 0 0 0.25 0.25 0.25 0.25 0.25 0.25 0.25 0.25 0.9999 0.0001 0 0 0.9999 0.0001 0 0 0.25 0.25 0.25 0.25 0.25 0.25 0.25 0.25 0.9999 0.0001 0 0 0.9999 0.0001 0 0 0.25 0.25 0.25 0.25 0.25 0.25 0.25 0.25 0.9999 0.0001 0 0 0.9999 0.0001 0 0 0.25 0.25 0.25 0.25 0.25 0.25 0.25 0.25 0.9999 0.0001 0 0 0.9999 0.0001 0 0 0.25 0.25 0.25 0.25 0.25 0.25 0.25 0.25 0.9999 0.0001 0 0 0.9999 0.0001 0 0 0.25 0.25 0.25 0.25 0.25 0.25 0.25 0.25 0.9999 0.0001 0 0 0.9999 0.0001 0 0 0.25 0.25 0.25 0.25 0.25 0.25 0.25 0.25 0.9999 0.0001 0 0 0.9999 0.0001 0 0 0.25 0.25 0.25 0.25 0.25 0.25 0.25 0.25 0.9490509499999999 0.04995005 0.0009990000000000005 0 0.9490509499999999 0.04995005 0.0009990000000000005 0 0.25 0.25 0.25 0.25 0.25 0.25 0.25 0.25 0.9999 0.0001 0 0 0.9999 0.0001 0 0 0.25 0.25 0.25 0.25 0.25 0.25 0.25 0.25 0 0.99 0.01 0 0 0.99 0.01 0 0 0.99 0.01 0 0.25 0.25 0.25 0.25 0 0.99 0.01 0 0 0.99 0.01 0 0 0.99 0.01 0 0.25 0.25 0.25 0.25 0.0009990000000000005 0.04995005 0.84915085 0.09990010000000001 0.0009990000000000005 0.04995005 0.84915085 0.09990010000000001 0 0.02 0.83 0.15 0 0.0009990000000000005 0.74925075 0.24975025 0.0009990000000000005 0.04995005 0.84915085 0.09990010000000001 0.0009990000000000005 0.04995005 0.84915085 0.09990010000000001 0 0.02 0.83 0.15 0 0.0009990000000000005 0.74925075 0.24975025 0.0009990000000000005 0.04995005 0.84915085 0.09990010000000001 0.0009990000000000005 0.04995005 0.84915085 0.09990010000000001 0 0.02 0.83 0.15 0 0.0009990000000000005 0.74925075 0.24975025 0 0.05 0.8 0.15 0 0.05 0.8 0.15 0 0.01 0.84 0.15 0 0 0.65 0.35 0.0009990000000000005 0.1998002 0.6993007 0.09990010000000001 0.0009990000000000005 0.1998002 0.6993007 0.09990010000000001 0 0.13 0.75 0.12 0 0.05 0.8 0.15 0 0.05 0.15 0.8 0 0.05 0.15 0.8 0 0.01923077 0.14423077 0.83653846 0 0.0009990000000000005 0.09990010000000001 0.8991009 0 0.01 0.2 0.79 0 0.01 0.2 0.79 0 0 0.15 0.85 0 9.999e-05 0.049995 0.94990501 0.9999 0.0001 0 0 0.9999 0.0001 0 0 0.25 0.25 0.25 0.25 0.25 0.25 0.25 0.25 0.9999 0.0001 0 0 0.9999 0.0001 0 0 0.25 0.25 0.25 0.25 0.25 0.25 0.25 0.25 0.9999 0.0001 0 0 0.9999 0.0001 0 0 0.25 0.25 0.25 0.25 0.25 0.25 0.25 0.25 0.9999 0.0001 0 0 0.9999 0.0001 0 0 0.25 0.25 0.25 0.25 0.25 0.25 0.25 0.25 0.9999 0.0001 0 0 0.9999 0.0001 0 0 0.25 0.25 0.25 0.25 0.25 0.25 0.25 0.25 0.9999 0.0001 0 0 0.9999 0.0001 0 0 0.25 0.25 0.25 0.25 0.25 0.25 0.25 0.25 0.9999 0.0001 0 0 0.9999 0.0001 0 0 0.25 0.25 0.25 0.25 0.25 0.25 0.25 0.25 0.9999 0.0001 0 0 0.9999 0.0001 0 0 0.25 0.25 0.25 0.25 0.25 0.25 0.25 0.25 0.9999 0.0001 0 0 0.9999 0.0001 0 0 0.25 0.25 0.25 0.25 0.25 0.25 0.25 0.25 0.98 0.02 0 0 0.98 0.02 0 0 0.97 0.03 0 0 0.25 0.25 0.25 0.25 0.91 0.05 0.03 0.01 0.91 0.05 0.03 0.01 0.86 0.07000000000000001 0.05 0.02 0.25 0.25 0.25 0.25 0.98 0.02 0 0 0.98 0.02 0 0 0.97 0.03 0 0 0.25 0.25 0.25 0.25 0.98 0.02 0 0 0.98 0.02 0 0 0.97 0.03 0 0 0.25 0.25 0.25 0.25 0.98 0.02 0 0 0.98 0.02 0 0 0.97 0.03 0 0 0.25 0.25 0.25 0.25 0.9999 0.0001 0 0 0.9999 0.0001 0 0 0.25 0.25 0.25 0.25 0.25 0.25 0.25 0.25 0.9999 0.0001 0 0 0.9999 0.0001 0 0 0.25 0.25 0.25 0.25 0.25 0.25 0.25 0.25 0.98 0.02 0 0 0.98 0.02 0 0 0.97 0.03 0 0 0.25 0.25 0.25 0.25 0.98 0.02 0 0 0.98 0.02 0 0 0.97 0.03 0 0 0.25 0.25 0.25 0.25 0.2 0.4 0.3 0.1 0.2 0.4 0.3 0.1 0.1 0.3 0.4 0.2 0 0.0009990000000000005 0.5994006 0.3996004 0.9999 0.0001 0 0 0.9999 0.0001 0 0 0.25 0.25 0.25 0.25 0.25 0.25 0.25 0.25 0.9999 0.0001 0 0 0.9999 0.0001 0 0 0.25 0.25 0.25 0.25 0.25 0.25 0.25 0.25 0.9999 0.0001 0 0 0.9999 0.0001 0 0 0.25 0.25 0.25 0.25 0.25 0.25 0.25 0.25 0.9999 0.0001 0 0 0.9999 0.0001 0 0 0.25 0.25 0.25 0.25 0.25 0.25 0.25 0.25 0.9999 0.0001 0 0 0.9999 0.0001 0 0 0.25 0.25 0.25 0.25 0.25 0.25 0.25 0.25 0.8 0.15 0.04 0.01 0.8 0.15 0.04 0.01 0.6 0.25 0.1 0.05 0.25 0.25 0.25 0.25 0.9999 0.0001 0 0 0.9999 0.0001 0 0 0.25 0.25 0.25 0.25 0.25 0.25 0.25 0.25 0.9999 0.0001 0 0 0.9999 0.0001 0 0 0.25 0.25 0.25 0.25 0.25 0.25 0.25 0.25 0.9999 0.0001 0 0 0.9999 0.0001 0 0 0.25 0.25 0.25 0.25 0.25 0.25 0.25 0.25 0.98 0.02 0 0 0.98 0.02 0 0 0.97 0.03 0 0 0.25 0.25 0.25 0.25</probabilities>
		</cpt>
		<cpt id="F11">
			<state id="Absent" label="F182" />
			<state id="Rare___3_" label="F183" />
			<state id="Present__3_15_" label="F184" />
			<state id="Many__16_50_" label="F185" />
			<state id="Striking___50_" label="F186" />
			<parents>Fault F52</parents>
			<probabilities>1 0 0 0 0 1 0 0 0 0 0.2 0.2 0.2 0.2 0.2 0.2 0.2 0.2 0.2 0.2 1 0 0 0 0 1 0 0 0 0 0.2 0.2 0.2 0.2 0.2 0.2 0.2 0.2 0.2 0.2 1 0 0 0 0 1 0 0 0 0 0.2 0.2 0.2 0.2 0.2 0.2 0.2 0.2 0.2 0.2 1 0 0 0 0 1 0 0 0 0 0.2 0.2 0.2 0.2 0.2 0.2 0.2 0.2 0.2 0.2 1 0 0 0 0 1 0 0 0 0 0.2 0.2 0.2 0.2 0.2 0.2 0.2 0.2 0.2 0.2 1 0 0 0 0 1 0 0 0 0 0.2 0.2 0.2 0.2 0.2 0.2 0.2 0.2 0.2 0.2 1 0 0 0 0 1 0 0 0 0 0.999 0.001 0 0 0 0.2 0.2 0.2 0.2 0.2 1 0 0 0 0 1 0 0 0 0 0.999 0.001 0 0 0 0.2 0.2 0.2 0.2 0.2 1 0 0 0 0 1 0 0 0 0 0.2 0.2 0.2 0.2 0.2 0.2 0.2 0.2 0.2 0.2 1 0 0 0 0 1 0 0 0 0 0.2 0.2 0.2 0.2 0.2 0.2 0.2 0.2 0.2 0.2 0.999 0.001 0 0 0 0.999 0.001 0 0 0 0.98088279 0.01901712 0.00010009 0 0 0.2 0.2 0.2 0.2 0.2 1 0 0 0 0 1 0 0 0 0 0.2 0.2 0.2 0.2 0.2 0.2 0.2 0.2 0.2 0.2 1 0 0 0 0 1 0 0 0 0 0.2 0.2 0.2 0.2 0.2 0.2 0.2 0.2 0.2 0.2 1 0 0 0 0 1 0 0 0 0 0.2 0.2 0.2 0.2 0.2 0.2 0.2 0.2 0.2 0.2 1 0 0 0 0 1 0 0 0 0 0.2 0.2 0.2 0.2 0.2 0.2 0.2 0.2 0.2 0.2 1 0 0 0 0 1 0 0 0 0 0.2 0.2 0.2 0.2 0.2 0.2 0.2 0.2 0.2 0.2 1 0 0 0 0 1 0 0 0 0 0.2 0.2 0.2 0.2 0.2 0.2 0.2 0.2 0.2 0.2 1 0 0 0 0 1 0 0 0 0 0.2 0.2 0.2 0.2 0.2 0.2 0.2 0.2 0.2 0.2 1 0 0 0 0 1 0 0 0 0 0.2 0.2 0.2 0.2 0.2 0.2 0.2 0.2 0.2 0.2 1 0 0 0 0 1 0 0 0 0 0.2 0.2 0.2 0.2 0.2 0.2 0.2 0.2 0.2 0.2 1 0 0 0 0 1 0 0 0 0 0.2 0.2 0.2 0.2 0.2 0.2 0.2 0.2 0.2 0.2 1 0 0 0 0 1 0 0 0 0 0.2 0.2 0.2 0.2 0.2 0.2 0.2 0.2 0.2 0.2 1 0 0 0 0 1 0 0 0 0 0.2 0.2 0.2 0.2 0.2 0.2 0.2 0.2 0.2 0.2 0.999 0.001 0 0 0 0.999 0.001 0 0 0 0.98088279 0.01901712 0.00010009 0 0 0.2 0.2 0.2 0.2 0.2 1 0 0 0 0 1 0 0 0 0 0.2 0.2 0.2 0.2 0.2 0.2 0.2 0.2 0.2 0.2 0.2 0.2 0.2 0.2 0.2 0 1 0 0 0 0 1 0 0 0 0.2 0.2 0.2 0.2 0.2 0.2 0.2 0.2 0.2 0.2 0 1 0 0 0 0 1 0 0 0 0.2 0.2 0.2 0.2 0.2 0 0.15 0.58 0.25 0.02 0 0.15 0.58 0.25 0.02 0 0.01 0.6 0.35 0.04 0 0.01 0.44 0.45 0.1 0 0.15 0.58 0.25 0.02 0 0.15 0.58 0.25 0.02 0 0.01 0.6 0.35 0.04 0 0.01 0.44 0.45 0.1 0 0.15 0.58 0.25 0.02 0 0.15 0.58 0.25 0.02 0 0.01 0.6 0.35 0.04 0 0.01 0.44 0.45 0.1 0.2 0.2 0.2 0.2 0.2 0 0 0.63 0.35 0.02 0 0.01 0.6899999999999999 0.3 0 0 0.01 0.59 0.4 0 0 0.3 0.6 0.1 0 0 0.25 0.6 0.15 0 0 0.01 0.79 0.2 0 0 0.01 0.6899999999999999 0.2 0.1 0.2 0.2 0.2 0.2 0.2 0 0.02 0.62 0.35 0.01 0 0.02 0.62 0.35 0.01 0 0 0.53 0.45 0.02 0.2 0.2 0.2 0.2 0.2 0 0 0.01 0.59 0.4 0 0 0.01 0.4 0.59 0 0 0.00990099 0.24752475 0.74257426 1 0 0 0 0 1 0 0 0 0 0.2 0.2 0.2 0.2 0.2 0.2 0.2 0.2 0.2 0.2 1 0 0 0 0 1 0 0 0 0 0.2 0.2 0.2 0.2 0.2 0.2 0.2 0.2 0.2 0.2 1 0 0 0 0 1 0 0 0 0 0.2 0.2 0.2 0.2 0.2 0.2 0.2 0.2 0.2 0.2 1 0 0 0 0 1 0 0 0 0 0.2 0.2 0.2 0.2 0.2 0.2 0.2 0.2 0.2 0.2 1 0 0 0 0 1 0 0 0 0 0.2 0.2 0.2 0.2 0.2 0.2 0.2 0.2 0.2 0.2 1 0 0 0 0 1 0 0 0 0 0.2 0.2 0.2 0.2 0.2 0.2 0.2 0.2 0.2 0.2 1 0 0 0 0 1 0 0 0 0 0.2 0.2 0.2 0.2 0.2 0.2 0.2 0.2 0.2 0.2 1 0 0 0 0 1 0 0 0 0 0.2 0.2 0.2 0.2 0.2 0.2 0.2 0.2 0.2 0.2 1 0 0 0 0 1 0 0 0 0 0.2 0.2 0.2 0.2 0.2 0.2 0.2 0.2 0.2 0.2 0.999 0.001 0 0 0 0.999 0.001 0 0 0 0.99 0.01 0 0 0 0.2 0.2 0.2 0.2 0.2 0.97 0.02 0.01 0 0 0.97 0.02 0.01 0 0 0.95 0.04 0.01 0 0 0.2 0.2 0.2 0.2 0.2 0.999 0.001 0 0 0 0.999 0.001 0 0 0 0.99 0.01 0 0 0 0.2 0.2 0.2 0.2 0.2 0.999 0.001 0 0 0 0.999 0.001 0 0 0 0.99 0.01 0 0 0 0.2 0.2 0.2 0.2 0.2 0.999 0.001 0 0 0 0.999 0.001 0 0 0 0.99 0.01 0 0 0 0.2 0.2 0.2 0.2 0.2 1 0 0 0 0 1 0 0 0 0 0.2 0.2 0.2 0.2 0.2 0.2 0.2 0.2 0.2 0.2 1 0 0 0 0 1 0 0 0 0 0.2 0.2 0.2 0.2 0.2 0.2 0.2 0.2 0.2 0.2 0.999 0.001 0 0 0 0.999 0.001 0 0 0 0.99 0.01 0 0 0 0.2 0.2 0.2 0.2 0.2 0.999 0.001 0 0 0 0.999 0.001 0 0 0 0.99 0.01 0 0 0 0.2 0.2 0.2 0.2 0.2 0.8 0.1 0.1 0 0 0.8 0.1 0.1 0 0 0.01010101 0.90909091 0.05050505 0.03030303 0 0.0009990000000000005 0.1998002 0.6993007 0.07992008 0.01998002 1 0 0 0 0 1 0 0 0 0 0.2 0.2 0.2 0.2 0.2 0.2 0.2 0.2 0.2 0.2 1 0 0 0 0 1 0 0 0 0 0.2 0.2 0.2 0.2 0.2 0.2 0.2 0.2 0.2 0.2 1 0 0 0 0 1 0 0 0 0 0.2 0.2 0.2 0.2 0.2 0.2 0.2 0.2 0.2 0.2 0.999001 0.0009990000000000005 0 0 0 0.999001 0.0009990000000000005 0 0 0 0.2 0.2 0.2 0.2 0.2 0.2 0.2 0.2 0.2 0.2 0.999001 0.0009990000000000005 0 0 0 0.999001 0.0009990000000000005 0 0 0 0.2 0.2 0.2 0.2 0.2 0.2 0.2 0.2 0.2 0.2 0.95 0.04 0.01 0 0 0.95 0.04 0.01 0 0 0.95 0.04 0.01 0 0 0.2 0.2 0.2 0.2 0.2 1 0 0 0 0 1 0 0 0 0 0.2 0.2 0.2 0.2 0.2 0.2 0.2 0.2 0.2 0.2 1 0 0 0 0 1 0 0 0 0 0.2 0.2 0.2 0.2 0.2 0.2 0.2 0.2 0.2 0.2 1 0 0 0 0 1 0 0 0 0 0.2 0.2 0.2 0.2 0.2 0.2 0.2 0.2 0.2 0.2 0.999 0.001 0 0 0 0.999 0.001 0 0 0 0.99 0.01 0 0 0 0.2 0.2 0.2 0.2 0.2</probabilities>
		</cpt>
		<cpt id="F12">
			<state id="Absent" label="F187" />
			<state id="Present" label="F188" />
			<parents>Fault</parents>
			<probabilities>1 0 1 0 1 0 1 0 1 0 1 0 1 0 1 0 1 0 1 0 1 0 1 0 1 0 1 0 1 0 1 0 1 0 1 0 1 0 1 0 1 0 1 0 1 0 1 0 1 0 1 0 1 0 1 0 1 0 1 0 1 0 1 0 1 0 1 0 1 0 1 0 1 0 1 0 1 0 1 0 1 0 1 0 1 0 1 0 1 0 1 0 1 0 1 0 1 0 1 0 1 0 1 0 1 0 1 0 1 0 0.25 0.75 1 0 1 0 1 0 0.99 0.01 1 0 1 0 1 0</probabilities>
		</cpt>
		<cpt id="F13">
			<state id="Absent" label="F189" />
			<state id="Present__1_2_" label="F190" />
			<state id="Prominent___2_" label="F191" />
			<parents>Fault F8</parents>
			<probabilities>1 0 0 0.99999 1e-05 0 0.99990001 9.999e-05 0 1 0 0 0.99999 1e-05 0 0.99990001 9.999e-05 0 1 0 0 0.99999 1e-05 0 0.99990001 9.999e-05 0 1 0 0 0.99999 1e-05 0 0.99990001 9.999e-05 0 1 0 0 0.99999 1e-05 0 0.99990001 9.999e-05 0 1 0 0 0.99999 1e-05 0 0.99990001 9.999e-05 0 1 0 0 0.99999 1e-05 0 0.99990001 9.999e-05 0 1 0 0 0.99999 1e-05 0 0.99990001 9.999e-05 0 1 0 0 0.99999 1e-05 0 0.99990001 9.999e-05 0 1 0 0 0.99999 1e-05 0 0.99990001 9.999e-05 0 1 0 0 0.99999 1e-05 0 0.99990001 9.999e-05 0 1 0 0 0.99999 1e-05 0 0.99990001 9.999e-05 0 1 0 0 0.99999 1e-05 0 0.99990001 9.999e-05 0 1 0 0 0.99999 1e-05 0 0.99990001 9.999e-05 0 1 0 0 0.99999 1e-05 0 0.99990001 9.999e-05 0 1 0 0 0.99999 1e-05 0 0.99990001 9.999e-05 0 1 0 0 0.99999 1e-05 0 0.99990001 9.999e-05 0 1 0 0 0.99999 1e-05 0 0.99990001 9.999e-05 0 0.5 0.4 0.1 1e-05 0.499995 0.499995 0 0.3 0.7 1 0 0 0.99999 1e-05 0 0.99990001 9.999e-05 0 1 0 0 0.99999 1e-05 0 0.99990001 9.999e-05 0 1 0 0 0.99999 1e-05 0 0.99990001 9.999e-05 0 1 0 0 0.99999 1e-05 0 0.99990001 9.999e-05 0 1 0 0 0.99999 1e-05 0 0.99990001 9.999e-05 0 1 0 0 0.99999 1e-05 0 0.99990001 9.999e-05 0 1 0 0 0.99999 1e-05 0 0.99990001 9.999e-05 0 1 0 0 0.99999 1e-05 0 0.99990001 9.999e-05 0 1 0 0 0.99999 1e-05 0 0.99990001 9.999e-05 0 1 0 0 0.99999 1e-05 0 0.99990001 9.999e-05 0 1 0 0 0.99999 1e-05 0 0.99990001 9.999e-05 0 1 0 0 0.99999 1e-05 0 0.99990001 9.999e-05 0 1 0 0 0.99999 1e-05 0 0.99990001 9.999e-05 0 1 0 0 0.99999 1e-05 0 0.99990001 9.999e-05 0 1 0 0 0.99999 1e-05 0 0.99990001 9.999e-05 0 1 0 0 0.99999 1e-05 0 0.99990001 9.999e-05 0 1 0 0 0.99999 1e-05 0 0.99990001 9.999e-05 0 1 0 0 0.99999 1e-05 0 0.99990001 9.999e-05 0 1 0 0 0.99999 1e-05 0 0.99990001 9.999e-05 0 1 0 0 0.99999 1e-05 0 0.99990001 9.999e-05 0 1 0 0 0.99999 1e-05 0 0.99990001 9.999e-05 0 1 0 0 0.99999 1e-05 0 0.99990001 9.999e-05 0 1 0 0 0.99999 1e-05 0 0.99990001 9.999e-05 0 1 0 0 0.99999 1e-05 0 0.99990001 9.999e-05 0 1 0 0 0.99999 1e-05 0 0.99990001 9.999e-05 0 1 0 0 0.99999 1e-05 0 0.99990001 9.999e-05 0 1 0 0 0.99999 1e-05 0 0.99990001 9.999e-05 0 1 0 0 0.99999 1e-05 0 0.99990001 9.999e-05 0 1 0 0 0.99999 1e-05 0 0.99990001 9.999e-05 0 1 0 0 0.99999 1e-05 0 0.99990001 9.999e-05 0 1 0 0 0.99999 1e-05 0 0.99990001 9.999e-05 0 1 0 0 0.99999 1e-05 0 0.99990001 9.999e-05 0 1 0 0 0.99999 1e-05 0 0.99990001 9.999e-05 0 1 0 0 0.99999 1e-05 0 0.99990001 9.999e-05 0 1 0 0 0.99999 1e-05 0 0.99990001 9.999e-05 0 1 0 0 0.99999 1e-05 0 0.99990001 9.999e-05 0 1 0 0 0.99999 1e-05 0 0.99990001 9.999e-05 0 1 0 0 0.99999 1e-05 0 0.99990001 9.999e-05 0 1 0 0 0.99999 1e-05 0 0.99990001 9.999e-05 0 1 0 0 0.99999 1e-05 0 0.99990001 9.999e-05 0 1 0 0 0.99999 1e-05 0 0.99990001 9.999e-05 0 1 0 0 0.99999 1e-05 0 0.99990001 9.999e-05 0 1 0 0 0.99999 1e-05 0 0.99990001 9.999e-05 0 1 0 0 0.99999 1e-05 0 0.99990001 9.999e-05 0</probabilities>
		</cpt>
		<cpt id="F14">
			<state id="Absent" label="F192" />
			<state id="Present" label="F193" />
			<parents>Fault</parents>
			<probabilities>1 0 1 0 1 0 0.9999 0.0001 1 0 1 0 1 0 1 0 0.9999 0.0001 0.6 0.4 1 0 1 0 1 0 1 0 1 0 0.9999 0.0001 1 0 1 0 1 0 1 0 1 0 1 0 1 0 1 0 1 0 1 0 1 0 0.99 0.01 0.99 0.01 0.99 0.01 0.99 0.01 0.99 0.01 1 0 1 0 1 0 1 0 1 0 1 0 1 0 1 0 1 0 1 0 1 0 1 0 1 0 1 0 1 0 1 0 1 0 1 0 1 0 1 0 1 0 1 0 1 0 1 0 1 0 1 0 1 0 1 0 0.9999 0.0001 1 0 1 0</probabilities>
		</cpt>
		<cpt id="F15">
			<state id="Absent" label="F194" />
			<state id="Present" label="F195" />
			<parents>Fault</parents>
			<probabilities>1 0 1 0 1 0 1 0 1 0 1 0 1 0 1 0 1 0 1 0 1 0 1 0 1 0 1 0 1 0 1 0 1 0 1 0 1 0 1 0 1 0 1 0 1 0 1 0 1 0 1 0 1 0 1 0 1 0 1 0 1 0 1 0 1 0 1 0 1 0 1 0 1 0 1 0 1 0 1 0 1 0 1 0 1 0 1 0 1 0 1 0 1 0 1 0 1 0 1 0 1 0 1 0 1 0 1 0 0.5 0.5 1 0 1 0 1 0 1 0 1 0 1 0 1 0 1 0</probabilities>
		</cpt>
		<cpt id="F16">
			<state id="Absent" label="F196" />
			<state id="Present" label="F197" />
			<state id="Prominent" label="F198" />
			<parents>Fault F15</parents>
			<probabilities>0.5999 0.4 0.0001 0.33333333 0.33333333 0.33333333 0.2 0.75 0.05 0.33333333 0.33333333 0.33333333 0.5999 0.4 0.0001 0.33333333 0.33333333 0.33333333 0.05 0.9 0.05 0.33333333 0.33333333 0.33333333 0.5999 0.4 0.0001 0.33333333 0.33333333 0.33333333 0.5999 0.4 0.0001 0.33333333 0.33333333 0.33333333 0.5999 0.4 0.0001 0.33333333 0.33333333 0.33333333 0.5999 0.4 0.0001 0.33333333 0.33333333 0.33333333 0.05 0.9 0.05 0.33333333 0.33333333 0.33333333 0.01 0.2 0.79 0.33333333 0.33333333 0.33333333 0.15 0.83 0.02 0.33333333 0.33333333 0.33333333 0.5999 0.4 0.0001 0.33333333 0.33333333 0.33333333 0.5999 0.4 0.0001 0.33333333 0.33333333 0.33333333 0.5999 0.4 0.0001 0.33333333 0.33333333 0.33333333 0.5999 0.4 0.0001 0.33333333 0.33333333 0.33333333 0.05 0.9 0.05 0.33333333 0.33333333 0.33333333 0.5999 0.4 0.0001 0.33333333 0.33333333 0.33333333 0.5999 0.4 0.0001 0.33333333 0.33333333 0.33333333 0.5999 0.4 0.0001 0.33333333 0.33333333 0.33333333 0.5999 0.4 0.0001 0.33333333 0.33333333 0.33333333 0.15 0.83 0.02 0.33333333 0.33333333 0.33333333 0.5999 0.4 0.0001 0.33333333 0.33333333 0.33333333 0.5999 0.4 0.0001 0.33333333 0.33333333 0.33333333 0.15 0.83 0.02 0.33333333 0.33333333 0.33333333 0.5999 0.4 0.0001 0.33333333 0.33333333 0.33333333 0.5999 0.4 0.0001 0.33333333 0.33333333 0.33333333 0.5999 0.4 0.0001 0.33333333 0.33333333 0.33333333 0.1 0.75 0.15 0.33333333 0.33333333 0.33333333 0.1 0.75 0.15 0.33333333 0.33333333 0.33333333 0.1 0.75 0.15 0.33333333 0.33333333 0.33333333 0.1 0.75 0.15 0.33333333 0.33333333 0.33333333 0.1 0.75 0.15 0.33333333 0.33333333 0.33333333 0.5999 0.4 0.0001 0.33333333 0.33333333 0.33333333 0.5999 0.4 0.0001 0.33333333 0.33333333 0.33333333 0.5999 0.4 0.0001 0.33333333 0.33333333 0.33333333 0.5999 0.4 0.0001 0.33333333 0.33333333 0.33333333 0.5999 0.4 0.0001 0.33333333 0.33333333 0.33333333 0.5999 0.4 0.0001 0.33333333 0.33333333 0.33333333 0.5999 0.4 0.0001 0.33333333 0.33333333 0.33333333 0.5999 0.4 0.0001 0.33333333 0.33333333 0.33333333 0.5999 0.4 0.0001 0.33333333 0.33333333 0.33333333 0.5999 0.4 0.0001 0.33333333 0.33333333 0.33333333 0.5999 0.4 0.0001 0.33333333 0.33333333 0.33333333 0.5999 0.4 0.0001 0.33333333 0.33333333 0.33333333 0.5999 0.4 0.0001 0.33333333 0.33333333 0.33333333 0.35 0.63 0.02 0.33333333 0.33333333 0.33333333 0.2 0.75 0.05 0.33333333 0.33333333 0.33333333 0.5999 0.4 0.0001 0.33333333 0.33333333 0.33333333 0.5999 0.4 0.0001 0.33333333 0.33333333 0.33333333 0.5999 0.4 0.0001 0.33333333 0.33333333 0.33333333 0.5999 0.4 0.0001 0.33333333 0.33333333 0.33333333 0.5999 0.4 0.0001 0.33333333 0.33333333 0.33333333 0.5999 0.4 0.0001 0.33333333 0.33333333 0.33333333 0.5999 0.4 0.0001 0.33333333 0.33333333 0.33333333 0.94990501 0.049995 9.999e-05 0.01 0.89 0.1 0.5999 0.4 0.0001 0.33333333 0.33333333 0.33333333 0.5999 0.4 0.0001 0.33333333 0.33333333 0.33333333 0.5999 0.4 0.0001 0.33333333 0.33333333 0.33333333 0.5999 0.4 0.0001 0.33333333 0.33333333 0.33333333 0.5999 0.4 0.0001 0.33333333 0.33333333 0.33333333 0.05 0.9 0.05 0.33333333 0.33333333 0.33333333 0.5999 0.4 0.0001 0.33333333 0.33333333 0.33333333 0.35 0.63 0.02 0.33333333 0.33333333 0.33333333</probabilities>
		</cpt>
		<cpt id="F17">
			<state id="Absent" label="F199" />
			<state id="Present___5__" label="F200" />
			<state id="Prominent___5__" label="F201" />
			<parents>Fault</parents>
			<probabilities>0.65 0.34 0.01 0.7 0.28 0.02 0.98 0.02 0 0.05 0.85 0.1 0.85 0.14 0.01 0.98 0.02 0 0.98 0.02 0 0.98 0.02 0 0 0.7 0.3 0.98 0.02 0 0.05 0.85 0.1 0.05 0.9 0.05 0.00990099 0.79207921 0.1980198 0.98 0.02 0 0.89 0.1 0.01 0.72 0.25 0.03 0.98 0.02 0 0 0.02 0.98 0.98 0.02 0 0.98 0.02 0 0 0.7 0.3 0 0.6 0.4 0.05 0.9 0.05 0.05 0.85 0.1 0.00990099 0.79207921 0.1980198 0.02 0.6 0.38 0.02 0.6 0.38 0.95 0.049 0.001 0.95 0.049 0.001 0.95 0.049 0.001 0.2 0.3 0.5 0.3 0.6 0.1 0.98 0.02 0 0.98 0.02 0 0.98 0.02 0 0.98 0.02 0 0.98 0.02 0 0.98 0.02 0 0.98 0.02 0 0.98 0.02 0 0.98 0.02 0 0.98 0.02 0 0.98 0.02 0 0.98 0.02 0 0.98 0.02 0 0.7 0.28 0.02 0.89 0.1 0.01 0.98 0.02 0 0.98 0.02 0 0.98 0.02 0 0.98 0.02 0 0.98 0.02 0 0.98 0.02 0 0.85 0.14 0.01 0.98 0.02 0 0.98 0.02 0 0.98 0.02 0 0.98 0.02 0 0.98 0.02 0 0.98 0.02 0 0.3 0.6 0.1 0.65 0.34 0.01 0.98 0.02 0</probabilities>
		</cpt>
		<cpt id="F18">
			<state id="NA" label="F202" />
			<state id="No" label="F203" />
			<state id="Some" label="F204" />
			<state id="Many" label="F205" />
			<parents>Fault F97 F17</parents>
			<probabilities>1 0 0 0 1 0 0 0 1 0 0 0 1 0 0 0 0 0.999 0.001 0 0 0.998 0.002 0 1 0 0 0 1 0 0 0 1 0 0 0 1 0 0 0 0 0.999 0.001 0 0 0.998 0.002 0 1 0 0 0 1 0 0 0 1 0 0 0 1 0 0 0 0 0.999 0.001 0 0.25 0.25 0.25 0.25 1 0 0 0 1 0 0 0 1 0 0 0 1 0 0 0 0 0.99497992 0.00502008 0 0 0.991 0.008999999999999999 0 1 0 0 0 1 0 0 0 1 0 0 0 1 0 0 0 0 0.999 0.001 0 0 0.998 0.002 0 1 0 0 0 1 0 0 0 1 0 0 0 1 0 0 0 0 0.999 0.001 0 0.25 0.25 0.25 0.25 1 0 0 0 1 0 0 0 1 0 0 0 1 0 0 0 0 0.999 0.001 0 0.25 0.25 0.25 0.25 1 0 0 0 1 0 0 0 1 0 0 0 1 0 0 0 0 0.999 0.001 0 0.25 0.25 0.25 0.25 1 0 0 0 1 0 0 0 1 0 0 0 1 0 0 0 0 0.8991009 0.09990010000000001 0.0009990000000000005 0 0.84577114 0.14925373 0.00497512 1 0 0 0 1 0 0 0 1 0 0 0 1 0 0 0 0 0.999 0.001 0 0.25 0.25 0.25 0.25 1 0 0 0 1 0 0 0 1 0 0 0 1 0 0 0 0 0.99497992 0.00502008 0 0 0.991 0.008999999999999999 0 1 0 0 0 1 0 0 0 1 0 0 0 1 0 0 0 0 0.999 0.001 0 0 0.998 0.002 0 1 0 0 0 1 0 0 0 1 0 0 0 1 0 0 0 0 0.999 0.001 0 0 0.998 0.002 0 1 0 0 0 1 0 0 0 1 0 0 0 1 0 0 0 0 0.999 0.001 0 0.25 0.25 0.25 0.25 1 0 0 0 1 0 0 0 1 0 0 0 1 0 0 0 0 0.99497992 0.00502008 0 0 0.991 0.008999999999999999 0 1 0 0 0 1 0 0 0 1 0 0 0 1 0 0 0 0 0.99497992 0.00502008 0 0 0.991 0.008999999999999999 0 1 0 0 0 1 0 0 0 1 0 0 0 1 0 0 0 0 0.999 0.001 0 0.25 0.25 0.25 0.25 1 0 0 0 1 0 0 0 1 0 0 0 1 0 0 0 0 0.999 0.001 0 0.25 0.25 0.25 0.25 1 0 0 0 1 0 0 0 1 0 0 0 1 0 0 0 0 0.999 0.001 0 0.25 0.25 0.25 0.25 1 0 0 0 1 0 0 0 1 0 0 0 1 0 0 0 0 0.999 0.001 0 0.25 0.25 0.25 0.25 1 0 0 0 1 0 0 0 1 0 0 0 1 0 0 0 0 0.8991009 0.09990010000000001 0.0009990000000000005 0 0.84577114 0.14925373 0.00497512 1 0 0 0 1 0 0 0 1 0 0 0 1 0 0 0 0 0 0.8 0.2 0 0 0.4 0.6 1 0 0 0 1 0 0 0 1 0 0 0 1 0 0 0 0 0.999 0.001 0 0 0.998 0.002 0 1 0 0 0 1 0 0 0 1 0 0 0 1 0 0 0 0 0.99497992 0.00502008 0 0 0.991 0.008999999999999999 0 1 0 0 0 1 0 0 0 1 0 0 0 1 0 0 0 0 0.999 0.001 0 0 0.998 0.002 0 1 0 0 0 1 0 0 0 1 0 0 0 1 0 0 0 0 0.99497992 0.00502008 0 0 0.991 0.008999999999999999 0 1 0 0 0 1 0 0 0 1 0 0 0 1 0 0 0 0 0.99497992 0.00502008 0 0 0.991 0.008999999999999999 0 1 0 0 0 1 0 0 0 1 0 0 0 1 0 0 0 0 0.999 0.001 0 0 0.998 0.002 0 1 0 0 0 1 0 0 0 1 0 0 0 1 0 0 0 0 0.999 0.001 0 0 0.998 0.002 0 1 0 0 0 1 0 0 0 1 0 0 0 1 0 0 0 0 0.999 0.001 0 0 0.998 0.002 0 1 0 0 0 1 0 0 0 1 0 0 0 1 0 0 0 0 0.99 0.01 0 0 0.98 0.02 0 1 0 0 0 1 0 0 0 1 0 0 0 1 0 0 0 0 0.999 0.001 0 0 0.998 0.002 0 1 0 0 0 1 0 0 0 1 0 0 0 1 0 0 0 0 0.999 0.001 0 0.25 0.25 0.25 0.25 1 0 0 0 1 0 0 0 1 0 0 0 1 0 0 0 0 0.999 0.001 0 0.25 0.25 0.25 0.25 1 0 0 0 1 0 0 0 1 0 0 0 1 0 0 0 0 0.999 0.001 0 0.25 0.25 0.25 0.25 1 0 0 0 1 0 0 0 1 0 0 0 1 0 0 0 0 0.999 0.001 0 0.25 0.25 0.25 0.25 1 0 0 0 1 0 0 0 1 0 0 0 1 0 0 0 0 0.999 0.001 0 0.25 0.25 0.25 0.25 1 0 0 0 1 0 0 0 1 0 0 0 1 0 0 0 0 0.999 0.001 0 0.25 0.25 0.25 0.25 1 0 0 0 1 0 0 0 1 0 0 0 1 0 0 0 0 0.999 0.001 0 0.25 0.25 0.25 0.25 1 0 0 0 1 0 0 0 1 0 0 0 1 0 0 0 0 0.999 0.001 0 0.25 0.25 0.25 0.25 1 0 0 0 1 0 0 0 1 0 0 0 1 0 0 0 0 0.999 0.001 0 0.25 0.25 0.25 0.25 1 0 0 0 1 0 0 0 1 0 0 0 1 0 0 0 0 0.999 0.001 0 0.25 0.25 0.25 0.25 1 0 0 0 1 0 0 0 1 0 0 0 1 0 0 0 0 0.999 0.001 0 0.25 0.25 0.25 0.25 1 0 0 0 1 0 0 0 1 0 0 0 1 0 0 0 0 0.999 0.001 0 0.25 0.25 0.25 0.25 1 0 0 0 1 0 0 0 1 0 0 0 1 0 0 0 0 0.999 0.001 0 0.25 0.25 0.25 0.25 1 0 0 0 1 0 0 0 1 0 0 0 1 0 0 0 0 0.999 0.001 0 0 0.998 0.002 0 1 0 0 0 1 0 0 0 1 0 0 0 1 0 0 0 0 0.999 0.001 0 0 0.998 0.002 0 1 0 0 0 1 0 0 0 1 0 0 0 1 0 0 0 0 0.999 0.001 0 0.25 0.25 0.25 0.25 1 0 0 0 1 0 0 0 1 0 0 0 1 0 0 0 0 0.999 0.001 0 0.25 0.25 0.25 0.25 1 0 0 0 1 0 0 0 1 0 0 0 1 0 0 0 0 0.999 0.001 0 0.25 0.25 0.25 0.25 1 0 0 0 1 0 0 0 1 0 0 0 1 0 0 0 0 0.999 0.001 0 0.25 0.25 0.25 0.25 1 0 0 0 1 0 0 0 1 0 0 0 1 0 0 0 0 0.999 0.001 0 0.25 0.25 0.25 0.25 1 0 0 0 1 0 0 0 1 0 0 0 1 0 0 0 0 0.999 0.001 0 0.25 0.25 0.25 0.25 1 0 0 0 1 0 0 0 1 0 0 0 1 0 0 0 0 0.999 0.001 0 0 0.998 0.002 0 1 0 0 0 1 0 0 0 1 0 0 0 1 0 0 0 0 0.999 0.001 0 0.25 0.25 0.25 0.25 1 0 0 0 1 0 0 0 1 0 0 0 1 0 0 0 0 0.999 0.001 0 0.25 0.25 0.25 0.25 1 0 0 0 1 0 0 0 1 0 0 0 1 0 0 0 0 0.999 0.001 0 0.25 0.25 0.25 0.25 1 0 0 0 1 0 0 0 1 0 0 0 1 0 0 0 0 0.999 0.001 0 0.25 0.25 0.25 0.25 1 0 0 0 1 0 0 0 1 0 0 0 1 0 0 0 0 0.999 0.001 0 0.25 0.25 0.25 0.25 1 0 0 0 1 0 0 0 1 0 0 0 1 0 0 0 0 0.999 0.001 0 0.25 0.25 0.25 0.25 1 0 0 0 1 0 0 0 1 0 0 0 1 0 0 0 0 0.999 0.001 0 0 0.998 0.002 0 1 0 0 0 1 0 0 0 1 0 0 0 1 0 0 0 0 0.999 0.001 0 0 0.998 0.002 0 1 0 0 0 1 0 0 0 1 0 0 0 1 0 0 0 0 0.999 0.001 0 0.25 0.25 0.25 0.25</probabilities>
		</cpt>
		<cpt id="F19">
			<state id="Absent" label="F206" />
			<state id="Present___5__" label="F207" />
			<state id="Prominent___5__" label="F208" />
			<parents>Fault</parents>
			<probabilities>0.375 0.59375 0.03125 0.02 0.85 0.13 0.99 0.01 0 0.02 0.93 0.05 0.09090909 0.86363636 0.04545455 0.99 0.01 0 0.99 0.01 0 0.99 0.01 0 0.02 0.96 0.02 0.99 0.01 0 0.8991009 0.09990010000000001 0.0009990000000000005 0.01 0.89 0.1 0.01 0.8 0.19 0.99 0.01 0 0.04761905 0.9047619 0.04761905 0.04761905 0.9047619 0.04761905 0.99 0.01 0 0.99 0.01 0 0.99 0.01 0 0.99 0.01 0 0.02 0.96 0.02 0.8991009 0.09990010000000001 0.0009990000000000005 0.01 0.89 0.1 0.8991009 0.09990010000000001 0.0009990000000000005 0.01 0.8 0.19 0.02 0.7 0.28 0.02 0.7 0.28 0.7992008 0.1998002 0.0009990000000000005 0.7992008 0.1998002 0.0009990000000000005 0.7992008 0.1998002 0.0009990000000000005 0.1 0.89 0.01 0.2 0.79 0.01 0.99 0.01 0 0.99 0.01 0 0.99 0.01 0 0.99 0.01 0 0.99 0.01 0 0.99 0.01 0 0.99 0.01 0 0.99 0.01 0 0.99 0.01 0 0.99 0.01 0 0.99 0.01 0 0.99 0.01 0 0.99 0.01 0 0.02 0.8 0.18 0.02 0.85 0.13 0.99 0.01 0 0.99 0.01 0 0.99 0.01 0 0.99 0.01 0 0.99 0.01 0 0.99 0.01 0 0.09090909 0.86363636 0.04545455 0.99 0.01 0 0.99 0.01 0 0.99 0.01 0 0.99 0.01 0 0.99 0.01 0 0.99 0.01 0 0.2 0.79 0.01 0.375 0.59375 0.03125 0.02 0.8 0.18</probabilities>
		</cpt>
		<cpt id="F41">
			<state id="Absent" label="F209" />
			<state id="Present" label="F210" />
			<parents>Fault</parents>
			<probabilities>0.99 0.01 0 1 0 1 0.02 0.98 0.99 0.01 0.99 0.01 0.99 0.01 0.55 0.45 0.3 0.7 0.99 0.01 0 1 0.99 0.01 0.99 0.01 0.99 0.01 0.1 0.9 0.02 0.98 0.99 0.01 0.99 0.01 0.99 0.01 0.99 0.01 0.99 0.01 0.99 0.01 0.99 0.01 0 1 0.99 0.01 0.3 0.7 0.3 0.7 0.3 0.7 0.3 0.7 0.3 0.7 0.3 0.7 0.3 0.7 0.3 0.7 0.3 0.7 0.12 0.88 0.1 0.9 0.05 0.95 0.8 0.2 0.05 0.95 0.9 0.1 0.99 0.01 0.3 0.7 0 1 0 1 0 1 0 1 0 1 0 1 0.999 0.001 0.8 0.2 0 1 0 1 0 1 0.65 0.35 0.2 0.8 0.99 0.01 0.99 0.01 0.99 0.01 0.95 0.05 0.99 0.01 0.99 0.01 0.99 0.01 0 1</probabilities>
		</cpt>
		<cpt id="F44">
			<state id="Absent" label="F211" />
			<state id="Present" label="F212" />
			<parents>Fault</parents>
			<probabilities>0.95 0.05 0 1 0 1 0.05 0.95 0.95 0.05 0.95 0.05 0.95 0.05 0.1 0.9 0.1 0.9 0.95 0.05 0.01 0.99 0.95 0.05 0.95 0.05 0.95 0.05 0.1 0.9 0.1 0.9 0.95 0.05 0.95 0.05 0.95 0.05 0.95 0.05 0.95 0.05 0.95 0.05 0.95 0.05 0.01 0.99 0.95 0.05 0.2 0.8 0.2 0.8 0.2 0.8 0.2 0.8 0.2 0.8 0.2 0.8 0.2 0.8 0.2 0.8 0.2 0.8 0.2 0.8 0.1 0.9 0.1 0.9 0 1 0.1 0.9 0.7 0.3 0.95 0.05 0.2 0.8 0.3 0.7 0.7 0.3 0.8 0.2 0.1 0.9 0.1 0.9 0.1 0.9 0 1 0 1 0.95 0.05 0.9 0.1 0.3 0.7 0.05 0.95 0.25 0.75 0.95 0.05 0.95 0.05 0.95 0.05 0.2 0.8 0.95 0.05 0.95 0.05 0.95 0.05 0.1 0.9</probabilities>
		</cpt>
		<cpt id="F20">
			<state id="Absent" label="F213" />
			<state id="Rare__1_10__" label="F214" />
			<state id="Present__11_50__" label="F215" />
			<state id="Many__51_70__" label="F216" />
			<parents>Fault F41 F44</parents>
			<probabilities>1 0 0 0 1 0 0 0 0.9999 0.0001 0 0 0.9995000000000001 0.0005000000000000001 0 0 1 0 0 0 1 0 0 0 0.9999 0.0001 0 0 0.9995000000000001 0.0005000000000000001 0 0 1 0 0 0 1 0 0 0 0.9999 0.0001 0 0 0.9995000000000001 0.0005000000000000001 0 0 1 0 0 0 1 0 0 0 0.99 0.01 0 0 0.99 0.01 0 0 1 0 0 0 1 0 0 0 0.9999 0.0001 0 0 0.9995000000000001 0.0005000000000000001 0 0 1 0 0 0 1 0 0 0 0.9999 0.0001 0 0 0.9995000000000001 0.0005000000000000001 0 0 1 0 0 0 1 0 0 0 0.9999 0.0001 0 0 0.9995000000000001 0.0005000000000000001 0 0 1 0 0 0 1 0 0 0 0.9999 0.0001 0 0 0.9995000000000001 0.0005000000000000001 0 0 1 0 0 0 1 0 0 0 0.9999 0.0001 0 0 0.9995000000000001 0.0005000000000000001 0 0 1 0 0 0 1 0 0 0 0.9999 0.0001 0 0 0.9995000000000001 0.0005000000000000001 0 0 0.25 0.25 0.25 0.25 0.25 0.25 0.25 0.25 0.99 0.01 0 0 0.99 0.01 0 0 1 0 0 0 1 0 0 0 0.9999 0.0001 0 0 0.9995000000000001 0.0005000000000000001 0 0 1 0 0 0 1 0 0 0 0.9999 0.0001 0 0 0.9995000000000001 0.0005000000000000001 0 0 1 0 0 0 1 0 0 0 0.9999 0.0001 0 0 0.9995000000000001 0.0005000000000000001 0 0 1 0 0 0 1 0 0 0 0.99 0.01 0 0 0.99 0.01 0 0 1 0 0 0 1 0 0 0 0.99 0.01 0 0 0.99 0.01 0 0 1 0 0 0 1 0 0 0 0.9999 0.0001 0 0 0.9995000000000001 0.0005000000000000001 0 0 1 0 0 0 1 0 0 0 0.9999 0.0001 0 0 0.9995000000000001 0.0005000000000000001 0 0 1 0 0 0 1 0 0 0 0.9999 0.0001 0 0 0.9995000000000001 0.0005000000000000001 0 0 1 0 0 0 1 0 0 0 0.9999 0.0001 0 0 0.9995000000000001 0.0005000000000000001 0 0 1 0 0 0 1 0 0 0 0.9999 0.0001 0 0 0.9995000000000001 0.0005000000000000001 0 0 1 0 0 0 1 0 0 0 0.9999 0.0001 0 0 0.9995000000000001 0.0005000000000000001 0 0 1 0 0 0 1 0 0 0 0.9999 0.0001 0 0 0.9995000000000001 0.0005000000000000001 0 0 0.25 0.25 0.25 0.25 0.25 0.25 0.25 0.25 0.99 0.01 0 0 0.99 0.01 0 0 1 0 0 0 1 0 0 0 0.9999 0.0001 0 0 0.9995000000000001 0.0005000000000000001 0 0 1 0 0 0 1 0 0 0 0.9999 0.0001 0 0 0.9995000000000001 0.0005000000000000001 0 0 1 0 0 0 1 0 0 0 0.9999 0.0001 0 0 0.9995000000000001 0.0005000000000000001 0 0 1 0 0 0 1 0 0 0 0.9999 0.0001 0 0 0.9995000000000001 0.0005000000000000001 0 0 1 0 0 0 1 0 0 0 0.9999 0.0001 0 0 0.9995000000000001 0.0005000000000000001 0 0 1 0 0 0 1 0 0 0 0.9999 0.0001 0 0 0.9995000000000001 0.0005000000000000001 0 0 1 0 0 0 1 0 0 0 0.9999 0.0001 0 0 0.9995000000000001 0.0005000000000000001 0 0 1 0 0 0 1 0 0 0 0.9999 0.0001 0 0 0.9995000000000001 0.0005000000000000001 0 0 1 0 0 0 1 0 0 0 0.9999 0.0001 0 0 0.9995000000000001 0.0005000000000000001 0 0 1 0 0 0 1 0 0 0 0.9999 0.0001 0 0 0.9995000000000001 0.0005000000000000001 0 0 1 0 0 0 1 0 0 0 0.9999 0.0001 0 0 0.9995000000000001 0.0005000000000000001 0 0 1 0 0 0 1 0 0 0 0.9999 0.0001 0 0 0.9995000000000001 0.0005000000000000001 0 0 1 0 0 0 1 0 0 0 0.9999 0.0001 0 0 0.9995000000000001 0.0005000000000000001 0 0 1 0 0 0 1 0 0 0 0.9999 0.0001 0 0 0.9995000000000001 0.0005000000000000001 0 0 1 0 0 0 1 0 0 0 0.9999 0.0001 0 0 0.9995000000000001 0.0005000000000000001 0 0 1 0 0 0 1 0 0 0 0.9999 0.0001 0 0 0.9995000000000001 0.0005000000000000001 0 0 1 0 0 0 1 0 0 0 0.9999 0.0001 0 0 0.9995000000000001 0.0005000000000000001 0 0 1 0 0 0 1 0 0 0 0.9999 0.0001 0 0 0.9995000000000001 0.0005000000000000001 0 0 1 0 0 0 1 0 0 0 0.9999 0.0001 0 0 0.9995000000000001 0.0005000000000000001 0 0 0.25 0.25 0.25 0.25 0.25 0.25 0.25 0.25 0.95 0.05 0 0 0.95 0.05 0 0 0.25 0.25 0.25 0.25 0.25 0.25 0.25 0.25 0.9995000000000001 0.0005000000000000001 0 0 0.9995000000000001 0.0005000000000000001 0 0 0.25 0.25 0.25 0.25 0.25 0.25 0.25 0.25 0.93532338 0.04975124 0.009950250000000001 0.00497512 0.91542289 0.05970149 0.0199005 0.00497512 0.25 0.25 0.25 0.25 0.25 0.25 0.25 0.25 0 0.05 0.5 0.45 0 0.05 0.45 0.5 1 0 0 0 1 0 0 0 0.9999 0.0001 0 0 0.9995000000000001 0.0005000000000000001 0 0 1 0 0 0 1 0 0 0 0.9999 0.0001 0 0 0.9995000000000001 0.0005000000000000001 0 0 1 0 0 0 1 0 0 0 0.9999 0.0001 0 0 0.9995000000000001 0.0005000000000000001 0 0 0.25 0.25 0.25 0.25 0.25 0.25 0.25 0.25 0.93990601 0.049995 0.009999000000000001 9.999e-05 0.93990601 0.049995 0.009999000000000001 9.999e-05 0.25 0.25 0.25 0.25 0.25 0.25 0.25 0.25 0.9995000000000001 0.0005000000000000001 0 0 0.9995000000000001 0.0005000000000000001 0 0 1 0 0 0 1 0 0 0 0.9999 0.0001 0 0 0.9995000000000001 0.0005000000000000001 0 0 1 0 0 0 1 0 0 0 0.9999 0.0001 0 0 0.9995000000000001 0.0005000000000000001 0 0 1 0 0 0 1 0 0 0 0.9999 0.0001 0 0 0.9995000000000001 0.0005000000000000001 0 0 1 0 0 0 1 0 0 0 0.9999 0.0001 0 0 0.9995000000000001 0.0005000000000000001 0 0 1 0 0 0 1 0 0 0 0.9999 0.0001 0 0 0.9995000000000001 0.0005000000000000001 0 0 1 0 0 0 1 0 0 0 0.9999 0.0001 0 0 0.9995000000000001 0.0005000000000000001 0 0 1 0 0 0 1 0 0 0 0.9999 0.0001 0 0 0.9995000000000001 0.0005000000000000001 0 0 1 0 0 0 1 0 0 0 0.9999 0.0001 0 0 0.9995000000000001 0.0005000000000000001 0 0 1 0 0 0 1 0 0 0 0.9999 0.0001 0 0 0.9995000000000001 0.0005000000000000001 0 0 1 0 0 0 1 0 0 0 0.9999 0.0001 0 0 0.9995000000000001 0.0005000000000000001 0 0 0.25 0.25 0.25 0.25 0.25 0.25 0.25 0.25 0.92 0.05 0.01 0.02 0.9 0.06 0.02 0.02</probabilities>
		</cpt>
		<cpt id="F90">
			<state id="Absent" label="F217" />
			<state id="Slight___10_" label="F218" />
			<state id="Moderate__10_20_" label="F219" />
			<state id="Marked___20_" label="F220" />
			<parents>Fault</parents>
			<probabilities>0.7992008 0.18981019 0.009990010000000001 0.0009990000000000005 0.7992008 0.18981019 0.009990010000000001 0.0009990000000000005 0.7992008 0.18981019 0.009990010000000001 0.0009990000000000005 0.75 0.2 0.04 0.01 0.7992008 0.18981019 0.009990010000000001 0.0009990000000000005 0.7992008 0.18981019 0.009990010000000001 0.0009990000000000005 0.01 0.25 0.65 0.09 0.7992008 0.18981019 0.009990010000000001 0.0009990000000000005 0.01 0.25 0.65 0.09 0.7992008 0.18981019 0.009990010000000001 0.0009990000000000005 0.7992008 0.18981019 0.009990010000000001 0.0009990000000000005 0.2 0.6 0.15 0.05 0.7992008 0.18981019 0.009990010000000001 0.0009990000000000005 0.7992008 0.18981019 0.009990010000000001 0.0009990000000000005 0.7992008 0.18981019 0.009990010000000001 0.0009990000000000005 0.7992008 0.18981019 0.009990010000000001 0.0009990000000000005 0.01 0.25 0.65 0.09 0.01 0.25 0.65 0.09 0.01 0.25 0.65 0.09 0.7992008 0.18981019 0.009990010000000001 0.0009990000000000005 0.01 0.25 0.65 0.09 0.01 0.25 0.65 0.09 0.2 0.6 0.15 0.05 0.7992008 0.18981019 0.009990010000000001 0.0009990000000000005 0.7992008 0.18981019 0.009990010000000001 0.0009990000000000005 0.7 0.2 0.09 0.01 0.7 0.2 0.09 0.01 0.01 0.1 0.4 0.49 0.01 0.3 0.4 0.29 0.01 0.2 0.39 0.4 0.7 0.2 0.09 0.01 0.7 0.2 0.09 0.01 0.7 0.2 0.09 0.01 0.7 0.2 0.09 0.01 0.7992008 0.18981019 0.009990010000000001 0.0009990000000000005 0.7992008 0.18981019 0.009990010000000001 0.0009990000000000005 0.7992008 0.18981019 0.009990010000000001 0.0009990000000000005 0.7992008 0.18981019 0.009990010000000001 0.0009990000000000005 0.7992008 0.18981019 0.009990010000000001 0.0009990000000000005 0.7992008 0.18981019 0.009990010000000001 0.0009990000000000005 0.7992008 0.18981019 0.009990010000000001 0.0009990000000000005 0.7992008 0.18981019 0.009990010000000001 0.0009990000000000005 0.7992008 0.18981019 0.009990010000000001 0.0009990000000000005 0.7992008 0.18981019 0.009990010000000001 0.0009990000000000005 0.7992008 0.18981019 0.009990010000000001 0.0009990000000000005 0.7992008 0.18981019 0.009990010000000001 0.0009990000000000005 0.7992008 0.18981019 0.009990010000000001 0.0009990000000000005 0.7992008 0.18981019 0.009990010000000001 0.0009990000000000005 0.7992008 0.18981019 0.009990010000000001 0.0009990000000000005 0.7992008 0.18981019 0.009990010000000001 0.0009990000000000005 0.7992008 0.18981019 0.009990010000000001 0.0009990000000000005 0.7992008 0.18981019 0.009990010000000001 0.0009990000000000005 0.7992008 0.18981019 0.009990010000000001 0.0009990000000000005 0.7992008 0.18981019 0.009990010000000001 0.0009990000000000005 0.7992008 0.18981019 0.009990010000000001 0.0009990000000000005 0.7992008 0.18981019 0.009990010000000001 0.0009990000000000005 0.7992008 0.18981019 0.009990010000000001 0.0009990000000000005 0.7992008 0.18981019 0.009990010000000001 0.0009990000000000005 0.7992008 0.18981019 0.009990010000000001 0.0009990000000000005 0.7992008 0.18981019 0.009990010000000001 0.0009990000000000005 0.7 0.2 0.09 0.01 0.7992008 0.18981019 0.009990010000000001 0.0009990000000000005 0.7992008 0.18981019 0.009990010000000001 0.0009990000000000005</probabilities>
		</cpt>
		<cpt id="F21">
			<state id="Absent" label="F221" />
			<state id="Present" label="F222" />
			<state id="Prominent" label="F223" />
			<parents>Fault F90</parents>
